svm_type nu_svc
kernel_type rbf
gamma 0.000139606
nr_class 2
total_sv 21232
rho 10.6673
label 1 -1
nr_sv 10552 10680
SV
430.1067718776939 218:1 418:1 1252:1 1861:1 2323:1 2326:1 2514:1 2548:1 2694:1 2802:1 4196:1 4279:1 5158:1 6277:1 6900:1 
430.1067718776939 354:1 977:1 984:1 1862:1 2326:1 3054:1 4629:1 5543:1 5615:1 5697:1 
430.1067718776939 189:1 1054:1 1431:1 1503:1 1582:1 1862:1 2326:1 2694:1 2801:1 2802:1 3163:1 3209:1 3385:1 3669:1 3683:1 4007:1 4566:1 4629:1 5297:1 5792:1 6019:1 6353:1 
430.1067718776939 2247:1 2801:1 3723:1 5208:1 5219:1 5780:1 6252:1 6960:1 
430.1067718776939 591:1 3054:1 3833:1 4629:1 6838:1 
430.1067718776939 2694:1 2802:1 6262:1 
430.1067718776939 204:1 2326:1 2367:1 2694:1 2738:1 3591:1 4566:1 4629:1 5324:1 5448:1 5558:1 5792:1 
367.5778627460188 256:1 348:1 530:1 1529:1 1862:1 2073:1 2183:1 2326:1 3811:1 4127:1 4167:1 5780:1 5792:1 6019:1 6088:1 6329:1 6875:1 6950:1 6953:1 
430.1067718776939 5198:1 6885:1 
430.1067718776939 1838:1 2326:1 2801:1 3066:1 3287:1 4642:1 7160:1 
430.1067718776939 609:1 687:1 2009:1 2023:1 2859:1 3054:1 3562:1 3833:1 3933:1 4814:1 5558:1 6088:1 6392:1 6728:1 6744:1 6953:1 
430.1067718776939 3054:1 3408:1 3653:1 6067:1 
430.1067718776939 218:1 2073:1 2413:1 2604:1 2719:1 3833:1 5248:1 5777:1 5860:1 6088:1 6392:1 6429:1 6950:1 6953:1 
430.1067718776939 340:1 3653:1 3833:1 4363:1 6950:1 
430.1067718776939 418:1 2073:1 3208:1 3833:1 4384:1 4780:1 5792:1 6604:1 6950:1 6989:1 
430.1067718776939 256:1 590:1 650:1 2531:1 2801:1 4078:1 5387:1 
430.1067718776939 1122:1 1397:1 1862:1 2025:1 2694:1 2802:1 2808:1 2812:1 2850:1 2976:1 3408:1 3612:1 3916:1 3935:1 4156:1 4167:1 4555:1 4975:1 5228:1 5248:1 5558:1 6019:1 7048:1 
430.1067718776939 2934:1 3287:1 4316:1 
430.1067718776939 379:1 1020:1 1266:1 1813:1 2802:1 2812:1 3402:1 3597:1 5558:1 5777:1 5800:1 5938:1 5946:1 6088:1 6654:1 
430.1067718776939 1861:1 2801:1 3833:1 3934:1 4596:1 5233:1 6019:1 6329:1 6353:1 
430.1067718776939 2326:1 5534:1 5651:1 5792:1 6353:1 
353.8262549131113 348:1 467:1 486:1 599:1 1004:1 1682:1 2694:1 2870:1 2898:1 3833:1 4164:1 4742:1 5558:1 5675:1 5800:1 5921:1 6067:1 6353:1 6694:1 
430.1067718776939 73:1 346:1 1607:1 1698:1 1900:1 2185:1 2694:1 2806:1 3054:1 3163:1 3208:1 3226:1 4167:1 4293:1 5297:1 5777:1 5792:1 6019:1 6060:1 6067:1 6210:1 6355:1 
374.8009980328272 519:1 868:1 950:1 1094:1 1297:1 1765:1 1927:1 2046:1 2326:1 2362:1 2694:1 2802:1 3012:1 3208:1 3748:1 4127:1 4250:1 4653:1 4687:1 5730:1 6088:1 6950:1 
430.1067718776939 530:1 6210:1 
430.1067718776939 609:1 1431:1 2604:1 2694:1 3964:1 4196:1 4566:1 6088:1 6193:1 6560:1 6583:1 
430.1067718776939 50:1 1582:1 3226:1 6019:1 
430.1067718776939 40:1 1294:1 2694:1 2724:1 2802:1 3298:1 3385:1 3521:1 4566:1 6429:1 
139.3832013248651 1399:1 1862:1 1970:1 2326:1 3933:1 4321:1 4629:1 4661:1 4921:1 4966:1 7004:1 
430.1067718776939 30:1 2326:1 3833:1 
430.1067718776939 218:1 591:1 991:1 1065:1 2339:1 2443:1 2694:1 2802:1 3298:1 3402:1 4566:1 4596:1 4975:1 5528:1 5779:1 6049:1 6060:1 6068:1 6127:1 6950:1 
430.1067718776939 403:1 1472:1 2694:1 2808:1 3626:1 4167:1 4288:1 4665:1 4975:1 6291:1 6490:1 6950:1 
430.1067718776939 1043:1 2802:1 6067:1 6386:1 
430.1067718776939 422:1 1431:1 1682:1 3208:1 4446:1 4952:1 6210:1 
430.1067718776939 591:1 629:1 2694:1 3226:1 4031:1 4961:1 5548:1 6666:1 
430.1067718776939 832:1 977:1 1365:1 1862:1 2326:1 2475:1 2517:1 2582:1 2668:1 3160:1 3208:1 3886:1 4167:1 4716:1 4952:1 5170:1 6071:1 6298:1 6950:1 
430.1067718776939 960:1 977:1 1628:1 2183:1 2802:1 3408:1 3933:1 5744:1 
430.1067718776939 1490:1 1523:1 2668:1 2808:1 3748:1 4167:1 
430.1067718776939 24:1 88:1 189:1 590:1 2694:1 3163:1 3541:1 3833:1 4167:1 4361:1 5623:1 6019:1 6088:1 6392:1 6559:1 6950:1 
430.1067718776939 
430.1067718776939 2006:1 2269:1 2326:1 3921:1 4279:1 6062:1 
430.1067718776939 537:1 609:1 1457:1 1862:1 1932:1 2063:1 2368:1 2694:1 3833:1 5753:1 
430.1067718776939 31:1 218:1 326:1 2586:1 2801:1 3180:1 3833:1 4275:1 4279:1 4629:1 4882:1 6019:1 6088:1 
182.2780938528585 92:1 204:1 680:1 1591:1 2009:1 2052:1 2089:1 2326:1 2424:1 2475:1 2808:1 3594:1 3836:1 4361:1 5248:1 6353:1 6598:1 
430.1067718776939 354:1 2326:1 2761:1 3208:1 3402:1 3811:1 5233:1 5402:1 5905:1 6520:1 
430.1067718776939 218:1 379:1 519:1 977:1 2004:1 2006:1 2183:1 2604:1 2694:1 3170:1 3738:1 3833:1 4472:1 5033:1 5889:1 5992:1 6067:1 
430.1067718776939 256:1 1465:1 2808:1 3219:1 3833:1 5297:1 5543:1 5615:1 6728:1 
430.1067718776939 293:1 403:1 507:1 590:1 626:1 1862:1 2694:1 2907:1 2913:1 3041:1 3208:1 4242:1 4279:1 4288:1 4458:1 4562:1 4566:1 4629:1 5558:1 
430.1067718776939 590:1 1329:1 1449:1 1830:1 2326:1 2742:1 2808:1 3385:1 4167:1 4193:1 5085:1 5535:1 5800:1 6041:1 6228:1 6304:1 
430.1067718776939 303:1 458:1 537:1 1431:1 1862:1 2808:1 3385:1 3914:1 4127:1 4167:1 4196:1 4460:1 5190:1 5252:1 5511:1 5697:1 6392:1 6950:1 7146:1 
430.1067718776939 2009:1 2694:1 2715:1 3516:1 6392:1 7114:1 
430.1067718776939 521:1 1020:1 2475:1 3208:1 
256.3939173034968 1875:1 1935:1 2604:1 3180:1 4322:1 4975:1 6728:1 
430.1067718776939 16:1 519:1 635:1 877:1 1482:1 1682:1 1862:1 1935:1 2109:1 2144:1 2346:1 2694:1 2802:1 2808:1 3125:1 3208:1 3224:1 4629:1 4868:1 5233:1 5558:1 5860:1 6186:1 6953:1 7003:1 
337.5538565900086 180:1 303:1 1501:1 1503:1 1510:1 2165:1 2326:1 2636:1 2808:1 2812:1 3653:1 3813:1 3833:1 5324:1 5455:1 5752:1 6067:1 6307:1 6353:1 
430.1067718776939 523:1 4629:1 4975:1 5233:1 5777:1 5792:1 6713:1 
430.1067718776939 590:1 1523:1 2604:1 2694:1 2801:1 2802:1 2808:1 2812:1 3385:1 3402:1 4127:1 4242:1 4293:1 4687:1 6950:1 6953:1 
430.1067718776939 189:1 2183:1 2694:1 2802:1 3208:1 5792:1 6775:1 7135:1 
320.6763646126346 597:1 789:1 832:1 1510:1 2694:1 3465:1 3689:1 3748:1 5596:1 6900:1 
430.1067718776939 189:1 1294:1 2266:1 2801:1 4363:1 6529:1 6772:1 6950:1 7147:1 
430.1067718776939 189:1 2089:1 2694:1 2802:1 3163:1 3179:1 3298:1 3916:1 6019:1 7130:1 
430.1067718776939 218:1 852:1 2475:1 3163:1 3385:1 3653:1 4127:1 4501:1 5535:1 6677:1 
430.1067718776939 626:1 1304:1 1622:1 1682:1 2536:1 3092:1 3385:1 3833:1 4675:1 5143:1 5558:1 6067:1 6088:1 7135:1 
430.1067718776939 2604:1 2694:1 2751:1 3226:1 3833:1 4629:1 5623:1 6353:1 
430.1067718776939 1582:1 2801:1 5455:1 6383:1 
430.1067718776939 256:1 590:1 1424:1 1503:1 1862:1 1875:1 2006:1 2326:1 2486:1 2694:1 3004:1 3130:1 3163:1 3402:1 4167:1 4214:1 4966:1 5228:1 6019:1 6067:1 6088:1 6168:1 6329:1 
430.1067718776939 597:1 2002:1 2009:1 4250:1 4501:1 6931:1 
430.1067718776939 218:1 519:1 772:1 2026:1 2283:1 2326:1 2475:1 2680:1 2694:1 2932:1 3208:1 3833:1 4529:1 4776:1 5475:1 6067:1 6088:1 7135:1 
430.1067718776939 789:1 1566:1 2806:1 5033:1 5697:1 6088:1 
430.1067718776939 50:1 156:1 297:1 418:1 790:1 2046:1 2694:1 2802:1 3098:1 3184:1 3226:1 3257:1 3385:1 3434:1 3833:1 4167:1 4279:1 5208:1 5542:1 6088:1 6304:1 6654:1 6728:1 6950:1 
430.1067718776939 891:1 1635:1 2764:1 2802:1 4167:1 4887:1 
430.1067718776939 218:1 224:1 633:1 1354:1 1711:1 1935:1 2326:1 2932:1 4005:1 5047:1 5909:1 6019:1 6137:1 6529:1 6698:1 6875:1 
430.1067718776939 418:1 519:1 1294:1 1431:1 2283:1 5889:1 6067:1 
430.1067718776939 1126:1 3298:1 6483:1 
430.1067718776939 2996:1 3066:1 3933:1 
430.1067718776939 168:1 381:1 976:1 1944:1 2269:1 2283:1 2326:1 2662:1 2932:1 3182:1 3833:1 4279:1 4293:1 5014:1 5233:1 5359:1 5792:1 6019:1 6694:1 6894:1 6950:1 
430.1067718776939 1043:1 1696:1 1900:1 4279:1 5727:1 6013:1 6088:1 6186:1 
430.1067718776939 590:1 669:1 753:1 759:1 2283:1 2410:1 2466:1 2802:1 2808:1 3218:1 3402:1 3720:1 3833:1 3933:1 5792:1 6067:1 6088:1 6147:1 6867:1 6953:1 7146:1 
430.1067718776939 1304:1 5599:1 6019:1 6067:1 
430.1067718776939 189:1 590:1 2694:1 4566:1 6070:1 6755:1 
430.1067718776939 189:1 458:1 485:1 519:1 1121:1 1394:1 2326:1 2694:1 2802:1 2808:1 3209:1 3298:1 3321:1 4312:1 4416:1 4990:1 5800:1 6296:1 
430.1067718776939 1187:1 1900:1 2269:1 2326:1 2694:1 3378:1 5228:1 6019:1 7013:1 
430.1067718776939 1635:1 2154:1 2536:1 3935:1 6210:1 
430.1067718776939 508:1 1294:1 1961:1 2009:1 2694:1 3402:1 4566:1 5455:1 5792:1 6049:1 6067:1 6137:1 6950:1 
430.1067718776939 2283:1 2694:1 4196:1 6019:1 
430.1067718776939 12:1 508:1 597:1 962:1 1043:1 1329:1 1659:1 1862:1 2548:1 2627:1 2694:1 2806:1 3065:1 3689:1 3833:1 4214:1 4279:1 5033:1 5558:1 6051:1 6122:1 
430.1067718776939 918:1 954:1 1431:1 2326:1 2694:1 2802:1 2898:1 3667:1 3748:1 3866:1 4077:1 4087:1 4196:1 4687:1 4707:1 4995:1 5482:1 6067:1 6950:1 
430.1067718776939 6428:1 
430.1067718776939 590:1 945:1 1565:1 1714:1 1728:1 1862:1 1935:1 3163:1 4523:1 6088:1 6353:1 
388.4619565645233 218:1 256:1 344:1 463:1 1766:1 1844:1 1861:1 1871:1 2808:1 2967:1 3163:1 3646:1 3833:1 5248:1 6088:1 6583:1 
97.60711860504894 950:1 1861:1 2802:1 3098:1 4596:1 4629:1 6304:1 6950:1 
430.1067718776939 218:1 1431:1 2078:1 2283:1 2967:1 3226:1 3833:1 4629:1 4876:1 5033:1 5297:1 6088:1 6764:1 6892:1 6950:1 
430.1067718776939 590:1 1862:1 2183:1 2928:1 3389:1 3653:1 6067:1 6329:1 6428:1 
430.1067718776939 1266:1 2694:1 5033:1 5552:1 6019:1 
430.1067718776939 2283:1 2694:1 3098:1 4127:1 4687:1 6019:1 
430.1067718776939 1944:1 3640:1 3794:1 3833:1 5233:1 5599:1 
430.1067718776939 290:1 1665:1 6067:1 6317:1 6942:1 7013:1 
430.1067718776939 2694:1 3226:1 5033:1 
430.1067718776939 156:1 344:1 591:1 1510:1 2023:1 2035:1 2134:1 2326:1 2387:1 2447:1 2694:1 2802:1 2898:1 3298:1 3408:1 3649:1 3723:1 4031:1 4249:1 4279:1 6067:1 6239:1 6353:1 6950:1 
430.1067718776939 189:1 418:1 588:1 1390:1 1431:1 1602:1 1862:1 2006:1 2266:1 2283:1 2694:1 2812:1 3054:1 3429:1 3748:1 3761:1 3833:1 4279:1 5193:1 5599:1 5670:1 6088:1 6145:1 6793:1 
430.1067718776939 1220:1 6252:1 
430.1067718776939 2801:1 3709:1 3761:1 
379.1384740612771 256:1 1095:1 1132:1 1271:1 1628:1 1862:1 2421:1 2907:1 3208:1 4600:1 4702:1 4812:1 6088:1 6654:1 6716:1 6950:1 7147:1 
430.1067718776939 537:1 1132:1 1582:1 1607:1 1862:1 2801:1 3054:1 6088:1 6282:1 6854:1 6875:1 
430.1067718776939 92:1 591:1 594:1 2442:1 6764:1 6953:1 
430.1067718776939 2006:1 2801:1 2812:1 3004:1 3208:1 3290:1 3298:1 3402:1 3502:1 3833:1 3916:1 4196:1 4279:1 4418:1 4686:1 5615:1 5777:1 6088:1 6392:1 
430.1067718776939 218:1 519:1 1682:1 1993:1 2326:1 2694:1 2802:1 3049:1 3075:1 3260:1 4031:1 5233:1 5248:1 6019:1 6067:1 6392:1 6950:1 
430.1067718776939 646:1 1944:1 3833:1 5615:1 6088:1 
430.1067718776939 590:1 1266:1 1304:1 1457:1 2719:1 2907:1 6019:1 
430.1067718776939 591:1 2326:1 2650:1 2751:1 2996:1 3833:1 3933:1 4196:1 4279:1 4770:1 4820:1 5534:1 5615:1 5800:1 6051:1 
430.1067718776939 152:1 156:1 379:1 1055:1 2073:1 2694:1 2812:1 2898:1 3362:1 3674:1 3833:1 4074:1 4279:1 4920:1 5575:1 6060:1 6067:1 6088:1 6311:1 6386:1 6554:1 6946:1 6950:1 7135:1 
430.1067718776939 2326:1 2411:1 2932:1 4127:1 4717:1 7013:1 
430.1067718776939 42:1 2808:1 4164:1 4975:1 6088:1 
430.1067718776939 1935:1 2023:1 2604:1 2761:1 3170:1 3833:1 4629:1 
430.1067718776939 519:1 1502:1 1510:1 1662:1 1875:1 2283:1 2326:1 2494:1 2694:1 3163:1 3208:1 3570:1 3626:1 3796:1 3833:1 5119:1 5129:1 5792:1 6021:1 6353:1 6593:1 6953:1 
430.1067718776939 24:1 710:1 2073:1 2547:1 2694:1 3655:1 3833:1 
430.1067718776939 590:1 2326:1 2517:1 2694:1 2808:1 3597:1 4530:1 6950:1 
193.8621923431569 519:1 3385:1 6088:1 6818:1 
319.7140321776355 34:1 436:1 1020:1 1043:1 1133:1 1628:1 1665:1 2694:1 2801:1 2802:1 2907:1 3054:1 3098:1 3208:1 3402:1 3932:1 4818:1 5558:1 5792:1 6666:1 6899:1 7146:1 
430.1067718776939 591:1 633:1 1431:1 1820:1 1834:1 1838:1 1862:1 2011:1 2091:1 2111:1 2269:1 2307:1 2413:1 3208:1 3306:1 3653:1 3811:1 4556:1 5040:1 5233:1 6088:1 6545:1 6755:1 7017:1 
430.1067718776939 418:1 977:1 1628:1 2801:1 3065:1 3833:1 4214:1 6088:1 
430.1067718776939 161:1 256:1 883:1 1095:1 1361:1 1529:1 1665:1 2009:1 2024:1 2326:1 2519:1 2959:1 3813:1 3933:1 5800:1 6067:1 6280:1 6386:1 7146:1 
430.1067718776939 1095:1 6088:1 
430.1067718776939 67:1 2267:1 2317:1 2326:1 2694:1 2773:1 3290:1 3715:1 3748:1 4196:1 5175:1 5792:1 7013:1 
246.7622555453118 1938:1 2368:1 2598:1 2715:1 3089:1 3550:1 6950:1 
430.1067718776939 4630:1 
430.1067718776939 1359:1 2323:1 2694:1 
430.1067718776939 2719:1 2801:1 3833:1 4154:1 4411:1 4557:1 4629:1 4661:1 5777:1 6210:1 
430.1067718776939 2475:1 2536:1 3833:1 4034:1 4629:1 6060:1 6553:1 6679:1 6950:1 
430.1067718776939 669:1 2309:1 2512:1 2694:1 2808:1 4031:1 4629:1 6304:1 6392:1 6467:1 
382.7353602715106 168:1 530:1 883:1 1682:1 2098:1 2326:1 2694:1 2802:1 2808:1 2876:1 3098:1 3208:1 3298:1 3558:1 3562:1 3692:1 4031:1 4523:1 4566:1 5233:1 5558:1 5792:1 6088:1 6304:1 6383:1 6541:1 7077:1 
297.4583144436056 189:1 418:1 1187:1 1478:1 1900:1 2317:1 2477:1 2694:1 2802:1 2808:1 3833:1 4078:1 4975:1 5175:1 5909:1 5975:1 6282:1 6353:1 6950:1 
430.1067718776939 1860:1 3226:1 3933:1 6353:1 6429:1 
430.1067718776939 2738:1 
430.1067718776939 27:1 189:1 974:1 1744:1 2083:1 2267:1 2519:1 2672:1 2802:1 2808:1 3385:1 3402:1 4164:1 5233:1 6088:1 6307:1 6644:1 6891:1 6950:1 
430.1067718776939 2806:1 3003:1 3933:1 4620:1 
198.9206592897855 189:1 519:1 1686:1 2006:1 2694:1 2754:1 3208:1 3270:1 3615:1 3748:1 3833:1 3885:1 4196:1 4301:1 6088:1 6383:1 6654:1 
430.1067718776939 1095:1 2694:1 3429:1 5033:1 5455:1 6067:1 6554:1 6665:1 6950:1 7023:1 7082:1 
430.1067718776939 88:1 189:1 218:1 832:1 3042:1 3054:1 4501:1 5475:1 6060:1 6088:1 6654:1 
338.1362929094516 189:1 977:1 1133:1 1325:1 1635:1 1749:1 2149:1 2183:1 2326:1 2385:1 2802:1 3065:1 3402:1 3833:1 4214:1 6304:1 6679:1 6755:1 
430.1067718776939 1438:1 1682:1 2464:1 2694:1 3833:1 4566:1 6252:1 
430.1067718776939 403:1 2102:1 2475:1 2808:1 4357:1 4710:1 6088:1 6145:1 6580:1 6950:1 
430.1067718776939 1862:1 1922:1 2801:1 3208:1 4697:1 6060:1 6741:1 
430.1067718776939 1206:1 1862:1 2323:1 2694:1 2802:1 3065:1 3179:1 3833:1 3916:1 4214:1 5311:1 
430.1067718776939 418:1 1329:1 1682:1 2650:1 4674:1 5503:1 5792:1 6353:1 
25.28789990574642 1167:1 3054:1 3797:1 4046:1 5125:1 5233:1 5558:1 6654:1 
430.1067718776939 189:1 256:1 524:1 1094:1 1682:1 2073:1 2802:1 3385:1 3408:1 3748:1 3833:1 4010:1 4127:1 6067:1 
430.1067718776939 646:1 2604:1 2694:1 3054:1 3833:1 4566:1 5615:1 6019:1 6900:1 7146:1 
430.1067718776939 1635:1 2475:1 4005:1 4288:1 5697:1 6088:1 
430.1067718776939 189:1 519:1 591:1 1043:1 1757:1 2002:1 2694:1 2802:1 2993:1 3054:1 3833:1 4293:1 4687:1 5441:1 5780:1 5792:1 6088:1 6127:1 6448:1 6583:1 6654:1 7160:1 
430.1067718776939 366:1 519:1 743:1 1934:1 3260:1 3650:1 4010:1 5623:1 6461:1 6838:1 
430.1067718776939 27:1 189:1 974:1 1744:1 2083:1 2267:1 2519:1 2672:1 2802:1 2808:1 3385:1 3402:1 4164:1 5233:1 6088:1 6307:1 6647:1 6891:1 6950:1 
279.7251770035744 916:1 1678:1 1862:1 4094:1 4458:1 6793:1 6950:1 
430.1067718776939 156:1 1429:1 1523:1 1681:1 1869:1 1955:1 2754:1 3408:1 3833:1 4178:1 4279:1 4629:1 6060:1 6067:1 6125:1 7013:1 
430.1067718776939 1719:1 1935:1 2650:1 4322:1 5615:1 6104:1 
430.1067718776939 524:1 883:1 1304:1 1424:1 1453:1 1510:1 1682:1 1862:1 1900:1 2183:1 2184:1 2266:1 2283:1 2326:1 2694:1 3833:1 4472:1 5033:1 5228:1 6067:1 6772:1 
430.1067718776939 88:1 218:1 295:1 537:1 832:1 1607:1 2326:1 2808:1 2937:1 3484:1 4120:1 4614:1 5780:1 6088:1 6353:1 6392:1 6598:1 7147:1 
430.1067718776939 2326:1 2967:1 4727:1 6298:1 7146:1 
430.1067718776939 487:1 984:1 1043:1 1539:1 1862:1 2326:1 2694:1 2842:1 3298:1 3402:1 4687:1 4707:1 4782:1 5482:1 5889:1 6186:1 6690:1 
430.1067718776939 257:1 519:1 590:1 1133:1 2326:1 2637:1 2694:1 3128:1 3402:1 3516:1 3591:1 3833:1 4451:1 5198:1 5475:1 5597:1 5909:1 6032:1 6088:1 6280:1 
430.1067718776939 1706:1 2084:1 2903:1 3278:1 4165:1 4177:1 5362:1 5498:1 6292:1 6329:1 
430.1067718776939 643:1 1094:1 1510:1 3748:1 6067:1 6252:1 6267:1 6386:1 6959:1 
430.1067718776939 590:1 852:1 1808:1 1862:1 1900:1 2006:1 2392:1 2561:1 2694:1 3163:1 3298:1 3402:1 3591:1 3806:1 3833:1 4279:1 4463:1 5237:1 5558:1 5889:1 6252:1 
430.1067718776939 310:1 1043:1 1523:1 1682:1 1900:1 2326:1 2694:1 2801:1 2802:1 2898:1 2981:1 3591:1 3833:1 4196:1 5455:1 5792:1 5882:1 6067:1 6088:1 6137:1 6298:1 6596:1 6950:1 
430.1067718776939 348:1 643:1 828:1 1266:1 1510:1 1862:1 2326:1 2407:1 2694:1 2998:1 3179:1 3748:1 5777:1 5860:1 6019:1 6067:1 6321:1 6506:1 6875:1 6992:1 
430.1067718776939 256:1 303:1 965:1 1043:1 1329:1 1431:1 2046:1 2326:1 2539:1 2808:1 3833:1 3933:1 4812:1 5521:1 5800:1 6021:1 6067:1 6088:1 6583:1 6778:1 7013:1 7021:1 
146.4423824846396 418:1 977:1 1431:1 1862:1 1875:1 2070:1 2326:1 3833:1 4473:1 4560:1 5777:1 6386:1 6567:1 
430.1067718776939 88:1 412:1 519:1 1121:1 1665:1 2326:1 2511:1 2694:1 2801:1 3001:1 3054:1 3226:1 3833:1 4472:1 5387:1 5914:1 6031:1 6088:1 6298:1 6818:1 6903:1 6931:1 
430.1067718776939 418:1 572:1 783:1 1862:1 2004:1 2009:1 2326:1 2368:1 2738:1 2801:1 3208:1 3214:1 4034:1 4698:1 5090:1 5546:1 6298:1 
430.1067718776939 98:1 832:1 977:1 2144:1 2326:1 2694:1 4566:1 
430.1067718776939 189:1 2375:1 5455:1 5972:1 
430.1067718776939 379:1 965:1 985:1 1043:1 1304:1 2073:1 2326:1 2802:1 2812:1 3163:1 4164:1 4193:1 4196:1 4629:1 5233:1 5558:1 5780:1 6067:1 6088:1 
430.1067718776939 2283:1 2694:1 4181:1 4827:1 
430.1067718776939 2806:1 2808:1 5173:1 5485:1 5803:1 6392:1 
430.1067718776939 4316:1 5515:1 6088:1 
430.1067718776939 168:1 519:1 2694:1 3208:1 4196:1 5381:1 5543:1 5697:1 5798:1 
430.1067718776939 874:1 1362:1 1682:1 2004:1 2801:1 3833:1 4645:1 4661:1 5228:1 5432:1 5777:1 6374:1 6834:1 
430.1067718776939 1132:1 1304:1 1638:1 2283:1 2326:1 4164:1 4629:1 4780:1 5533:1 5792:1 6060:1 6067:1 6171:1 7149:1 
430.1067718776939 229:1 1862:1 1932:1 2759:1 3208:1 6560:1 
430.1067718776939 92:1 1095:1 1125:1 2009:1 2326:1 2511:1 3933:1 4955:1 4975:1 5475:1 
430.1067718776939 326:1 518:1 591:1 1532:1 1704:1 1862:1 2694:1 2738:1 3208:1 3226:1 3588:1 3709:1 3933:1 4306:1 5033:1 5569:1 5917:1 6088:1 6950:1 
430.1067718776939 289:1 2283:1 2694:1 2808:1 3054:1 3098:1 3208:1 3833:1 4196:1 4279:1 4818:1 5233:1 5535:1 6186:1 6353:1 6396:1 7003:1 7147:1 
430.1067718776939 421:1 1935:1 2199:1 4975:1 6049:1 6085:1 6088:1 6639:1 
430.1067718776939 218:1 1266:1 2326:1 2377:1 2694:1 2802:1 2808:1 4843:1 
430.1067718776939 189:1 1266:1 3597:1 4690:1 6019:1 6088:1 6726:1 
430.1067718776939 1809:1 2394:1 5790:1 
430.1067718776939 590:1 1457:1 1635:1 2002:1 2694:1 3738:1 3833:1 4974:1 
430.1067718776939 530:1 1525:1 1862:1 2326:1 2801:1 3163:1 3208:1 6088:1 6311:1 6820:1 
430.1067718776939 88:1 303:1 537:1 770:1 1283:1 1361:1 1503:1 1635:1 2067:1 2511:1 2694:1 2905:1 2914:1 2996:1 3588:1 3833:1 3933:1 3940:1 5615:1 5670:1 5792:1 6088:1 7137:1 
430.1067718776939 50:1 2932:1 3046:1 5455:1 6060:1 6654:1 
430.1067718776939 3153:1 5777:1 7105:1 
430.1067718776939 3184:1 3208:1 3360:1 3833:1 3916:1 4223:1 5615:1 6019:1 6104:1 
430.1067718776939 960:1 2009:1 2078:1 2604:1 2694:1 3234:1 3431:1 3833:1 5033:1 
430.1067718776939 303:1 348:1 633:1 635:1 813:1 1031:1 1402:1 2035:1 4835:1 5402:1 5558:1 6088:1 7054:1 
225.1761228091955 1304:1 1424:1 1457:1 2130:1 2183:1 2261:1 2326:1 2694:1 2808:1 3163:1 3180:1 4015:1 4196:1 4242:1 4466:1 4567:1 5780:1 5890:1 6560:1 7135:1 
430.1067718776939 519:1 652:1 1304:1 2009:1 2718:1 2802:1 2869:1 3208:1 4522:1 6088:1 6202:1 
430.1067718776939 2694:1 3592:1 3748:1 4687:1 5033:1 
145.5172663524798 168:1 2326:1 2738:1 2808:1 4108:1 4645:1 5792:1 6060:1 6596:1 
430.1067718776939 156:1 1523:1 1682:1 2009:1 2326:1 2694:1 2778:1 2802:1 2808:1 2898:1 3362:1 3626:1 3813:1 4279:1 4566:1 5455:1 5623:1 5792:1 6067:1 6137:1 6292:1 6428:1 7013:1 7135:1 
430.1067718776939 252:1 1862:1 2806:1 2808:1 6392:1 
430.1067718776939 168:1 519:1 590:1 935:1 1304:1 2006:1 2144:1 2326:1 2694:1 3226:1 3748:1 4629:1 5558:1 5792:1 6019:1 6298:1 6560:1 7135:1 
430.1067718776939 2326:1 2604:1 3402:1 3833:1 4164:1 6464:1 
430.1067718776939 2226:1 2694:1 2774:1 3179:1 3208:1 
430.1067718776939 159:1 1848:1 2801:1 
430.1067718776939 2283:1 4923:1 6060:1 6298:1 
430.1067718776939 251:1 302:1 857:1 1320:1 2547:1 5798:1 6950:1 7163:1 
430.1067718776939 139:1 6654:1 
430.1067718776939 633:1 1862:1 2548:1 2808:1 3065:1 3226:1 3343:1 3935:1 4085:1 4214:1 4279:1 5641:1 6088:1 6104:1 6280:1 6374:1 6414:1 6474:1 6755:1 6819:1 6900:1 6950:1 
430.1067718776939 388:1 1148:1 1468:1 3497:1 5596:1 
0.1504767761732459 354:1 591:1 1362:1 1838:1 1900:1 1935:1 2326:1 2413:1 2604:1 2659:1 2694:1 2801:1 2870:1 2892:1 3163:1 3208:1 3848:1 3878:1 3916:1 3946:1 4203:1 6019:1 6088:1 6186:1 6311:1 6832:1 6950:1 
430.1067718776939 189:1 398:1 973:1 1431:1 2801:1 2802:1 3065:1 3260:1 3811:1 3833:1 4214:1 
430.1067718776939 1043:1 2117:1 2694:1 3118:1 3170:1 3748:1 3833:1 4196:1 4231:1 4279:1 4501:1 4629:1 4687:1 5274:1 5352:1 5599:1 5792:1 6019:1 6060:1 6067:1 6088:1 6353:1 6654:1 6950:1 
430.1067718776939 1431:1 1920:1 2448:1 3208:1 3385:1 3935:1 5248:1 6499:1 7013:1 
430.1067718776939 189:1 519:1 521:1 1862:1 2006:1 2404:1 2694:1 2802:1 3208:1 3646:1 3833:1 4263:1 4596:1 
430.1067718776939 256:1 379:1 1362:1 2694:1 4263:1 4288:1 
293.0909780283635 950:1 3934:1 4827:1 5792:1 
430.1067718776939 2311:1 3402:1 6163:1 
430.1067718776939 609:1 1325:1 1862:1 2009:1 2326:1 2967:1 4697:1 4827:1 4965:1 5125:1 5792:1 6592:1 6654:1 
280.7549682691308 218:1 422:1 519:1 538:1 573:1 590:1 801:1 1509:1 2078:1 2402:1 2620:1 2668:1 3933:1 4052:1 4749:1 5792:1 6088:1 6444:1 6950:1 
430.1067718776939 6121:1 
430.1067718776939 492:1 521:1 1527:1 1862:1 4356:1 6018:1 6019:1 6067:1 
430.1067718776939 1095:1 1900:1 2044:1 2694:1 3833:1 4196:1 4596:1 4629:1 4811:1 5475:1 5672:1 7135:1 
430.1067718776939 26:1 1304:1 2362:1 2808:1 2812:1 3054:1 4196:1 4293:1 5248:1 6067:1 
430.1067718776939 590:1 952:1 2112:1 2808:1 3653:1 3933:1 4127:1 5040:1 
430.1067718776939 1424:1 1523:1 3208:1 3408:1 4411:1 6913:1 
430.1067718776939 256:1 1502:1 1532:1 2610:1 2802:1 2954:1 3054:1 3153:1 3208:1 3298:1 3402:1 3833:1 4038:1 5125:1 5780:1 6931:1 6950:1 
430.1067718776939 88:1 256:1 530:1 568:1 1266:1 1862:1 2326:1 2694:1 3170:1 3402:1 3994:1 4629:1 4716:1 5479:1 6067:1 
430.1067718776939 626:1 747:1 822:1 1241:1 1431:1 1682:1 2428:1 2694:1 2801:1 2802:1 2910:1 3003:1 3402:1 4216:1 4279:1 4288:1 4556:1 4629:1 5697:1 6280:1 6950:1 
430.1067718776939 521:1 1893:1 2326:1 2694:1 3298:1 3402:1 3670:1 3748:1 4139:1 4196:1 4279:1 5233:1 5691:1 6088:1 6280:1 6304:1 6554:1 7147:1 
430.1067718776939 47:1 519:1 530:1 1467:1 1793:1 1862:1 2189:1 2694:1 2802:1 3163:1 3833:1 6019:1 6060:1 6088:1 6838:1 
362.2548922120667 2561:1 2694:1 2738:1 2742:1 2879:1 3208:1 3833:1 3916:1 4293:1 4356:1 4566:1 4629:1 4663:1 5193:1 6353:1 6950:1 7013:1 
430.1067718776939 67:1 346:1 485:1 590:1 1402:1 1682:1 1862:1 2002:1 2536:1 2546:1 2801:1 2808:1 2870:1 3042:1 3629:1 3915:1 5175:1 5792:1 5863:1 5909:1 6067:1 6088:1 
430.1067718776939 24:1 669:1 883:1 1020:1 1296:1 1429:1 2020:1 2116:1 2326:1 2604:1 2694:1 2802:1 3833:1 4780:1 5228:1 5792:1 7016:1 
430.1067718776939 935:1 2046:1 2222:1 2694:1 2801:1 2802:1 2808:1 3163:1 3833:1 4189:1 4196:1 4279:1 4293:1 4317:1 5014:1 5193:1 5248:1 5777:1 6088:1 6518:1 6654:1 
430.1067718776939 92:1 139:1 168:1 626:1 877:1 1204:1 2511:1 2694:1 2708:1 2801:1 3298:1 3916:1 5455:1 6019:1 6574:1 6971:1 
430.1067718776939 492:1 2879:1 4293:1 6332:1 
430.1067718776939 189:1 519:1 1043:1 1665:1 2326:1 2357:1 2694:1 2802:1 2808:1 3049:1 3785:1 3833:1 4458:1 5455:1 5725:1 5831:1 5900:1 6360:1 6654:1 6950:1 
430.1067718776939 938:1 1056:1 2694:1 2808:1 3833:1 5558:1 6396:1 
430.1067718776939 1266:1 2326:1 3405:1 3748:1 3796:1 3934:1 4196:1 5558:1 5697:1 5792:1 6067:1 6145:1 
430.1067718776939 388:1 1875:1 3344:1 3768:1 3833:1 5013:1 5233:1 5697:1 6325:1 6474:1 
430.1067718776939 537:1 3833:1 5615:1 5780:1 6088:1 6728:1 7146:1 
430.1067718776939 1362:1 1714:1 2738:1 5520:1 6088:1 6218:1 6950:1 
430.1067718776939 2052:1 2694:1 3434:1 4196:1 4731:1 5244:1 5535:1 6021:1 6280:1 7059:1 
430.1067718776939 1862:1 2009:1 7056:1 
430.1067718776939 256:1 2571:1 2694:1 3163:1 3806:1 3833:1 4566:1 6131:1 6252:1 
430.1067718776939 2326:1 2801:1 5143:1 5777:1 6950:1 
430.1067718776939 591:1 635:1 1043:1 1266:1 1682:1 1696:1 1935:1 2283:1 2294:1 2694:1 2876:1 3163:1 5290:1 5792:1 6058:1 
430.1067718776939 209:1 249:1 2267:1 2283:1 2326:1 2801:1 2808:1 3748:1 3791:1 4196:1 4242:1 4720:1 5233:1 5248:1 5558:1 5792:1 6066:1 6067:1 6285:1 
430.1067718776939 610:1 1055:1 2116:1 2326:1 2424:1 2694:1 2801:1 2802:1 2812:1 3001:1 3208:1 3674:1 4629:1 4975:1 5174:1 6088:1 6574:1 7072:1 
430.1067718776939 485:1 590:1 1095:1 1357:1 2447:1 2802:1 3163:1 3184:1 3352:1 3551:1 5475:1 6950:1 
430.1067718776939 2326:1 2738:1 2801:1 3738:1 5779:1 
430.1067718776939 412:1 708:1 734:1 2002:1 2694:1 3468:1 5297:1 5792:1 7135:1 
430.1067718776939 482:1 830:1 1424:1 2751:1 3597:1 3811:1 4279:1 4393:1 4562:1 5521:1 5575:1 6360:1 7051:1 
430.1067718776939 396:1 492:1 635:1 952:1 977:1 1138:1 1915:1 2002:1 2482:1 2694:1 3511:1 4019:1 5193:1 6031:1 6088:1 6464:1 6950:1 
430.1067718776939 2801:1 6649:1 
430.1067718776939 385:1 519:1 652:1 2368:1 2694:1 2808:1 3703:1 3748:1 4196:1 4242:1 4686:1 5125:1 6031:1 6088:1 6210:1 6950:1 
430.1067718776939 256:1 344:1 2870:1 3042:1 5085:1 
430.1067718776939 508:1 635:1 1094:1 1820:1 2269:1 2326:1 2876:1 2898:1 2937:1 3813:1 4716:1 5206:1 6521:1 
430.1067718776939 633:1 1043:1 2604:1 2801:1 2981:1 3833:1 3933:1 6950:1 
430.1067718776939 2806:1 3933:1 4322:1 4410:1 
430.1067718776939 530:1 590:1 951:1 1011:1 1431:1 2117:1 3813:1 3833:1 3933:1 6067:1 6329:1 
430.1067718776939 379:1 1094:1 1714:1 1875:1 2283:1 2835:1 3112:1 3208:1 3833:1 5615:1 6088:1 6550:1 
430.1067718776939 2002:1 2009:1 3516:1 3934:1 4258:1 4548:1 4697:1 4896:1 6672:1 6931:1 7109:1 
430.1067718776939 73:1 189:1 1274:1 1862:1 2047:1 2212:1 2558:1 2694:1 2802:1 3562:1 3833:1 4031:1 4523:1 5033:1 5040:1 5889:1 6067:1 6088:1 6429:1 6526:1 7135:1 
430.1067718776939 1862:1 2587:1 
430.1067718776939 1582:1 1862:1 5792:1 6088:1 6583:1 
430.1067718776939 388:1 426:1 2801:1 3833:1 5615:1 
430.1067718776939 290:1 1763:1 2694:1 2808:1 3163:1 4314:1 4357:1 4687:1 4995:1 5107:1 5989:1 
268.7538851229428 519:1 1457:1 3833:1 3935:1 4596:1 4686:1 4701:1 5033:1 5543:1 6088:1 6152:1 6252:1 6617:1 
430.1067718776939 412:1 832:1 1574:1 1698:1 2694:1 2802:1 2808:1 3298:1 4167:1 6067:1 6215:1 6953:1 
430.1067718776939 519:1 765:1 1217:1 2326:1 2560:1 2694:1 3224:1 3298:1 4250:1 5475:1 5889:1 6060:1 6067:1 6665:1 6674:1 
430.1067718776939 1266:1 2802:1 
362.2581227476036 256:1 492:1 1397:1 1782:1 2586:1 3385:1 3916:1 4279:1 5475:1 6067:1 6429:1 7013:1 
430.1067718776939 418:1 1523:1 2116:1 2326:1 2694:1 3833:1 4010:1 4293:1 4629:1 4780:1 5534:1 5558:1 5681:1 5792:1 6409:1 6423:1 6950:1 
430.1067718776939 4629:1 6732:1 6950:1 
430.1067718776939 139:1 590:1 2326:1 2694:1 2801:1 2808:1 3278:1 4431:1 4436:1 5228:1 6063:1 6252:1 6429:1 
430.1067718776939 591:1 1862:1 2009:1 2482:1 4127:1 4814:1 5792:1 7013:1 
430.1067718776939 832:1 3402:1 4955:1 5558:1 5869:1 6950:1 
430.1067718776939 189:1 2053:1 2317:1 2326:1 3208:1 3833:1 4195:1 4275:1 4786:1 5344:1 5634:1 
430.1067718776939 3180:1 3208:1 6042:1 
430.1067718776939 1844:1 1861:1 1900:1 2004:1 2808:1 3163:1 3208:1 3935:1 4316:1 4555:1 5792:1 6067:1 6088:1 7013:1 
430.1067718776939 189:1 348:1 590:1 950:1 1362:1 1503:1 1678:1 1927:1 2127:1 2694:1 3402:1 3408:1 3796:1 4170:1 4216:1 4566:1 4792:1 5580:1 5599:1 5792:1 6019:1 6088:1 6386:1 
430.1067718776939 189:1 348:1 590:1 657:1 2009:1 2073:1 2694:1 2801:1 2802:1 3065:1 3463:1 3833:1 3871:1 4214:1 4237:1 5228:1 6067:1 6353:1 
430.1067718776939 344:1 1398:1 1445:1 2006:1 2035:1 2280:1 2326:1 2808:1 2898:1 3298:1 3591:1 4250:1 5040:1 5778:1 6088:1 
430.1067718776939 189:1 590:1 830:1 1698:1 2694:1 2751:1 2812:1 4629:1 5475:1 6019:1 6031:1 
430.1067718776939 519:1 1431:1 5780:1 6088:1 6210:1 6654:1 
430.1067718776939 962:1 3385:1 5285:1 
382.2118352276353 189:1 770:1 1393:1 1860:1 1862:1 1989:1 2326:1 2694:1 2802:1 3495:1 3682:1 3724:1 3782:1 3791:1 3797:1 3833:1 4164:1 5564:1 5792:1 6353:1 6950:1 
430.1067718776939 220:1 395:1 519:1 647:1 1074:1 1304:1 1610:1 2047:1 2326:1 2442:1 2802:1 2865:1 2978:1 3163:1 3833:1 4167:1 4193:1 4657:1 5029:1 6771:1 
430.1067718776939 218:1 418:1 1808:1 2307:1 2326:1 2694:1 2802:1 2808:1 4279:1 4472:1 5355:1 5457:1 5777:1 5844:1 6352:1 6353:1 6429:1 6837:1 6950:1 
430.1067718776939 485:1 519:1 590:1 1431:1 1523:1 2269:1 2376:1 2694:1 2808:1 3042:1 3233:1 3910:1 4279:1 4562:1 4566:1 5033:1 5228:1 6019:1 6329:1 6950:1 
241.893389309616 1131:1 3984:1 4066:1 6088:1 
430.1067718776939 168:1 418:1 1054:1 1304:1 1669:1 2326:1 2532:1 2694:1 2802:1 3163:1 3298:1 3933:1 4167:1 4661:1 5229:1 5615:1 6019:1 6694:1 6736:1 
430.1067718776939 88:1 493:1 635:1 2694:1 3228:1 3402:1 5249:1 6088:1 6186:1 
430.1067718776939 609:1 1054:1 1862:1 3385:1 4010:1 4629:1 5455:1 5558:1 
430.1067718776939 156:1 348:1 352:1 770:1 852:1 1503:1 2073:1 2627:1 2996:1 3098:1 3570:1 3933:1 4127:1 4279:1 5800:1 6060:1 6672:1 
430.1067718776939 445:1 3298:1 
430.1067718776939 1043:1 1682:1 1808:1 2117:1 2144:1 2269:1 2694:1 2802:1 3163:1 3321:1 3570:1 3833:1 4279:1 4458:1 4629:1 5032:1 5475:1 5800:1 6067:1 6088:1 6767:1 7013:1 7135:1 
430.1067718776939 5475:1 6067:1 7013:1 
430.1067718776939 1862:1 2694:1 4332:1 5604:1 6067:1 6088:1 6665:1 
430.1067718776939 2326:1 2738:1 4777:1 5248:1 
430.1067718776939 883:1 2668:1 3933:1 4167:1 4629:1 6660:1 
430.1067718776939 152:1 189:1 873:1 1362:1 1582:1 2063:1 2269:1 2853:1 3402:1 3626:1 3833:1 3846:1 3934:1 4279:1 4562:1 4596:1 4716:1 4909:1 5475:1 5912:1 6950:1 7013:1 7104:1 
430.1067718776939 590:1 852:1 1431:1 2604:1 2694:1 3350:1 5040:1 5357:1 6386:1 6574:1 
430.1067718776939 252:1 1862:1 2694:1 2808:1 4566:1 6392:1 
430.1067718776939 18:1 121:1 2738:1 
430.1067718776939 777:1 1431:1 1454:1 1842:1 2032:1 2283:1 2694:1 3846:1 3871:1 5732:1 6088:1 6744:1 6950:1 
430.1067718776939 2073:1 2117:1 2694:1 2751:1 3163:1 3833:1 4196:1 4279:1 4629:1 6019:1 6067:1 6396:1 7135:1 
430.1067718776939 965:1 2694:1 4050:1 4195:1 4566:1 4755:1 6088:1 6311:1 6353:1 
430.1067718776939 92:1 7155:1 
430.1067718776939 868:1 3833:1 4458:1 4472:1 5474:1 6018:1 6088:1 6728:1 
430.1067718776939 672:1 3208:1 3768:1 3933:1 4423:1 4629:1 7004:1 7013:1 
55.2870710710901 189:1 604:1 832:1 1935:1 2009:1 2024:1 2518:1 2801:1 2802:1 2808:1 3054:1 3305:1 4155:1 4297:1 4458:1 5455:1 5543:1 6383:1 6953:1 
430.1067718776939 938:1 1862:1 5641:1 5777:1 6396:1 
430.1067718776939 626:1 2694:1 3833:1 3933:1 4167:1 4196:1 4279:1 6051:1 6654:1 6999:1 
430.1067718776939 24:1 229:1 2694:1 3916:1 4279:1 6088:1 
430.1067718776939 249:1 1610:1 1659:1 1862:1 2475:1 4515:1 6364:1 6950:1 
430.1067718776939 189:1 521:1 1020:1 1126:1 1523:1 1582:1 1871:1 2396:1 2668:1 2694:1 2801:1 2854:1 3408:1 3662:1 3811:1 3833:1 5558:1 5623:1 6104:1 6950:1 
430.1067718776939 519:1 874:1 977:1 1749:1 1793:1 2004:1 2183:1 2694:1 2802:1 2812:1 3408:1 3933:1 4127:1 5777:1 5860:1 6953:1 
430.1067718776939 1056:1 1132:1 1714:1 2002:1 2326:1 2368:1 2694:1 2808:1 3208:1 3226:1 3537:1 3833:1 4170:1 4614:1 7033:1 
430.1067718776939 189:1 591:1 741:1 837:1 1714:1 1935:1 2129:1 2381:1 2802:1 3054:1 3797:1 3933:1 4567:1 5455:1 6353:1 6698:1 
430.1067718776939 949:1 1304:1 1549:1 2326:1 2694:1 2751:1 2802:1 3042:1 3149:1 3226:1 4031:1 4270:1 4629:1 5697:1 5780:1 
430.1067718776939 256:1 519:1 2183:1 2937:1 4196:1 4293:1 5193:1 
430.1067718776939 938:1 1053:1 2116:1 2785:1 3298:1 3553:1 3778:1 3833:1 4275:1 6298:1 
430.1067718776939 789:1 3650:1 4025:1 
430.1067718776939 582:1 1547:1 2067:1 2326:1 2482:1 2801:1 2808:1 3662:1 5792:1 6329:1 6654:1 6950:1 
430.1067718776939 191:1 225:1 635:1 2488:1 3320:1 3833:1 3933:1 5768:1 6428:1 
430.1067718776939 519:1 521:1 1860:1 3748:1 3791:1 
430.1067718776939 27:1 852:1 1682:1 2183:1 2545:1 2580:1 2637:1 2802:1 3153:1 3163:1 3290:1 3833:1 4211:1 4279:1 4562:1 4609:1 4955:1 5233:1 5475:1 6019:1 6145:1 7135:1 
430.1067718776939 189:1 308:1 591:1 832:1 1051:1 1431:1 1591:1 1862:1 2801:1 2808:1 3402:1 3833:1 4628:1 4629:1 5248:1 6877:1 
430.1067718776939 597:1 3226:1 5125:1 5161:1 5658:1 5792:1 6031:1 6992:1 
430.1067718776939 2183:1 3748:1 
430.1067718776939 73:1 189:1 591:1 1839:1 1844:1 1862:1 2283:1 2314:1 2576:1 2801:1 3208:1 3833:1 4629:1 4955:1 5033:1 5248:1 5889:1 6088:1 
430.1067718776939 1862:1 2326:1 2802:1 2937:1 4416:1 5233:1 5623:1 6947:1 
430.1067718776939 590:1 1833:1 2754:1 3367:1 4164:1 5033:1 6679:1 
430.1067718776939 303:1 1904:1 2009:1 2668:1 2694:1 3260:1 3650:1 3796:1 4031:1 5228:1 5860:1 6019:1 6728:1 7069:1 
430.1067718776939 1980:1 2004:1 4369:1 5248:1 
430.1067718776939 
430.1067718776939 168:1 1266:1 5777:1 6694:1 6941:1 
430.1067718776939 1861:1 2267:1 2694:1 3208:1 3385:1 3640:1 3791:1 4279:1 4472:1 4501:1 4562:1 4629:1 4686:1 4975:1 5475:1 6067:1 6210:1 6950:1 6999:1 7013:1 7135:1 
430.1067718776939 1324:1 2694:1 6252:1 6353:1 
430.1067718776939 168:1 189:1 590:1 2326:1 2694:1 2802:1 3004:1 3208:1 3932:1 4031:1 4693:1 4927:1 5040:1 5597:1 5889:1 6353:1 6751:1 7048:1 
430.1067718776939 1005:1 1177:1 2326:1 2694:1 2801:1 2808:1 4167:1 5889:1 
430.1067718776939 2694:1 2802:1 3226:1 4687:1 
430.1067718776939 1429:1 1508:1 2014:1 2326:1 2808:1 3961:1 4707:1 4782:1 5482:1 6210:1 6950:1 7013:1 
430.1067718776939 245:1 2326:1 2475:1 3208:1 3402:1 4472:1 5197:1 5779:1 
430.1067718776939 218:1 2009:1 3044:1 3182:1 4712:1 6865:1 
430.1067718776939 189:1 318:1 635:1 746:1 2326:1 2487:1 3208:1 3402:1 3916:1 5792:1 6088:1 6573:1 6802:1 7013:1 
430.1067718776939 367:1 519:1 1283:1 1583:1 2694:1 5248:1 5783:1 5889:1 6950:1 7090:1 
430.1067718776939 704:1 788:1 1087:1 1126:1 1266:1 1294:1 1431:1 2009:1 2283:1 3132:1 3209:1 3723:1 3833:1 4288:1 4657:1 5777:1 6145:1 6464:1 7004:1 
241.9039835683058 977:1 1219:1 1266:1 1431:1 1628:1 1749:1 1862:1 2135:1 2183:1 2326:1 2694:1 2802:1 3402:1 3715:1 3833:1 4362:1 4687:1 5228:1 5558:1 6088:1 6654:1 7158:1 
430.1067718776939 1793:1 2116:1 2326:1 3349:1 4555:1 7101:1 
226.8036831281129 69:1 560:1 1095:1 1547:1 1838:1 1844:1 1944:1 2009:1 2326:1 2802:1 2865:1 3098:1 3935:1 4138:1 4589:1 4715:1 6088:1 6554:1 7135:1 
430.1067718776939 24:1 734:1 1309:1 1681:1 1900:1 2801:1 2802:1 3020:1 3833:1 4127:1 4596:1 6950:1 
430.1067718776939 635:1 1133:1 2802:1 3226:1 3833:1 3927:1 4629:1 5437:1 6383:1 6630:1 
430.1067718776939 156:1 189:1 2267:1 2269:1 2307:1 2326:1 2694:1 2932:1 3318:1 3328:1 3626:1 4226:1 4279:1 4291:1 4687:1 5049:1 5792:1 6386:1 6429:1 6654:1 6950:1 7013:1 7104:1 
430.1067718776939 519:1 573:1 891:1 923:1 1095:1 2694:1 2715:1 2751:1 2898:1 3042:1 3179:1 3811:1 5615:1 6950:1 
430.1067718776939 2903:1 2998:1 
430.1067718776939 1900:1 2694:1 2933:1 
430.1067718776939 348:1 418:1 657:1 1043:1 1862:1 2326:1 3208:1 3833:1 5311:1 5792:1 5821:1 6088:1 
16.74061482431725 168:1 303:1 862:1 1095:1 1254:1 1327:1 1696:1 1955:1 2009:1 2511:1 2517:1 2694:1 2715:1 2808:1 3239:1 3352:1 3388:1 3833:1 3846:1 5475:1 5792:1 6744:1 6900:1 
430.1067718776939 256:1 2326:1 3046:1 4092:1 5648:1 
430.1067718776939 1523:1 2694:1 3098:1 5558:1 
430.1067718776939 519:1 590:1 604:1 990:1 1696:1 2326:1 2586:1 2907:1 3163:1 3347:1 3833:1 4279:1 4629:1 4660:1 5033:1 5125:1 5657:1 6067:1 6088:1 6239:1 6428:1 6429:1 6838:1 6950:1 7146:1 
430.1067718776939 189:1 519:1 935:1 2144:1 2267:1 2326:1 2802:1 3574:1 3833:1 4734:1 5033:1 5382:1 6088:1 6228:1 6654:1 7113:1 
430.1067718776939 168:1 789:1 965:1 1665:1 1935:1 2269:1 2326:1 2546:1 2560:1 2604:1 3186:1 3208:1 3402:1 4108:1 4138:1 5125:1 5738:1 5792:1 6150:1 6529:1 
430.1067718776939 189:1 218:1 418:1 519:1 1100:1 1133:1 1431:1 1547:1 2326:1 2694:1 2802:1 2808:1 3208:1 3385:1 4566:1 5233:1 5641:1 6529:1 
430.1067718776939 189:1 2000:1 2165:1 3054:1 3802:1 4290:1 4313:1 5464:1 5792:1 6274:1 7008:1 
347.874516819033 218:1 421:1 1681:1 1888:1 2046:1 2292:1 2575:1 2619:1 2802:1 3232:1 3362:1 3402:1 4010:1 4430:1 4437:1 6950:1 
430.1067718776939 638:1 1043:1 1900:1 2183:1 2694:1 2802:1 2884:1 3101:1 4148:1 4222:1 4629:1 5233:1 6031:1 6088:1 6580:1 6950:1 7137:1 
430.1067718776939 519:1 633:1 3715:1 3833:1 5175:1 5558:1 6088:1 6654:1 
430.1067718776939 1503:1 2078:1 2802:1 3182:1 4496:1 5944:1 
113.4750612383412 92:1 530:1 1862:1 2326:1 2561:1 2802:1 3260:1 3329:1 3833:1 3948:1 5248:1 5558:1 6296:1 6950:1 
430.1067718776939 519:1 2694:1 2883:1 3066:1 3101:1 3170:1 3833:1 5228:1 6088:1 
430.1067718776939 2181:1 2326:1 2801:1 3402:1 3833:1 4901:1 
430.1067718776939 512:1 1862:1 2481:1 2694:1 3098:1 3208:1 4196:1 4279:1 5792:1 5908:1 6396:1 6593:1 6950:1 
430.1067718776939 
430.1067718776939 209:1 519:1 2604:1 2650:1 2694:1 3098:1 3463:1 3833:1 5193:1 5500:1 5889:1 6278:1 
430.1067718776939 168:1 189:1 308:1 965:1 2116:1 2326:1 2519:1 2668:1 2801:1 2907:1 3591:1 4196:1 4279:1 5831:1 7137:1 7158:1 
430.1067718776939 192:1 218:1 991:1 1068:1 1681:1 1944:1 2694:1 3163:1 3748:1 4127:1 4288:1 5558:1 5838:1 6452:1 6950:1 6953:1 7013:1 
430.1067718776939 88:1 256:1 1061:1 1510:1 2267:1 2269:1 2740:1 3260:1 3408:1 3916:1 4031:1 4629:1 5882:1 6021:1 6067:1 6214:1 6419:1 7154:1 
430.1067718776939 189:1 249:1 590:1 635:1 1126:1 1900:1 1935:1 2604:1 2694:1 2719:1 3163:1 3208:1 3429:1 3523:1 5228:1 6088:1 6186:1 6252:1 6560:1 6644:1 
94.28357061742003 218:1 832:1 2009:1 2212:1 2447:1 2799:1 3811:1 3833:1 6274:1 
430.1067718776939 256:1 1095:1 2326:1 2518:1 2801:1 2894:1 3042:1 3226:1 3402:1 4164:1 4274:1 4811:1 5248:1 5697:1 5777:1 
430.1067718776939 2116:1 2694:1 2802:1 4566:1 5569:1 6252:1 6280:1 
430.1067718776939 2326:1 3402:1 3833:1 6741:1 
6.506953594833487 189:1 256:1 591:1 1043:1 1266:1 1397:1 1862:1 2689:1 2802:1 3450:1 3833:1 4789:1 5233:1 6019:1 6072:1 
181.9526662775896 140:1 189:1 1523:1 1787:1 2053:1 2184:1 2808:1 3182:1 3833:1 3946:1 4645:1 5228:1 5297:1 5792:1 6060:1 6067:1 6088:1 6189:1 6708:1 
430.1067718776939 189:1 785:1 883:1 1043:1 1682:1 2117:1 2446:1 2694:1 2801:1 2802:1 3833:1 4034:1 4226:1 4279:1 4562:1 5200:1 5276:1 5792:1 6088:1 6950:1 
430.1067718776939 12:1 218:1 269:1 590:1 1390:1 1862:1 2326:1 3385:1 3748:1 3833:1 3946:1 4489:1 5040:1 5107:1 5361:1 5558:1 
430.1067718776939 168:1 214:1 303:1 412:1 1043:1 2069:1 2960:1 3402:1 3833:1 4472:1 4629:1 4975:1 5263:1 5777:1 6060:1 6067:1 6088:1 6149:1 
430.1067718776939 151:1 318:1 326:1 1005:1 1728:1 1862:1 2065:1 2694:1 2808:1 3208:1 3402:1 4614:1 4629:1 5700:1 5971:1 6088:1 6935:1 
430.1067718776939 363:1 530:1 1900:1 2694:1 2740:1 2802:1 2818:1 3298:1 6035:1 7026:1 
430.1067718776939 88:1 2283:1 2326:1 2694:1 3833:1 4827:1 5085:1 5656:1 6386:1 6654:1 6767:1 
430.1067718776939 519:1 1682:1 2326:1 2575:1 2694:1 3226:1 3797:1 3833:1 4144:1 6088:1 6353:1 
430.1067718776939 2785:1 2801:1 3541:1 6088:1 7122:1 
166.9288038892342 189:1 2089:1 2446:1 2802:1 
430.1067718776939 218:1 832:1 1100:1 1594:1 2009:1 2058:1 2326:1 2806:1 3402:1 6225:1 
430.1067718776939 139:1 218:1 257:1 297:1 935:1 1547:1 2326:1 2694:1 2808:1 3054:1 3748:1 3768:1 4566:1 5697:1 6088:1 6366:1 6654:1 6950:1 
430.1067718776939 1698:1 2073:1 2801:1 3003:1 3410:1 4629:1 6661:1 6678:1 6900:1 6922:1 
430.1067718776939 218:1 813:1 1043:1 1665:1 2000:1 2034:1 2063:1 2223:1 2326:1 2694:1 2802:1 3098:1 3402:1 3799:1 3833:1 4167:1 4458:1 4472:1 5513:1 6019:1 
430.1067718776939 189:1 525:1 591:1 638:1 1043:1 2326:1 2694:1 2802:1 2808:1 3163:1 3208:1 3726:1 3833:1 3933:1 4167:1 4714:1 4908:1 6307:1 6359:1 6616:1 6638:1 
430.1067718776939 388:1 965:1 1304:1 1862:1 2116:1 2802:1 3170:1 3385:1 3748:1 5612:1 5689:1 6145:1 6942:1 
430.1067718776939 1431:1 2046:1 2144:1 2754:1 2802:1 4629:1 6088:1 
430.1067718776939 2855:1 5248:1 6088:1 6252:1 
430.1067718776939 40:1 67:1 418:1 519:1 589:1 590:1 1860:1 2326:1 2897:1 3163:1 3416:1 4629:1 4639:1 5455:1 5612:1 6654:1 
430.1067718776939 189:1 746:1 1216:1 1266:1 1843:1 1862:1 2637:1 2694:1 2802:1 2913:1 3042:1 3163:1 4629:1 5361:1 5792:1 5889:1 5990:1 6205:1 6353:1 6370:1 6585:1 6821:1 6994:1 
430.1067718776939 2694:1 2715:1 6067:1 6104:1 
430.1067718776939 168:1 218:1 781:1 1020:1 1654:1 2023:1 2801:1 2808:1 3208:1 3423:1 3662:1 3959:1 5558:1 6031:1 6274:1 6953:1 
430.1067718776939 1712:1 1907:1 3208:1 3833:1 4915:1 5792:1 6938:1 6950:1 
430.1067718776939 590:1 1566:1 1682:1 2283:1 2694:1 2812:1 3163:1 4472:1 4530:1 5198:1 6953:1 
430.1067718776939 93:1 418:1 2071:1 2326:1 2335:1 3208:1 
430.1067718776939 
430.1067718776939 589:1 935:1 2117:1 2694:1 2808:1 3163:1 3673:1 4566:1 6088:1 6416:1 
430.1067718776939 1362:1 1566:1 2417:1 2694:1 5228:1 6145:1 
430.1067718776939 50:1 348:1 537:1 2129:1 2326:1 2694:1 2802:1 2890:1 3626:1 4167:1 5040:1 5889:1 6019:1 6553:1 6654:1 6950:1 7135:1 
430.1067718776939 189:1 449:1 519:1 1043:1 1054:1 1621:1 3402:1 4196:1 4279:1 5377:1 5792:1 6019:1 6255:1 
430.1067718776939 1711:1 2325:1 2326:1 4530:1 5777:1 5792:1 5860:1 5995:1 6067:1 6145:1 
430.1067718776939 2574:1 2694:1 3224:1 3402:1 4472:1 4566:1 5475:1 5777:1 6067:1 6083:1 6654:1 7013:1 
430.1067718776939 92:1 189:1 475:1 578:1 718:1 1628:1 1681:1 1862:1 2379:1 3002:1 3260:1 3488:1 3748:1 
430.1067718776939 445:1 1362:1 1682:1 1698:1 2144:1 2326:1 2801:1 3544:1 3563:1 3833:1 4127:1 4834:1 5777:1 6569:1 6776:1 
430.1067718776939 92:1 519:1 1635:1 1821:1 2604:1 2694:1 2754:1 3463:1 3833:1 5385:1 5777:1 6088:1 6145:1 7158:1 
149.140318542263 77:1 795:1 1510:1 2326:1 2342:1 2538:1 2808:1 3054:1 3208:1 3374:1 3402:1 3728:1 3833:1 3916:1 4164:1 4686:1 5792:1 6019:1 6950:1 
135.4763122274482 789:1 1334:1 2035:1 2694:1 2808:1 5792:1 6019:1 6088:1 6583:1 6838:1 
430.1067718776939 2694:1 3141:1 4279:1 6955:1 
430.1067718776939 41:1 282:1 1304:1 1742:1 1861:1 2116:1 2802:1 3833:1 5475:1 5558:1 
430.1067718776939 597:1 1094:1 1266:1 2801:1 3570:1 5455:1 5835:1 5889:1 6019:1 
243.9155472244581 168:1 303:1 537:1 610:1 1373:1 1862:1 2073:1 2662:1 2694:1 2802:1 2854:1 3385:1 3748:1 3811:1 3833:1 3916:1 4167:1 4279:1 4556:1 5792:1 6545:1 6950:1 
430.1067718776939 960:1 1013:1 1043:1 2694:1 2967:1 3813:1 3833:1 4167:1 6950:1 
430.1067718776939 92:1 442:1 1523:1 1862:1 2561:1 2801:1 2971:1 3260:1 3833:1 3965:1 4196:1 5234:1 5558:1 5677:1 5777:1 6019:1 
430.1067718776939 69:1 318:1 633:1 1329:1 1782:1 1862:1 2806:1 2967:1 3163:1 3385:1 3833:1 4357:1 5543:1 5558:1 5615:1 6019:1 6049:1 6088:1 6305:1 6682:1 7146:1 
430.1067718776939 832:1 965:1 1095:1 1665:1 1843:1 2802:1 3226:1 3933:1 4322:1 4620:1 4716:1 5805:1 6353:1 
430.1067718776939 1167:1 2740:1 3385:1 5792:1 6019:1 6694:1 
430.1067718776939 121:1 553:1 3054:1 5534:1 5558:1 6145:1 
430.1067718776939 1043:1 2044:1 2694:1 2801:1 2918:1 4648:1 5800:1 6019:1 
430.1067718776939 388:1 590:1 801:1 1043:1 1189:1 1251:1 1682:1 2650:1 2806:1 3066:1 3748:1 3833:1 4010:1 4288:1 4586:1 5558:1 5792:1 6019:1 6280:1 6950:1 
27.56488223883555 67:1 249:1 262:1 519:1 530:1 1503:1 2326:1 2475:1 2808:1 3207:1 3516:1 3761:1 4554:1 4740:1 5233:1 5777:1 5792:1 6907:1 7017:1 
430.1067718776939 1043:1 2694:1 2808:1 3201:1 3933:1 4687:1 6088:1 6953:1 
430.1067718776939 519:1 1547:1 1682:1 2326:1 2801:1 3163:1 4196:1 4279:1 5085:1 6067:1 7135:1 
307.2697490928307 445:1 555:1 1266:1 1796:1 1900:1 2392:1 2694:1 2801:1 3208:1 3298:1 3813:1 4364:1 4688:1 5079:1 5800:1 6021:1 6088:1 6394:1 6488:1 6553:1 
430.1067718776939 591:1 2694:1 2785:1 2808:1 3208:1 3226:1 3287:1 4031:1 4279:1 4562:1 
430.1067718776939 218:1 303:1 410:1 418:1 609:1 633:1 1862:1 1900:1 1935:1 2077:1 2183:1 2326:1 2381:1 2694:1 3260:1 3833:1 3946:1 4031:1 4127:1 4523:1 4566:1 4720:1 4812:1 7013:1 
430.1067718776939 1683:1 1818:1 2326:1 7013:1 
430.1067718776939 5285:1 6091:1 
430.1067718776939 627:1 1862:1 6694:1 
430.1067718776939 218:1 303:1 1252:1 1404:1 1665:1 1796:1 2326:1 4600:1 6950:1 7003:1 
430.1067718776939 44:1 88:1 2802:1 3163:1 3402:1 4202:1 5355:1 5382:1 5777:1 6429:1 6694:1 7130:1 
430.1067718776939 2123:1 2738:1 4219:1 5437:1 6353:1 6383:1 
430.1067718776939 204:1 5216:1 6088:1 
430.1067718776939 1595:1 2032:1 2326:1 2694:1 2801:1 3163:1 3390:1 3653:1 4687:1 5534:1 5792:1 5807:1 6067:1 6145:1 6802:1 
430.1067718776939 591:1 2694:1 3385:1 3653:1 3833:1 4127:1 4566:1 4992:1 5534:1 6529:1 7003:1 
303.3811754336458 62:1 218:1 1266:1 1849:1 2013:1 2196:1 2269:1 2368:1 2808:1 3385:1 3916:1 4127:1 4167:1 4279:1 5248:1 5623:1 6088:1 6529:1 
430.1067718776939 50:1 591:1 683:1 1012:1 3697:1 4957:1 
430.1067718776939 492:1 591:1 599:1 1862:1 2694:1 3208:1 3226:1 3782:1 4193:1 4196:1 5697:1 6298:1 
430.1067718776939 189:1 1145:1 2802:1 
67.12820013865144 967:1 1862:1 2073:1 2152:1 2326:1 2808:1 3003:1 3833:1 5800:1 7021:1 
430.1067718776939 189:1 418:1 1449:1 2326:1 2464:1 2668:1 3218:1 3833:1 4576:1 4629:1 5448:1 5792:1 
430.1067718776939 24:1 590:1 634:1 1121:1 1935:1 2004:1 2673:1 2812:1 3049:1 3385:1 3405:1 3833:1 4164:1 5090:1 5125:1 6067:1 6088:1 6145:1 6353:1 6950:1 
337.1131382349861 209:1 242:1 2148:1 2326:1 2362:1 2740:1 2747:1 4196:1 5792:1 6019:1 6088:1 6090:1 6276:1 
430.1067718776939 189:1 2802:1 4293:1 4716:1 
430.1067718776939 949:1 
430.1067718776939 952:1 1547:1 1749:1 1838:1 1900:1 2326:1 2694:1 
430.1067718776939 220:1 388:1 591:1 977:1 1206:1 1848:1 1862:1 2165:1 2326:1 2536:1 2752:1 2806:1 2808:1 3208:1 4167:1 4808:1 5995:1 
430.1067718776939 
140.0539182540043 955:1 3163:1 5107:1 5665:1 7013:1 
430.1067718776939 591:1 658:1 666:1 1449:1 2009:1 2326:1 2368:1 2375:1 3814:1 4786:1 5648:1 5792:1 6616:1 
430.1067718776939 2326:1 2604:1 3172:1 
430.1067718776939 189:1 590:1 665:1 1020:1 1682:1 2006:1 2694:1 2802:1 3833:1 3880:1 4629:1 5792:1 6179:1 6329:1 6694:1 6950:1 
430.1067718776939 1431:1 2801:1 3833:1 5558:1 5615:1 5780:1 6088:1 6654:1 
430.1067718776939 3208:1 3833:1 6950:1 
430.1067718776939 950:1 2269:1 3208:1 7013:1 
430.1067718776939 189:1 1582:1 2694:1 3523:1 4566:1 5615:1 5697:1 6755:1 6950:1 
430.1067718776939 46:1 2801:1 5389:1 5912:1 6029:1 
125.5879927621899 18:1 341:1 2757:1 2957:1 4177:1 4350:1 7126:1 
430.1067718776939 525:1 590:1 659:1 1431:1 2694:1 2802:1 2808:1 3042:1 3208:1 3864:1 3916:1 4167:1 4923:1 5228:1 
430.1067718776939 159:1 1334:1 2009:1 3298:1 5233:1 
430.1067718776939 12:1 852:1 2115:1 2195:1 2342:1 2801:1 2808:1 6950:1 
430.1067718776939 1266:1 2694:1 2802:1 
430.1067718776939 786:1 810:1 1862:1 2326:1 3402:1 3761:1 4350:1 4698:1 4975:1 5875:1 
106.7767106872938 1012:1 1547:1 2002:1 2326:1 2808:1 3199:1 3385:1 3840:1 5739:1 7040:1 
430.1067718776939 2804:1 4196:1 4472:1 5248:1 5599:1 
141.7431330348695 1429:1 2014:1 2073:1 2694:1 2808:1 3401:1 4707:1 4782:1 5482:1 6950:1 
430.1067718776939 354:1 379:1 1043:1 1682:1 2326:1 2694:1 4607:1 5792:1 6067:1 6319:1 
430.1067718776939 2876:1 4472:1 5434:1 5576:1 6067:1 6353:1 
430.1067718776939 189:1 540:1 1763:1 2694:1 4167:1 4975:1 5248:1 5889:1 6019:1 
430.1067718776939 103:1 168:1 590:1 597:1 2326:1 3149:1 3163:1 4701:1 5040:1 5543:1 6019:1 6088:1 6298:1 7147:1 
430.1067718776939 1682:1 2428:1 2738:1 3208:1 3402:1 4797:1 6941:1 
281.5470262748302 519:1 1431:1 1627:1 2072:1 3243:1 4288:1 4692:1 6386:1 6429:1 
385.9969804021918 1266:1 1861:1 2267:1 2447:1 2475:1 2694:1 3182:1 3385:1 4293:1 6060:1 7039:1 
430.1067718776939 1036:1 1456:1 2269:1 2374:1 2694:1 2740:1 2808:1 3208:1 3653:1 3833:1 3916:1 3975:1 4279:1 4313:1 4562:1 4566:1 4596:1 4629:1 5198:1 5909:1 6019:1 6765:1 
430.1067718776939 204:1 748:1 2694:1 3163:1 3591:1 4167:1 4472:1 4661:1 5455:1 6067:1 6419:1 7013:1 7088:1 
430.1067718776939 2002:1 2694:1 3029:1 3523:1 3573:1 3602:1 3797:1 6147:1 6353:1 6371:1 6518:1 6758:1 
430.1067718776939 2283:1 6953:1 
430.1067718776939 396:1 626:1 870:1 1834:1 1849:1 1987:1 2002:1 2326:1 2694:1 3208:1 3748:1 5767:1 6286:1 6950:1 
430.1067718776939 832:1 1121:1 2004:1 2387:1 2604:1 3435:1 3833:1 4242:1 4720:1 5208:1 5558:1 7147:1 
430.1067718776939 88:1 1635:1 2269:1 2326:1 2806:1 2898:1 3748:1 4827:1 5206:1 
430.1067718776939 445:1 530:1 1862:1 3298:1 6838:1 
430.1067718776939 519:1 590:1 710:1 1266:1 2269:1 2694:1 3243:1 3748:1 3916:1 3946:1 4213:1 4279:1 4288:1 4562:1 5233:1 7011:1 
430.1067718776939 633:1 646:1 1944:1 2694:1 4566:1 6088:1 
430.1067718776939 388:1 591:1 2326:1 3402:1 3553:1 4716:1 
430.1067718776939 623:1 2740:1 3004:1 3385:1 3833:1 5558:1 6051:1 6088:1 6311:1 
430.1067718776939 31:1 156:1 2123:1 2326:1 2586:1 2694:1 2721:1 2802:1 2808:1 3650:1 4279:1 4611:1 4687:1 6067:1 6392:1 6560:1 
430.1067718776939 724:1 1523:1 1875:1 2073:1 2797:1 3374:1 5687:1 5792:1 5903:1 5995:1 6067:1 6281:1 
430.1067718776939 1765:1 
430.1067718776939 4629:1 6574:1 6950:1 
430.1067718776939 2118:1 3385:1 6429:1 
430.1067718776939 189:1 1266:1 2668:1 4061:1 4556:1 6088:1 6679:1 
430.1067718776939 168:1 1051:1 2558:1 3573:1 3791:1 3846:1 4167:1 4357:1 5455:1 5475:1 6019:1 7135:1 
430.1067718776939 55:1 168:1 629:1 952:1 2326:1 2802:1 3298:1 3855:1 4167:1 4347:1 4833:1 4995:1 5144:1 6085:1 6406:1 6540:1 
430.1067718776939 168:1 492:1 2801:1 4242:1 4472:1 4770:1 5402:1 5777:1 6019:1 6307:1 6654:1 
430.1067718776939 519:1 847:1 948:1 1771:1 2009:1 2694:1 2808:1 3833:1 4811:1 4814:1 6088:1 
430.1067718776939 562:1 591:1 597:1 998:1 1689:1 1862:1 2009:1 2135:1 2733:1 2734:1 2801:1 2808:1 2937:1 3201:1 4167:1 4214:1 5248:1 6019:1 6088:1 6662:1 7008:1 
430.1067718776939 256:1 268:1 418:1 731:1 1665:1 2274:1 2346:1 2801:1 3833:1 4039:1 5052:1 5233:1 6019:1 6653:1 6839:1 
430.1067718776939 218:1 308:1 412:1 2694:1 3098:1 3298:1 3385:1 4196:1 4279:1 4293:1 4629:1 4716:1 5558:1 6067:1 6088:1 6900:1 
430.1067718776939 189:1 1935:1 2009:1 2448:1 2668:1 3080:1 3432:1 3964:1 5455:1 6085:1 6088:1 6404:1 
430.1067718776939 519:1 832:1 1862:1 2694:1 3042:1 3098:1 5558:1 6060:1 6454:1 6950:1 6967:1 7056:1 
430.1067718776939 492:1 590:1 1397:1 1698:1 2575:1 6378:1 6429:1 
430.1067718776939 2326:1 5311:1 5543:1 7133:1 
430.1067718776939 189:1 262:1 303:1 635:1 1503:1 1582:1 1696:1 1871:1 2053:1 2494:1 2801:1 3209:1 4279:1 4562:1 4629:1 4803:1 5033:1 5596:1 5777:1 6392:1 6634:1 
248.0458149859356 1665:1 4659:1 5889:1 
430.1067718776939 218:1 590:1 1251:1 2000:1 2073:1 2326:1 2659:1 2694:1 2932:1 3163:1 3833:1 4472:1 4566:1 4596:1 5803:1 7054:1 
430.1067718776939 2694:1 2802:1 3182:1 3833:1 3916:1 4127:1 4389:1 5535:1 5584:1 5623:1 5889:1 6104:1 6429:1 6593:1 
430.1067718776939 242:1 590:1 952:1 985:1 1365:1 1675:1 1862:1 1970:1 2009:1 2283:1 2326:1 2494:1 2780:1 3163:1 3226:1 3833:1 4555:1 4573:1 4976:1 5792:1 6145:1 6392:1 6953:1 
430.1067718776939 590:1 1266:1 2233:1 2241:1 2326:1 2754:1 2808:1 3934:1 4196:1 4629:1 4692:1 5135:1 5792:1 5838:1 5878:1 6949:1 
430.1067718776939 88:1 1043:1 2326:1 2539:1 2561:1 2694:1 2802:1 2932:1 3208:1 3804:1 3833:1 4811:1 5543:1 6043:1 6067:1 6953:1 
430.1067718776939 923:1 938:1 1266:1 1830:1 1838:1 1856:1 1862:1 2116:1 2694:1 4369:1 4629:1 4851:1 5434:1 5733:1 6067:1 6728:1 6801:1 7013:1 
430.1067718776939 1764:1 4975:1 5248:1 
430.1067718776939 24:1 638:1 1665:1 2283:1 2694:1 3163:1 3208:1 3471:1 3833:1 4223:1 4279:1 4317:1 4562:1 4629:1 5232:1 5475:1 6252:1 6298:1 6524:1 6593:1 7135:1 
430.1067718776939 2394:1 6822:1 
430.1067718776939 92:1 3748:1 4750:1 6088:1 6654:1 6942:1 
430.1067718776939 591:1 2806:1 2808:1 
430.1067718776939 189:1 308:1 591:1 2307:1 2526:1 2694:1 2802:1 2808:1 2937:1 3510:1 3591:1 4288:1 4566:1 4896:1 5720:1 6950:1 
430.1067718776939 2326:1 3983:1 6263:1 
430.1067718776939 189:1 633:1 920:1 1607:1 1628:1 2802:1 3833:1 3956:1 4170:1 4196:1 4279:1 5558:1 5777:1 6396:1 7146:1 
430.1067718776939 50:1 977:1 1266:1 3833:1 3933:1 4411:1 4501:1 4629:1 5315:1 5777:1 5792:1 6950:1 
430.1067718776939 44:1 88:1 2802:1 3163:1 3402:1 4202:1 5355:1 5382:1 5777:1 6429:1 6694:1 7130:1 
430.1067718776939 2903:1 
430.1067718776939 50:1 326:1 1204:1 1665:1 2326:1 3054:1 3167:1 3208:1 3591:1 5040:1 6088:1 6304:1 6353:1 6654:1 6682:1 7147:1 7160:1 
430.1067718776939 62:1 218:1 1862:1 2694:1 2801:1 2802:1 3226:1 4031:1 4624:1 4974:1 6088:1 
157.6412257706701 218:1 336:1 418:1 1354:1 1635:1 1665:1 3049:1 3208:1 3833:1 4293:1 5914:1 6145:1 6197:1 
430.1067718776939 139:1 252:1 2536:1 2801:1 3402:1 3833:1 5291:1 5544:1 5558:1 6088:1 
360.6257922866448 388:1 1148:1 1523:1 2009:1 2073:1 2808:1 3062:1 3398:1 3600:1 4322:1 5143:1 6755:1 
430.1067718776939 590:1 2002:1 2808:1 3180:1 3833:1 4223:1 4288:1 5543:1 6744:1 
430.1067718776939 2694:1 2718:1 3806:1 3833:1 4167:1 4687:1 5777:1 6060:1 6252:1 6329:1 6694:1 6950:1 
430.1067718776939 218:1 852:1 1266:1 1647:1 2009:1 2928:1 3290:1 3653:1 3693:1 3833:1 4170:1 4201:1 4690:1 5233:1 6019:1 6067:1 6088:1 
430.1067718776939 519:1 2269:1 3290:1 3385:1 3570:1 3653:1 3833:1 4812:1 5534:1 5803:1 6019:1 6067:1 6744:1 
50.23028798649109 88:1 2002:1 2694:1 3385:1 3748:1 3791:1 5381:1 5780:1 5943:1 6088:1 6520:1 6574:1 6665:1 6902:1 6950:1 
430.1067718776939 218:1 537:1 627:1 2801:1 2808:1 3830:1 3946:1 4586:1 5234:1 6088:1 6932:1 6950:1 
430.1067718776939 190:1 1871:1 2002:1 2009:1 2694:1 2808:1 3833:1 4844:1 5558:1 6283:1 6931:1 
430.1067718776939 189:1 519:1 591:1 739:1 2802:1 4975:1 5033:1 6049:1 6147:1 6808:1 
430.1067718776939 418:1 519:1 1449:1 1510:1 2694:1 2801:1 2808:1 3163:1 3208:1 3260:1 3402:1 3626:1 3748:1 3833:1 4127:1 4164:1 4293:1 5730:1 5777:1 6390:1 6617:1 6681:1 7135:1 
430.1067718776939 537:1 643:1 1177:1 1570:1 2801:1 3208:1 3348:1 3833:1 4975:1 5689:1 6060:1 6353:1 
371.7914813650109 346:1 590:1 591:1 633:1 643:1 1860:1 2073:1 2283:1 2326:1 2806:1 2808:1 3208:1 3833:1 4686:1 4952:1 5107:1 5500:1 5543:1 5615:1 5841:1 6721:1 6950:1 
33.28751152596077 111:1 128:1 643:1 972:1 1005:1 2694:1 2808:1 3385:1 3402:1 4010:1 4472:1 5387:1 5558:1 6088:1 6145:1 
430.1067718776939 388:1 832:1 849:1 2326:1 2694:1 2808:1 2906:1 3208:1 3402:1 3949:1 4164:1 4193:1 4566:1 4629:1 5459:1 5558:1 6019:1 6173:1 6953:1 
430.1067718776939 1539:1 2326:1 2808:1 3298:1 3402:1 4293:1 5558:1 6298:1 6953:1 
430.1067718776939 189:1 349:1 450:1 687:1 883:1 1202:1 1665:1 1862:1 1935:1 2116:1 2326:1 3261:1 4629:1 5424:1 6068:1 6286:1 6755:1 6931:1 
430.1067718776939 1762:1 2694:1 2801:1 2988:1 3163:1 3208:1 4038:1 4127:1 4687:1 4952:1 4975:1 5792:1 6741:1 7013:1 
430.1067718776939 262:1 449:1 1509:1 2694:1 3255:1 3725:1 3833:1 5792:1 7048:1 
430.1067718776939 591:1 760:1 1862:1 3626:1 7138:1 
430.1067718776939 1508:1 1861:1 2183:1 2694:1 4472:1 5543:1 6067:1 6304:1 
340.2304013264512 168:1 2071:1 2266:1 2326:1 2464:1 2795:1 2808:1 3145:1 3674:1 3833:1 4167:1 4196:1 4242:1 4739:1 6019:1 7135:1 7146:1 7147:1 
376.3085761899637 147:1 396:1 1451:1 1862:1 2561:1 3182:1 3833:1 4596:1 4629:1 5641:1 6488:1 
430.1067718776939 88:1 218:1 627:1 679:1 960:1 1635:1 2694:1 3003:1 3047:1 3402:1 3408:1 4700:1 6088:1 6574:1 6950:1 7161:1 
430.1067718776939 1449:1 1510:1 2243:1 2694:1 3054:1 3098:1 3402:1 5558:1 6067:1 6765:1 7013:1 
430.1067718776939 2808:1 3208:1 3514:1 3748:1 4811:1 5558:1 5826:1 6088:1 6560:1 6567:1 
430.1067718776939 88:1 431:1 801:1 938:1 1682:1 1927:1 2267:1 2785:1 2802:1 2806:1 3402:1 3833:1 4275:1 4555:1 4687:1 5233:1 5507:1 5697:1 6163:1 6169:1 7013:1 
430.1067718776939 379:1 1510:1 1681:1 2123:1 2189:1 2802:1 3033:1 3833:1 4127:1 4369:1 5224:1 5534:1 5615:1 6019:1 6067:1 6171:1 6593:1 7013:1 
430.1067718776939 92:1 591:1 1361:1 2002:1 2806:1 3208:1 3588:1 6383:1 6499:1 6654:1 6950:1 
430.1067718776939 591:1 1862:1 2002:1 2326:1 2801:1 3431:1 4071:1 6755:1 7127:1 
430.1067718776939 218:1 1043:1 2326:1 2596:1 5792:1 6941:1 
430.1067718776939 2808:1 3846:1 4127:1 4964:1 6574:1 
430.1067718776939 189:1 591:1 868:1 1862:1 2802:1 2808:1 3163:1 3363:1 3402:1 3591:1 3833:1 4473:1 5904:1 5943:1 6088:1 6309:1 6311:1 
430.1067718776939 218:1 1782:1 1900:1 2009:1 2694:1 2802:1 2808:1 3160:1 4551:1 4566:1 5233:1 6950:1 
430.1067718776939 418:1 1362:1 1862:1 2694:1 3591:1 3833:1 4447:1 4555:1 4653:1 5156:1 6067:1 6088:1 7056:1 
430.1067718776939 24:1 1094:1 1266:1 1333:1 1335:1 2027:1 2063:1 2694:1 3833:1 3916:1 4700:1 5455:1 6127:1 6145:1 
430.1067718776939 1266:1 1762:1 5248:1 5521:1 5792:1 
430.1067718776939 403:1 879:1 1009:1 1862:1 2335:1 2598:1 2629:1 6298:1 
430.1067718776939 
430.1067718776939 218:1 506:1 965:1 2668:1 3208:1 4629:1 5730:1 
430.1067718776939 1043:1 2269:1 2326:1 2464:1 2694:1 2778:1 2898:1 3251:1 3408:1 3723:1 3833:1 3916:1 4167:1 4279:1 4356:1 4629:1 6013:1 6067:1 6121:1 6145:1 6353:1 
430.1067718776939 133:1 519:1 1902:1 2134:1 3138:1 5657:1 6060:1 6067:1 6186:1 6950:1 
430.1067718776939 519:1 633:1 1266:1 1278:1 1510:1 2694:1 3080:1 3226:1 3230:1 3321:1 3833:1 4155:1 4566:1 4629:1 4929:1 5261:1 6088:1 6325:1 6598:1 6718:1 
430.1067718776939 2009:1 2694:1 2822:1 4814:1 5285:1 6980:1 
430.1067718776939 519:1 1602:1 1830:1 2073:1 2140:1 2326:1 2346:1 2451:1 2673:1 2740:1 5362:1 5587:1 5792:1 6019:1 6088:1 6449:1 6654:1 6950:1 6953:1 7048:1 
430.1067718776939 537:1 1582:1 3402:1 5332:1 5948:1 6088:1 
430.1067718776939 832:1 3054:1 3833:1 5580:1 
430.1067718776939 1714:1 2283:1 2326:1 2694:1 2808:1 3170:1 3402:1 3720:1 3748:1 3833:1 3934:1 5413:1 5792:1 
430.1067718776939 1523:1 2582:1 5558:1 6067:1 
76.39472806846499 218:1 256:1 1304:1 1900:1 2561:1 2694:1 2876:1 3290:1 3813:1 3833:1 3939:1 4975:1 5248:1 5455:1 5803:1 6067:1 6461:1 6755:1 7013:1 
430.1067718776939 189:1 530:1 2283:1 2694:1 3748:1 
430.1067718776939 519:1 1095:1 1410:1 2267:1 2300:1 2808:1 2812:1 3570:1 4253:1 5800:1 6088:1 6127:1 
430.1067718776939 418:1 635:1 1624:1 1635:1 1665:1 2053:1 2086:1 2326:1 2694:1 2806:1 3290:1 3402:1 3591:1 4087:1 4167:1 4803:1 4990:1 5552:1 5792:1 6145:1 6234:1 6722:1 6931:1 
430.1067718776939 418:1 3833:1 6392:1 
304.0928447207049 189:1 591:1 1362:1 1789:1 1862:1 2283:1 2694:1 2802:1 3163:1 3591:1 3833:1 3916:1 4293:1 4687:1 4753:1 5233:1 5914:1 6088:1 6249:1 6950:1 6994:1 7013:1 
430.1067718776939 2801:1 4975:1 5248:1 5257:1 5978:1 6203:1 
430.1067718776939 1875:1 2604:1 2801:1 3180:1 3833:1 4293:1 4876:1 6067:1 6755:1 
430.1067718776939 682:1 1669:1 3077:1 3811:1 6210:1 6429:1 
430.1067718776939 335:1 595:1 627:1 897:1 1004:1 1220:1 1682:1 1900:1 2009:1 2326:1 2694:1 2978:1 3098:1 3163:1 3208:1 3833:1 4045:1 4975:1 5425:1 6104:1 6145:1 6403:1 
430.1067718776939 303:1 537:1 644:1 1066:1 1682:1 1716:1 1862:1 2734:1 2898:1 2953:1 4485:1 5777:1 6088:1 6429:1 6679:1 6833:1 6864:1 
430.1067718776939 6252:1 
430.1067718776939 1665:1 2694:1 4566:1 
430.1067718776939 527:1 590:1 1020:1 2283:1 2326:1 2636:1 2801:1 3662:1 3855:1 4975:1 5792:1 5872:1 6215:1 6298:1 
430.1067718776939 171:1 189:1 418:1 1450:1 1583:1 1752:1 2006:1 2144:1 2152:1 2326:1 2694:1 2802:1 3208:1 3290:1 3463:1 3833:1 3933:1 4472:1 5033:1 5104:1 6252:1 6418:1 6741:1 6950:1 
430.1067718776939 1862:1 2694:1 4566:1 4775:1 5233:1 6298:1 
430.1067718776939 308:1 346:1 785:1 818:1 847:1 1005:1 1357:1 1362:1 2301:1 2326:1 2694:1 2812:1 2907:1 3697:1 4566:1 4629:1 5543:1 5697:1 6145:1 6149:1 6744:1 
430.1067718776939 123:1 3706:1 
287.4673602726107 88:1 188:1 985:1 1390:1 2009:1 2326:1 4293:1 5041:1 5233:1 5792:1 5871:1 6088:1 
430.1067718776939 4713:1 6429:1 
430.1067718776939 189:1 519:1 952:1 1875:1 2694:1 2802:1 3098:1 3748:1 3833:1 4041:1 4155:1 4196:1 4279:1 4716:1 4957:1 5410:1 6067:1 6088:1 6353:1 
430.1067718776939 832:1 1327:1 1665:1 3003:1 3199:1 3226:1 3357:1 3385:1 4633:1 6353:1 6361:1 6950:1 
430.1067718776939 946:1 1250:1 1357:1 1900:1 2326:1 2694:1 2801:1 3208:1 3385:1 4193:1 6644:1 
430.1067718776939 88:1 519:1 643:1 1076:1 1510:1 2694:1 2802:1 3054:1 3670:1 3833:1 4293:1 4316:1 4614:1 4629:1 4687:1 6067:1 6088:1 6127:1 6252:1 6294:1 6654:1 7146:1 
430.1067718776939 2326:1 2802:1 3626:1 3797:1 4164:1 4196:1 5558:1 
430.1067718776939 418:1 977:1 1682:1 1862:1 6755:1 
430.1067718776939 303:1 1163:1 1665:1 2009:1 2267:1 2694:1 3591:1 4293:1 4566:1 
430.1067718776939 168:1 256:1 537:1 1862:1 2326:1 3405:1 
430.1067718776939 73:1 519:1 2283:1 2694:1 2801:1 2802:1 2870:1 3163:1 3748:1 3833:1 4031:1 4812:1 6392:1 
430.1067718776939 209:1 485:1 588:1 1304:1 1362:1 1431:1 1508:1 1632:1 2326:1 2694:1 2785:1 2801:1 3208:1 3833:1 3964:1 4361:1 5040:1 5041:1 5248:1 5792:1 6088:1 6392:1 6654:1 
430.1067718776939 189:1 2260:1 2604:1 3811:1 4794:1 
430.1067718776939 262:1 519:1 1696:1 2326:1 2694:1 2991:1 4152:1 4566:1 4957:1 6067:1 6088:1 6946:1 
430.1067718776939 786:1 1301:1 1844:1 1944:1 2116:1 2802:1 3163:1 3791:1 4811:1 5475:1 6067:1 6298:1 
430.1067718776939 590:1 687:1 1944:1 2006:1 2381:1 2694:1 2801:1 3208:1 3726:1 3833:1 4566:1 4904:1 4975:1 4987:1 5233:1 5615:1 5777:1 6088:1 7017:1 
430.1067718776939 852:1 1324:1 2002:1 2436:1 2694:1 2801:1 2808:1 3163:1 3206:1 3833:1 4279:1 4629:1 4763:1 5777:1 5817:1 
430.1067718776939 27:1 519:1 590:1 935:1 1862:1 2020:1 2694:1 2801:1 3163:1 3208:1 3402:1 4196:1 6067:1 6088:1 6560:1 6696:1 6718:1 6913:1 7013:1 
430.1067718776939 352:1 354:1 
430.1067718776939 189:1 552:1 1681:1 1862:1 2311:1 2326:1 2637:1 2694:1 3182:1 3584:1 3833:1 3866:1 4031:1 4475:1 4483:1 4570:1 5143:1 5233:1 6088:1 
430.1067718776939 33:1 591:1 597:1 1362:1 1374:1 1663:1 1862:1 2326:1 2604:1 2694:1 3163:1 3833:1 3989:1 4085:1 5033:1 5777:1 6088:1 6396:1 6429:1 6767:1 6839:1 
430.1067718776939 508:1 930:1 1048:1 1900:1 2694:1 5228:1 5777:1 6403:1 6941:1 
430.1067718776939 2183:1 2772:1 2881:1 4279:1 4552:1 5777:1 
430.1067718776939 189:1 360:1 1698:1 1814:1 2089:1 2694:1 2802:1 2808:1 3833:1 4167:1 4170:1 4687:1 5390:1 5575:1 5580:1 5792:1 6019:1 6088:1 6554:1 6688:1 
430.1067718776939 2801:1 2802:1 
430.1067718776939 2694:1 3135:1 3748:1 4566:1 5056:1 
430.1067718776939 828:1 952:1 1204:1 1900:1 2269:1 3362:1 3961:1 4263:1 4629:1 
430.1067718776939 2668:1 2802:1 3933:1 5827:1 6088:1 6386:1 6583:1 
430.1067718776939 2694:1 5490:1 6067:1 6104:1 6252:1 
430.1067718776939 1100:1 1582:1 2135:1 2326:1 2801:1 2808:1 3208:1 5073:1 5233:1 5803:1 5948:1 6654:1 6950:1 
430.1067718776939 189:1 1006:1 1362:1 2326:1 2604:1 2718:1 2719:1 2802:1 3833:1 3933:1 4250:1 5033:1 5805:1 6051:1 
430.1067718776939 2801:1 3101:1 3833:1 5615:1 6728:1 
430.1067718776939 189:1 344:1 1266:1 1379:1 2314:1 2604:1 3208:1 4523:1 5718:1 6781:1 
430.1067718776939 50:1 519:1 591:1 2785:1 3405:1 3833:1 4469:1 6088:1 6147:1 6199:1 6583:1 
172.3173344679128 418:1 635:1 1121:1 1862:1 2009:1 2326:1 3080:1 3385:1 3833:1 4546:1 4629:1 4661:1 5615:1 6019:1 6654:1 
430.1067718776939 3163:1 4462:1 6314:1 
430.1067718776939 3350:1 
430.1067718776939 1547:1 2801:1 3187:1 
430.1067718776939 88:1 216:1 643:1 1100:1 1682:1 1787:1 1862:1 2046:1 2326:1 2588:1 2808:1 3833:1 5792:1 6353:1 6654:1 
430.1067718776939 804:1 1838:1 1862:1 2326:1 2561:1 2694:1 2808:1 3163:1 3833:1 4629:1 5558:1 5973:1 6019:1 6088:1 
430.1067718776939 204:1 1294:1 1862:1 2130:1 2326:1 2475:1 2694:1 2801:1 2802:1 2806:1 2808:1 3066:1 3208:1 3739:1 3748:1 4223:1 4293:1 6252:1 6593:1 6950:1 6953:1 
430.1067718776939 530:1 643:1 922:1 1862:1 2326:1 2876:1 3833:1 4975:1 5338:1 5577:1 
430.1067718776939 590:1 633:1 2266:1 2417:1 2806:1 3933:1 4546:1 4586:1 4698:1 4965:1 5040:1 5311:1 5558:1 5641:1 5697:1 6950:1 
430.1067718776939 519:1 591:1 1356:1 1362:1 1862:1 2283:1 2380:1 2694:1 2802:1 2806:1 3591:1 3683:1 5228:1 5297:1 5615:1 6088:1 6429:1 7146:1 
430.1067718776939 1639:1 6007:1 
269.3968457514139 1404:1 2694:1 2802:1 2881:1 3208:1 4687:1 6252:1 6353:1 6679:1 6736:1 
217.850054805022 218:1 388:1 644:1 1361:1 1665:1 1863:1 2009:1 2326:1 2647:1 2808:1 3062:1 4786:1 6765:1 6950:1 6956:1 
430.1067718776939 1065:1 1266:1 1758:1 2044:1 2694:1 2801:1 3004:1 3042:1 3163:1 3298:1 3946:1 4031:1 4624:1 5248:1 5800:1 6067:1 6719:1 7013:1 
430.1067718776939 336:1 519:1 1583:1 1862:1 2123:1 2193:1 2283:1 2406:1 2446:1 3385:1 3791:1 3833:1 4692:1 5382:1 5475:1 5800:1 6031:1 6088:1 
430.1067718776939 2808:1 6477:1 6560:1 7130:1 
430.1067718776939 189:1 209:1 218:1 442:1 573:1 657:1 2130:1 2368:1 2694:1 2781:1 2802:1 3208:1 3653:1 3934:1 4196:1 4279:1 4321:1 4469:1 4595:1 5228:1 5455:1 6031:1 6067:1 6950:1 
430.1067718776939 435:1 738:1 2244:1 2269:1 2322:1 2326:1 2694:1 2808:1 2898:1 2930:1 4530:1 5233:1 5800:1 6067:1 7012:1 
430.1067718776939 1087:1 2326:1 3402:1 4574:1 5792:1 6010:1 
430.1067718776939 1797:1 
430.1067718776939 418:1 2326:1 2806:1 4057:1 4293:1 4400:1 4812:1 4965:1 6239:1 6741:1 6931:1 6950:1 
430.1067718776939 168:1 590:1 1698:1 1944:1 2326:1 2551:1 2694:1 2751:1 2933:1 3833:1 4279:1 4562:1 4566:1 4657:1 6067:1 
55.68016955632782 12:1 189:1 388:1 591:1 1378:1 1523:1 2009:1 2086:1 2116:1 2326:1 2599:1 3833:1 3912:1 4164:1 4742:1 5047:1 5382:1 5390:1 5558:1 5800:1 6953:1 
430.1067718776939 2806:1 4288:1 4321:1 4567:1 5885:1 
430.1067718776939 633:1 977:1 1095:1 1681:1 1862:1 2081:1 2326:1 5033:1 6104:1 
430.1067718776939 40:1 1405:1 1844:1 1875:1 2283:1 2323:1 2801:1 2808:1 3054:1 3385:1 4010:1 4223:1 5558:1 6392:1 
21.13341210867979 329:1 1043:1 2694:1 2715:1 2738:1 3054:1 3429:1 3833:1 4263:1 4629:1 5233:1 5792:1 6067:1 6353:1 6838:1 6950:1 6953:1 7031:1 
430.1067718776939 24:1 2283:1 2326:1 2342:1 6067:1 7104:1 
430.1067718776939 189:1 590:1 2801:1 3200:1 3208:1 4555:1 4629:1 6553:1 
430.1067718776939 519:1 591:1 2694:1 2715:1 2876:1 3180:1 3260:1 3833:1 5969:1 6067:1 6386:1 6950:1 
430.1067718776939 519:1 1862:1 2326:1 2604:1 2794:1 3833:1 5406:1 6088:1 
430.1067718776939 88:1 2266:1 2326:1 2740:1 2808:1 3163:1 3405:1 3780:1 3833:1 4031:1 4127:1 4629:1 5641:1 6067:1 6674:1 6839:1 
430.1067718776939 2009:1 2604:1 3163:1 3833:1 4496:1 4975:1 5173:1 5219:1 5297:1 6353:1 
430.1067718776939 268:1 591:1 1266:1 1665:1 1861:1 2317:1 2326:1 2694:1 2808:1 3769:1 4670:1 6839:1 
430.1067718776939 949:1 1113:1 2175:1 2694:1 3830:1 3944:1 3961:1 4167:1 5889:1 6029:1 
430.1067718776939 590:1 991:1 1582:1 1871:1 2086:1 2326:1 2801:1 3163:1 3833:1 5558:1 5730:1 6088:1 6298:1 
430.1067718776939 1043:1 1266:1 1861:1 2694:1 2802:1 3163:1 3891:1 4279:1 4562:1 5324:1 5746:1 
430.1067718776939 1503:1 1862:1 2266:1 2326:1 2916:1 3833:1 4363:1 5511:1 5792:1 6145:1 7118:1 7147:1 
430.1067718776939 88:1 379:1 2694:1 2812:1 2898:1 3004:1 3239:1 3362:1 4975:1 5248:1 6067:1 
430.1067718776939 636:1 2326:1 3402:1 5535:1 
430.1067718776939 98:1 709:1 977:1 1862:1 2326:1 2694:1 3833:1 4196:1 4279:1 4334:1 4591:1 
430.1067718776939 1834:1 2073:1 2694:1 2898:1 2911:1 3833:1 5033:1 6067:1 6950:1 
430.1067718776939 168:1 218:1 519:1 521:1 852:1 1431:1 1503:1 1635:1 1808:1 2694:1 2715:1 2876:1 4254:1 4279:1 5777:1 6088:1 6285:1 6953:1 
430.1067718776939 204:1 590:1 1271:1 1508:1 2117:1 2144:1 2802:1 2808:1 2903:1 3833:1 3946:1 4356:1 5057:1 6208:1 6950:1 7081:1 
430.1067718776939 3429:1 
430.1067718776939 24:1 590:1 591:1 720:1 2073:1 2812:1 3833:1 4596:1 4692:1 5233:1 5382:1 5599:1 5801:1 6067:1 6353:1 6950:1 7013:1 
430.1067718776939 388:1 861:1 2009:1 2073:1 2326:1 3833:1 4196:1 4279:1 5615:1 6396:1 
430.1067718776939 218:1 1523:1 1681:1 1860:1 2801:1 2808:1 2842:1 4127:1 4496:1 4501:1 5623:1 5804:1 6088:1 6329:1 
430.1067718776939 87:1 591:1 783:1 947:1 1329:1 2230:1 3217:1 3516:1 3791:1 4484:1 5083:1 5461:1 5475:1 5878:1 6352:1 
430.1067718776939 45:1 635:1 1026:1 1666:1 1682:1 2002:1 2719:1 2801:1 2937:1 3984:1 4896:1 5426:1 5792:1 6088:1 
430.1067718776939 519:1 2055:1 3208:1 6067:1 
430.1067718776939 189:1 2668:1 
430.1067718776939 73:1 1861:1 2475:1 2694:1 6067:1 6419:1 
430.1067718776939 1043:1 1510:1 2283:1 2326:1 2738:1 3290:1 3833:1 4127:1 6449:1 6950:1 
430.1067718776939 591:1 1449:1 1523:1 1665:1 2604:1 2694:1 2978:1 3098:1 3402:1 3833:1 5558:1 6950:1 6953:1 
430.1067718776939 524:1 1628:1 1682:1 3208:1 3833:1 4293:1 5615:1 6654:1 
430.1067718776939 591:1 1043:1 1635:1 2002:1 2694:1 2814:1 3748:1 4084:1 6019:1 6067:1 
398.2428921238586 428:1 1457:1 1549:1 1862:1 2694:1 3208:1 3385:1 3833:1 4017:1 4230:1 4687:1 5125:1 5615:1 5697:1 6085:1 6088:1 6280:1 6679:1 
430.1067718776939 80:1 599:1 1061:1 1829:1 1862:1 2116:1 2326:1 2363:1 3298:1 3748:1 4164:1 5777:1 6455:1 
430.1067718776939 1523:1 1696:1 1860:1 2266:1 2309:1 2326:1 2928:1 3015:1 3408:1 3833:1 4044:1 4148:1 4291:1 5792:1 6019:1 6088:1 7013:1 7015:1 7108:1 
3.259498796639842 168:1 524:1 1429:1 1682:1 4010:1 4127:1 4222:1 5485:1 5569:1 6654:1 
430.1067718776939 1221:1 1665:1 3208:1 3615:1 
430.1067718776939 1362:1 1601:1 1682:1 2133:1 3402:1 3833:1 4507:1 4579:1 5198:1 5444:1 6589:1 
430.1067718776939 418:1 786:1 1397:1 1503:1 2023:1 2081:1 2387:1 2604:1 3385:1 3833:1 5461:1 6088:1 6950:1 
430.1067718776939 985:1 1357:1 3385:1 5233:1 
430.1067718776939 1431:1 1961:1 2004:1 2349:1 2802:1 2808:1 2812:1 3298:1 3402:1 3653:1 4196:1 4692:1 5558:1 6067:1 6088:1 6280:1 6392:1 7146:1 
430.1067718776939 92:1 160:1 832:1 952:1 2009:1 2467:1 3298:1 3916:1 6383:1 
124.3361549146055 537:1 950:1 1361:1 1403:1 2637:1 2719:1 3182:1 3452:1 4629:1 5639:1 5860:1 
430.1067718776939 519:1 1900:1 2694:1 2801:1 2802:1 3042:1 3208:1 3484:1 3591:1 4127:1 5455:1 6950:1 
430.1067718776939 256:1 522:1 635:1 1665:1 1862:1 2326:1 3269:1 3471:1 4196:1 5248:1 5379:1 5443:1 7158:1 
430.1067718776939 78:1 481:1 1576:1 2538:1 2694:1 2928:1 3082:1 3429:1 4196:1 5324:1 5789:1 6145:1 
430.1067718776939 530:1 669:1 1523:1 1862:1 2326:1 2694:1 2802:1 3163:1 4167:1 4279:1 4644:1 4661:1 6013:1 6152:1 
430.1067718776939 189:1 1356:1 1566:1 2002:1 2694:1 2801:1 2920:1 2996:1 3748:1 4167:1 4661:1 5448:1 6019:1 6073:1 6950:1 
430.1067718776939 590:1 952:1 1431:1 3373:1 4629:1 5871:1 
430.1067718776939 923:1 1043:1 1362:1 2362:1 2694:1 3208:1 3402:1 3833:1 4005:1 4196:1 4279:1 4288:1 4687:1 5228:1 6360:1 6396:1 
430.1067718776939 89:1 2806:1 3401:1 3402:1 
430.1067718776939 88:1 591:1 1431:1 1875:1 2053:1 2326:1 2808:1 3402:1 3508:1 3833:1 4164:1 5233:1 5780:1 6019:1 6088:1 6567:1 6574:1 6950:1 
430.1067718776939 965:1 1020:1 2351:1 3208:1 3226:1 4786:1 6173:1 6353:1 6941:1 6950:1 
430.1067718776939 78:1 487:1 1699:1 2194:1 2694:1 3670:1 3836:1 4279:1 5204:1 
430.1067718776939 2694:1 3095:1 5455:1 6900:1 
430.1067718776939 204:1 950:1 1510:1 1860:1 2586:1 2694:1 2751:1 3163:1 3607:1 3626:1 3833:1 4279:1 4566:1 4596:1 4629:1 4687:1 5475:1 5534:1 6459:1 
151.3099141534662 256:1 303:1 519:1 590:1 852:1 935:1 1503:1 1935:1 2319:1 2494:1 2587:1 2888:1 2937:1 5780:1 6088:1 6152:1 6634:1 6654:1 6838:1 
430.1067718776939 88:1 2183:1 2257:1 2694:1 3385:1 6060:1 6088:1 6644:1 
430.1067718776939 2046:1 2477:1 6145:1 
430.1067718776939 1862:1 3208:1 4263:1 
430.1067718776939 91:1 591:1 1068:1 2694:1 3208:1 3916:1 6019:1 6058:1 6067:1 6104:1 7013:1 7135:1 
430.1067718776939 1304:1 1327:1 1696:1 5792:1 6694:1 
430.1067718776939 2055:1 2668:1 3054:1 3226:1 3811:1 4472:1 
430.1067718776939 88:1 209:1 669:1 1094:1 2009:1 2694:1 2740:1 2879:1 3098:1 3163:1 3275:1 3402:1 3933:1 4214:1 4566:1 5021:1 5150:1 5626:1 5777:1 5838:1 6950:1 
430.1067718776939 139:1 156:1 249:1 590:1 883:1 952:1 977:1 1566:1 1682:1 1714:1 1757:1 1900:1 2183:1 2694:1 2802:1 3163:1 3208:1 3748:1 3933:1 4031:1 4279:1 5150:1 6088:1 6392:1 
430.1067718776939 303:1 537:1 1150:1 2326:1 2849:1 3402:1 3833:1 4127:1 4249:1 4275:1 6131:1 6686:1 
334.6872101155254 189:1 2326:1 2694:1 2801:1 3179:1 3402:1 3916:1 4155:1 4655:1 5000:1 5241:1 5761:1 6088:1 6168:1 6847:1 7025:1 
430.1067718776939 519:1 960:1 2130:1 2183:1 2586:1 2627:1 2694:1 2785:1 2802:1 3180:1 3260:1 3371:1 3408:1 3629:1 3916:1 4279:1 5475:1 6067:1 
430.1067718776939 189:1 1131:1 2089:1 2323:1 2326:1 2475:1 2652:1 2802:1 3833:1 4066:1 4222:1 6088:1 6311:1 6329:1 6583:1 
430.1067718776939 1399:1 1477:1 2073:1 2694:1 2738:1 2897:1 5543:1 5777:1 
430.1067718776939 92:1 326:1 591:1 627:1 938:1 1043:1 1844:1 2072:1 2694:1 2808:1 3208:1 3615:1 3916:1 4853:1 6127:1 6280:1 6891:1 
430.1067718776939 1613:1 2326:1 2467:1 2694:1 2955:1 3004:1 3208:1 3402:1 3408:1 3833:1 3916:1 3947:1 4031:1 4279:1 4686:1 4714:1 5361:1 5730:1 5803:1 
430.1067718776939 6298:1 
430.1067718776939 259:1 2183:1 2694:1 2801:1 3054:1 5125:1 5646:1 
430.1067718776939 348:1 1750:1 2283:1 2802:1 2806:1 2996:1 3208:1 4293:1 5775:1 5777:1 5944:1 6329:1 
430.1067718776939 3833:1 4596:1 4975:1 6088:1 7013:1 
430.1067718776939 1043:1 4629:1 6145:1 
430.1067718776939 824:1 1997:1 2801:1 3208:1 3224:1 3348:1 3402:1 4653:1 4789:1 5033:1 5389:1 5863:1 6051:1 6312:1 6429:1 6769:1 
430.1067718776939 530:1 591:1 1266:1 1861:1 2004:1 2694:1 3424:1 
207.5249346252173 303:1 537:1 884:1 1189:1 1838:1 1862:1 1871:1 2116:1 2326:1 2943:1 3171:1 3208:1 3699:1 4153:1 4167:1 4293:1 4578:1 4579:1 4701:1 5792:1 5860:1 5976:1 6031:1 6950:1 
16.25391246614218 1113:1 2175:1 2808:1 3101:1 3961:1 4707:1 5482:1 5958:1 6031:1 
430.1067718776939 168:1 256:1 882:1 1020:1 1681:1 1862:1 2262:1 2326:1 2808:1 3039:1 3402:1 3989:1 4293:1 4802:1 4896:1 5896:1 6021:1 6839:1 
430.1067718776939 168:1 590:1 1362:1 2283:1 2604:1 2694:1 3833:1 3880:1 4275:1 5623:1 6953:1 
430.1067718776939 4975:1 5033:1 5534:1 6019:1 6067:1 7013:1 
430.1067718776939 643:1 1787:1 2037:1 2266:1 2326:1 2328:1 2694:1 3208:1 3402:1 3933:1 4425:1 4740:1 4975:1 5452:1 6267:1 6383:1 6631:1 6978:1 
430.1067718776939 1299:1 1520:1 4355:1 7017:1 
430.1067718776939 189:1 831:1 929:1 1324:1 1705:1 2694:1 2802:1 3163:1 3208:1 3492:1 3854:1 3916:1 4031:1 5033:1 
388.1394098262348 128:1 168:1 348:1 590:1 1043:1 1627:1 2333:1 2808:1 3226:1 3402:1 3833:1 4345:1 5125:1 6019:1 6043:1 6049:1 6060:1 6312:1 
430.1067718776939 263:1 6067:1 6210:1 6419:1 
430.1067718776939 92:1 1665:1 2326:1 3054:1 3287:1 3916:1 4279:1 4939:1 5473:1 6088:1 6353:1 
430.1067718776939 1862:1 2609:1 3208:1 7056:1 
430.1067718776939 189:1 191:1 418:1 590:1 591:1 883:1 1354:1 1681:1 2283:1 2802:1 3117:1 3780:1 3833:1 4629:1 5033:1 5177:1 5333:1 6485:1 
430.1067718776939 218:1 1266:1 2004:1 3653:1 6019:1 6067:1 
430.1067718776939 519:1 2763:1 3456:1 4531:1 6088:1 
370.54462025909 189:1 1266:1 2802:1 3626:1 4127:1 5566:1 5785:1 6353:1 6755:1 6950:1 
430.1067718776939 1494:1 6765:1 7071:1 
430.1067718776939 1132:1 1431:1 1749:1 2801:1 2808:1 3761:1 5228:1 5641:1 
430.1067718776939 189:1 2326:1 2447:1 2642:1 
430.1067718776939 168:1 189:1 440:1 852:1 1523:1 1861:1 1862:1 2694:1 2731:1 4242:1 4458:1 5193:1 6950:1 7160:1 
430.1067718776939 2108:1 4363:1 5475:1 6067:1 7013:1 7147:1 
430.1067718776939 597:1 1431:1 3833:1 3933:1 4288:1 5248:1 6067:1 7013:1 
430.1067718776939 18:1 344:1 519:1 635:1 1217:1 1510:1 1844:1 2475:1 2694:1 2802:1 2808:1 2811:1 2812:1 3208:1 3385:1 4629:1 4687:1 4885:1 5558:1 5597:1 6088:1 6280:1 6304:1 6329:1 6428:1 6654:1 
430.1067718776939 591:1 633:1 770:1 1659:1 2326:1 5009:1 5909:1 6950:1 
430.1067718776939 189:1 590:1 1582:1 1698:1 2023:1 2742:1 2802:1 4321:1 5909:1 6754:1 6950:1 7146:1 
430.1067718776939 950:1 
430.1067718776939 218:1 2694:1 4196:1 4317:1 5475:1 6019:1 
430.1067718776939 168:1 189:1 832:1 2073:1 2694:1 2802:1 3182:1 3833:1 4065:1 4293:1 5324:1 5940:1 6088:1 6178:1 6654:1 6837:1 
430.1067718776939 2080:1 3403:1 3650:1 5833:1 5857:1 6121:1 
161.837757699038 171:1 591:1 985:1 1100:1 2326:1 2668:1 2694:1 2699:1 2802:1 2906:1 3234:1 3833:1 3916:1 4167:1 4196:1 4222:1 4629:1 5233:1 5248:1 5510:1 6666:1 6767:1 6950:1 
430.1067718776939 3385:1 3833:1 7135:1 
430.1067718776939 218:1 3530:1 3749:1 3833:1 5615:1 6950:1 
430.1067718776939 591:1 679:1 2326:1 2802:1 3228:1 3402:1 5558:1 5651:1 5792:1 6060:1 6744:1 6778:1 
430.1067718776939 242:1 1362:1 1875:1 2015:1 2694:1 4039:1 4137:1 5914:1 6088:1 6145:1 6950:1 
430.1067718776939 819:1 1659:1 1862:1 2009:1 2801:1 3124:1 4010:1 5558:1 6804:1 
430.1067718776939 771:1 1011:1 2475:1 2546:1 2808:1 6060:1 
430.1067718776939 1680:1 2738:1 5033:1 
38.36201763588351 339:1 1862:1 2428:1 3934:1 5233:1 5500:1 6252:1 6728:1 
430.1067718776939 609:1 938:1 2326:1 3402:1 4008:1 6396:1 
430.1067718776939 2326:1 2694:1 2957:1 3833:1 4177:1 4566:1 5615:1 
430.1067718776939 935:1 2004:1 2189:1 3811:1 4847:1 5558:1 5777:1 6429:1 6953:1 
430.1067718776939 2637:1 3408:1 3735:1 3932:1 4629:1 
430.1067718776939 2009:1 2326:1 3132:1 4363:1 5558:1 5916:1 6953:1 
430.1067718776939 218:1 836:1 1431:1 1659:1 2002:1 2089:1 2694:1 3066:1 3298:1 3393:1 3649:1 5558:1 6067:1 6088:1 6309:1 6950:1 
215.1343549158154 908:1 1324:1 1696:1 2116:1 2311:1 2326:1 2563:1 2694:1 3184:1 3811:1 3833:1 4034:1 4629:1 4981:1 5208:1 5558:1 6088:1 6953:1 
430.1067718776939 247:1 609:1 1361:1 2009:1 2806:1 2937:1 3510:1 3956:1 4203:1 6312:1 
430.1067718776939 168:1 204:1 346:1 646:1 2089:1 3833:1 5579:1 6088:1 
430.1067718776939 339:1 590:1 725:1 1523:1 1682:1 2002:1 2326:1 2694:1 2808:1 3833:1 4263:1 4566:1 4775:1 4975:1 5015:1 5025:1 5233:1 5461:1 5615:1 5963:1 7013:1 
430.1067718776939 530:1 828:1 1862:1 2326:1 3653:1 6422:1 
430.1067718776939 110:1 388:1 424:1 687:1 1682:1 2009:1 2113:1 2326:1 2694:1 2801:1 2808:1 3402:1 3833:1 5615:1 5889:1 5944:1 6127:1 6499:1 6900:1 
430.1067718776939 256:1 1006:1 1714:1 2006:1 2738:1 3298:1 3699:1 5448:1 5869:1 6383:1 6392:1 
430.1067718776939 73:1 770:1 935:1 1595:1 2183:1 2694:1 2718:1 2802:1 3163:1 3748:1 3833:1 4119:1 4167:1 4279:1 4382:1 5228:1 5597:1 5792:1 6013:1 6019:1 6067:1 6127:1 6210:1 6404:1 6419:1 
430.1067718776939 1:1 1997:1 2326:1 2808:1 3372:1 4690:1 6088:1 
430.1067718776939 950:1 3163:1 5311:1 6019:1 7013:1 
430.1067718776939 1860:1 2130:1 
430.1067718776939 3833:1 4250:1 5615:1 
430.1067718776939 2694:1 4566:1 5961:1 
430.1067718776939 1698:1 1733:1 2073:1 2694:1 3098:1 6067:1 6950:1 
77.04678792349284 525:1 807:1 952:1 1378:1 2808:1 3054:1 3261:1 6029:1 6067:1 
430.1067718776939 249:1 303:1 418:1 1431:1 1503:1 2547:1 2694:1 2801:1 2839:1 3208:1 3655:1 3709:1 3768:1 3833:1 4010:1 4777:1 4968:1 5448:1 6049:1 6088:1 6145:1 6392:1 6593:1 6654:1 
430.1067718776939 1943:1 2694:1 3208:1 3385:1 3748:1 3916:1 4566:1 5168:1 5246:1 5448:1 6429:1 6950:1 
430.1067718776939 256:1 326:1 1043:1 1329:1 1844:1 1935:1 2326:1 2362:1 2448:1 2728:1 2802:1 2937:1 4242:1 4653:1 4694:1 5792:1 6060:1 6352:1 6953:1 
430.1067718776939 256:1 379:1 846:1 1610:1 1698:1 3095:1 3748:1 4196:1 4279:1 4468:1 5558:1 6051:1 6088:1 6593:1 6728:1 6829:1 6950:1 
430.1067718776939 1844:1 2801:1 3385:1 
430.1067718776939 218:1 2117:1 2801:1 2957:1 2967:1 3761:1 
430.1067718776939 573:1 590:1 667:1 1043:1 1354:1 1583:1 2668:1 2694:1 2801:1 3098:1 3163:1 3208:1 3385:1 3591:1 3995:1 4317:1 4629:1 5085:1 5882:1 6019:1 6280:1 6694:1 6741:1 
430.1067718776939 590:1 1594:1 2044:1 2326:1 2598:1 3748:1 3833:1 4242:1 4313:1 4457:1 5558:1 5566:1 6088:1 6298:1 
430.1067718776939 977:1 1848:1 2002:1 2694:1 3163:1 3833:1 3964:1 5615:1 5777:1 
430.1067718776939 218:1 303:1 1266:1 2326:1 2376:1 2521:1 2694:1 2719:1 2808:1 2849:1 3208:1 4249:1 4279:1 4293:1 4562:1 5777:1 6291:1 
430.1067718776939 218:1 308:1 1356:1 1698:1 2580:1 2694:1 3208:1 3402:1 3748:1 4005:1 4279:1 4562:1 4566:1 5672:1 5697:1 6088:1 6877:1 6950:1 7135:1 
430.1067718776939 
430.1067718776939 102:1 2009:1 2694:1 3226:1 3250:1 4975:1 
430.1067718776939 599:1 852:1 1095:1 2806:1 4288:1 4364:1 6021:1 
430.1067718776939 388:1 519:1 2266:1 3042:1 3179:1 3811:1 4279:1 4288:1 6067:1 6210:1 6955:1 
430.1067718776939 2694:1 3385:1 3402:1 3946:1 4031:1 4119:1 5455:1 6060:1 6132:1 6429:1 
91.20414655626705 189:1 379:1 1431:1 1698:1 2269:1 2283:1 2326:1 2802:1 2812:1 2881:1 3154:1 3748:1 3833:1 4245:1 4293:1 4687:1 5233:1 5361:1 5558:1 5792:1 6321:1 6716:1 
430.1067718776939 218:1 719:1 2487:1 2694:1 3208:1 4288:1 4566:1 5475:1 5748:1 6916:1 
430.1067718776939 1294:1 1682:1 2152:1 4237:1 5792:1 
430.1067718776939 67:1 1353:1 1510:1 2269:1 3653:1 3833:1 4734:1 5033:1 5107:1 5615:1 5792:1 6067:1 6473:1 7013:1 7033:1 
430.1067718776939 590:1 1043:1 1862:1 2004:1 2073:1 2413:1 2659:1 2694:1 3833:1 3946:1 4196:1 4279:1 4472:1 4849:1 5119:1 5442:1 6067:1 6088:1 
430.1067718776939 69:1 644:1 2009:1 5831:1 
430.1067718776939 110:1 1006:1 1266:1 1980:1 2326:1 2694:1 3932:1 4629:1 5088:1 5233:1 6067:1 6088:1 6286:1 6339:1 6375:1 6473:1 6941:1 7013:1 
430.1067718776939 218:1 2326:1 2637:1 2694:1 3933:1 4196:1 5233:1 5475:1 6422:1 
430.1067718776939 50:1 110:1 2598:1 2694:1 3916:1 5449:1 5827:1 6088:1 6583:1 
430.1067718776939 915:1 2376:1 3015:1 3163:1 3397:1 4127:1 4782:1 4811:1 6067:1 6654:1 7013:1 
430.1067718776939 418:1 597:1 938:1 1696:1 2326:1 4629:1 5040:1 5532:1 5792:1 6067:1 
430.1067718776939 24:1 1304:1 2694:1 2802:1 3748:1 3916:1 4859:1 5033:1 5558:1 6019:1 
430.1067718776939 633:1 977:1 1635:1 2801:1 4629:1 5690:1 6104:1 6383:1 6524:1 6603:1 
430.1067718776939 
430.1067718776939 704:1 1043:1 1266:1 1696:1 2009:1 2694:1 2781:1 3226:1 3833:1 3933:1 4031:1 5248:1 5937:1 6019:1 6088:1 6709:1 6950:1 7135:1 
430.1067718776939 341:1 1665:1 1935:1 2808:1 3163:1 3514:1 3774:1 6019:1 6875:1 
250.2283577530862 218:1 1682:1 5325:1 6464:1 
430.1067718776939 85:1 403:1 794:1 977:1 1266:1 2291:1 2937:1 3095:1 3504:1 3752:1 3937:1 4896:1 6019:1 6950:1 
430.1067718776939 18:1 590:1 1020:1 1549:1 3833:1 3880:1 4293:1 5107:1 5396:1 5919:1 6329:1 
430.1067718776939 832:1 977:1 1094:1 3833:1 4148:1 4196:1 4279:1 5558:1 5615:1 6396:1 
430.1067718776939 1068:1 1353:1 1444:1 2002:1 2637:1 2694:1 2971:1 3933:1 4249:1 4279:1 4562:1 4629:1 4737:1 5248:1 5889:1 6049:1 6672:1 
430.1067718776939 534:1 2307:1 3833:1 4361:1 5534:1 5623:1 6019:1 7135:1 
430.1067718776939 256:1 326:1 591:1 652:1 1179:1 1566:1 2129:1 2326:1 2694:1 3208:1 3298:1 3440:1 4167:1 4359:1 4566:1 4629:1 4687:1 5437:1 5746:1 5792:1 6088:1 6529:1 6644:1 6950:1 
430.1067718776939 590:1 727:1 1043:1 2802:1 3160:1 3748:1 4742:1 6067:1 6755:1 6950:1 
430.1067718776939 12:1 218:1 385:1 1304:1 2326:1 2694:1 4107:1 4759:1 6529:1 6950:1 
430.1067718776939 530:1 828:1 1862:1 2326:1 3653:1 6422:1 
430.1067718776939 2073:1 3208:1 4811:1 5543:1 6067:1 6498:1 
430.1067718776939 159:1 289:1 530:1 1190:1 1362:1 1862:1 2326:1 2806:1 3163:1 3208:1 3402:1 3816:1 3833:1 4112:1 4357:1 5228:1 6000:1 6529:1 
430.1067718776939 1503:1 1678:1 2604:1 2627:1 2694:1 2937:1 3208:1 3402:1 4523:1 5697:1 6019:1 6031:1 6049:1 
430.1067718776939 168:1 590:1 1094:1 1266:1 1900:1 1910:1 2053:1 2183:1 2694:1 2802:1 2806:1 3138:1 3402:1 3833:1 4288:1 4629:1 4811:1 4975:1 5615:1 6019:1 6067:1 6280:1 6353:1 6498:1 6530:1 7135:1 
430.1067718776939 519:1 609:1 704:1 1431:1 2004:1 2802:1 3385:1 3833:1 4092:1 5402:1 6654:1 6765:1 6950:1 
430.1067718776939 218:1 348:1 657:1 1132:1 1682:1 2349:1 2668:1 2694:1 2801:1 2808:1 3408:1 3463:1 3813:1 3934:1 4687:1 5033:1 5233:1 5558:1 6210:1 
430.1067718776939 139:1 189:1 1742:1 1981:1 2326:1 2668:1 3260:1 4952:1 6353:1 7013:1 
430.1067718776939 156:1 1678:1 2802:1 4167:1 4279:1 6088:1 6280:1 7135:1 
430.1067718776939 3345:1 4530:1 5248:1 5672:1 6067:1 6654:1 
430.1067718776939 256:1 1512:1 1942:1 2116:1 2132:1 2326:1 2977:1 5558:1 6679:1 6950:1 
430.1067718776939 264:1 950:1 2694:1 2801:1 2996:1 3163:1 3226:1 3560:1 5125:1 5681:1 6611:1 
430.1067718776939 590:1 1394:1 1861:1 1862:1 2006:1 2387:1 2694:1 2808:1 2812:1 3500:1 5134:1 5297:1 5461:1 7146:1 
430.1067718776939 24:1 1094:1 1294:1 2604:1 2694:1 3262:1 3581:1 3833:1 4279:1 4562:1 5889:1 6769:1 6950:1 
430.1067718776939 977:1 1266:1 1394:1 1682:1 2326:1 2694:1 2812:1 3098:1 3563:1 5589:1 5777:1 6067:1 
430.1067718776939 326:1 492:1 635:1 1063:1 2337:1 2694:1 2842:1 3038:1 3312:1 4039:1 4279:1 4562:1 4629:1 5889:1 6019:1 6067:1 6157:1 6950:1 
430.1067718776939 1549:1 1862:1 1935:1 2694:1 3208:1 3402:1 3833:1 4097:1 4156:1 4284:1 4833:1 4975:1 5040:1 5119:1 5975:1 6085:1 6267:1 6383:1 7146:1 
430.1067718776939 168:1 590:1 2009:1 2808:1 3444:1 3601:1 3934:1 4789:1 5861:1 6088:1 6329:1 6654:1 7018:1 
430.1067718776939 1862:1 1944:1 2940:1 3570:1 3748:1 4010:1 4100:1 4196:1 6019:1 6067:1 6145:1 6478:1 6728:1 
430.1067718776939 492:1 519:1 591:1 878:1 1297:1 1362:1 1464:1 1635:1 1862:1 2326:1 2694:1 2801:1 2903:1 3226:1 3981:1 5777:1 6088:1 6186:1 6842:1 6904:1 6950:1 
430.1067718776939 84:1 242:1 576:1 1133:1 1266:1 2326:1 2539:1 2694:1 2802:1 3609:1 3833:1 5436:1 5475:1 5736:1 5792:1 6032:1 6552:1 
430.1067718776939 938:1 2694:1 2806:1 4519:1 4531:1 4706:1 5558:1 6396:1 
430.1067718776939 189:1 599:1 935:1 2694:1 2802:1 3290:1 4293:1 5777:1 5792:1 
430.1067718776939 519:1 1510:1 2641:1 2694:1 3833:1 3891:1 4279:1 4467:1 4562:1 4595:1 6060:1 6498:1 
430.1067718776939 189:1 256:1 403:1 1862:1 5455:1 5575:1 6067:1 
55.75591862535294 1304:1 2283:1 2326:1 2694:1 2801:1 2808:1 2898:1 3098:1 3170:1 3738:1 3916:1 4686:1 4971:1 5033:1 5387:1 5477:1 5484:1 5558:1 5913:1 6067:1 6088:1 6227:1 6760:1 6975:1 
430.1067718776939 379:1 519:1 1523:1 2694:1 3042:1 3170:1 4291:1 5033:1 5558:1 5792:1 6088:1 
430.1067718776939 977:1 1628:1 2006:1 2144:1 2326:1 5558:1 6353:1 
430.1067718776939 379:1 627:1 1362:1 1394:1 1510:1 1862:1 2668:1 2694:1 2801:1 3402:1 3570:1 3697:1 3811:1 3833:1 4496:1 4629:1 4971:1 5623:1 5730:1 6088:1 
430.1067718776939 1900:1 2326:1 2694:1 3833:1 5599:1 6019:1 6353:1 6767:1 6941:1 
430.1067718776939 748:1 950:1 1607:1 1681:1 1682:1 1808:1 3156:1 3289:1 4164:1 4167:1 4279:1 4629:1 5040:1 5792:1 5795:1 6088:1 6103:1 6949:1 
430.1067718776939 590:1 733:1 2009:1 2802:1 3402:1 3662:1 4167:1 4279:1 4562:1 4814:1 6019:1 6252:1 6299:1 6329:1 6351:1 
430.1067718776939 1510:1 2694:1 2802:1 3179:1 4650:1 6019:1 6429:1 
430.1067718776939 537:1 609:1 1607:1 3748:1 3964:1 4661:1 5448:1 6067:1 
430.1067718776939 418:1 907:1 3402:1 3833:1 4011:1 4721:1 5047:1 5615:1 5777:1 6225:1 6950:1 7147:1 
430.1067718776939 348:1 590:1 977:1 2006:1 2183:1 2801:1 2802:1 2808:1 3054:1 3184:1 3761:1 5558:1 6953:1 
430.1067718776939 3219:1 3964:1 4207:1 5803:1 5909:1 6145:1 6392:1 6950:1 
430.1067718776939 746:1 1362:1 1862:1 2326:1 2694:1 2808:1 2812:1 3591:1 4566:1 6067:1 6654:1 
430.1067718776939 2694:1 2808:1 2876:1 5792:1 6067:1 6353:1 6434:1 6493:1 6694:1 6980:1 
430.1067718776939 2023:1 2808:1 4293:1 6508:1 6931:1 
430.1067718776939 644:1 727:1 1935:1 2002:1 2156:1 2326:1 2808:1 3402:1 3833:1 4015:1 4293:1 4665:1 4816:1 5558:1 
430.1067718776939 1474:1 1635:1 2004:1 2311:1 2326:1 2379:1 3402:1 3833:1 4164:1 5318:1 5558:1 5860:1 7060:1 
430.1067718776939 260:1 590:1 1510:1 1990:1 2002:1 2061:1 2428:1 2475:1 2718:1 2802:1 3163:1 3298:1 3787:1 3833:1 4629:1 5033:1 5777:1 
367.0322698086161 168:1 785:1 801:1 2004:1 2694:1 2808:1 4167:1 4185:1 4566:1 4975:1 4991:1 5107:1 5233:1 5359:1 
39.83522478316299 2404:1 2694:1 3791:1 3916:1 4687:1 5033:1 6205:1 6353:1 
430.1067718776939 590:1 2046:1 2117:1 2694:1 3098:1 3833:1 5914:1 
243.5848117183809 1871:1 2326:1 2519:1 2694:1 2794:1 3187:1 3208:1 3402:1 3933:1 4005:1 4167:1 4354:1 5777:1 6429:1 
430.1067718776939 388:1 537:1 590:1 1518:1 1862:1 2283:1 2326:1 2694:1 2808:1 2812:1 3098:1 3163:1 3362:1 3833:1 3946:1 4272:1 4530:1 4566:1 4661:1 4837:1 6019:1 6067:1 6088:1 6329:1 
430.1067718776939 1698:1 2604:1 2827:1 3402:1 3916:1 4127:1 4279:1 4562:1 5361:1 6088:1 6145:1 6493:1 6818:1 6930:1 6950:1 
430.1067718776939 168:1 6874:1 6950:1 
430.1067718776939 945:1 1011:1 2801:1 4203:1 4686:1 5777:1 6887:1 
430.1067718776939 1143:1 2326:1 3209:1 3402:1 3591:1 4629:1 5152:1 5792:1 6950:1 
430.1067718776939 189:1 1635:1 1665:1 1860:1 2047:1 2326:1 2802:1 2808:1 3054:1 3833:1 4178:1 4515:1 5558:1 5909:1 
430.1067718776939 166:1 832:1 1043:1 1121:1 2004:1 2067:1 2604:1 2808:1 3208:1 3833:1 4363:1 4975:1 6950:1 7147:1 
430.1067718776939 883:1 965:1 1043:1 2802:1 4418:1 5382:1 5452:1 6067:1 
430.1067718776939 863:1 3208:1 3591:1 4693:1 7013:1 
430.1067718776939 590:1 591:1 923:1 1862:1 3748:1 4279:1 4472:1 5406:1 5448:1 5485:1 5615:1 6088:1 
430.1067718776939 2476:1 2881:1 5697:1 
430.1067718776939 189:1 590:1 1491:1 1862:1 2285:1 2548:1 2719:1 3208:1 3298:1 3495:1 3748:1 4127:1 4155:1 4279:1 4629:1 6088:1 6329:1 
430.1067718776939 218:1 977:1 2009:1 2283:1 2326:1 2694:1 2715:1 2802:1 2808:1 3044:1 3163:1 3298:1 3402:1 3650:1 3964:1 4687:1 6088:1 6390:1 6392:1 6583:1 6953:1 
339.5859378358123 18:1 92:1 1132:1 1266:1 2266:1 2309:1 2802:1 3163:1 3748:1 3933:1 4966:1 5697:1 5777:1 6777:1 
337.9030191568822 141:1 256:1 445:1 521:1 626:1 1168:1 2326:1 2801:1 3208:1 3385:1 3833:1 3846:1 4065:1 4242:1 6019:1 6021:1 6569:1 7013:1 7135:1 
430.1067718776939 189:1 1582:1 2802:1 
136.5343241562181 950:1 1187:1 
87.61840361165055 2779:1 3385:1 4629:1 6429:1 
430.1067718776939 88:1 189:1 418:1 590:1 837:1 1431:1 1749:1 2326:1 2694:1 2718:1 2802:1 2808:1 3208:1 3228:1 4031:1 4085:1 4472:1 4602:1 5412:1 5455:1 5730:1 5831:1 6067:1 
430.1067718776939 189:1 2326:1 4164:1 5280:1 6019:1 6950:1 
430.1067718776939 418:1 591:1 3208:1 3833:1 5204:1 
430.1067718776939 18:1 1225:1 1900:1 2326:1 3208:1 3402:1 3833:1 4275:1 4833:1 5044:1 6996:1 
430.1067718776939 
430.1067718776939 2009:1 2269:1 2326:1 2436:1 2724:1 2802:1 2879:1 2932:1 3597:1 4293:1 4687:1 4975:1 5800:1 
430.1067718776939 1113:1 1429:1 1616:1 1698:1 2014:1 2801:1 4010:1 4026:1 4309:1 4677:1 5558:1 5945:1 6572:1 
430.1067718776939 1518:1 1682:1 2326:1 2772:1 2794:1 2808:1 2812:1 3075:1 3385:1 4279:1 4356:1 5198:1 6067:1 6088:1 6950:1 
430.1067718776939 1431:1 2173:1 2548:1 2808:1 4896:1 6392:1 6749:1 
430.1067718776939 1698:1 1861:1 2116:1 2694:1 3666:1 3833:1 5357:1 5558:1 5575:1 5961:1 6067:1 6088:1 6419:1 
430.1067718776939 1530:1 6254:1 
430.1067718776939 2009:1 3054:1 4322:1 5534:1 
430.1067718776939 189:1 262:1 1043:1 1523:1 2006:1 2137:1 2808:1 4770:1 5800:1 6088:1 6392:1 
430.1067718776939 2326:1 2604:1 2694:1 3066:1 3098:1 3402:1 3748:1 4687:1 
430.1067718776939 88:1 303:1 537:1 1862:1 2719:1 3208:1 3224:1 3526:1 4629:1 5575:1 6088:1 6419:1 
430.1067718776939 1296:1 2326:1 3287:1 3402:1 3748:1 4170:1 5228:1 6019:1 7004:1 
430.1067718776939 189:1 1696:1 3923:1 5777:1 
430.1067718776939 2636:1 
430.1067718776939 418:1 530:1 1862:1 2056:1 2326:1 2604:1 2694:1 2740:1 2837:1 3408:1 3833:1 3933:1 4288:1 4472:1 5073:1 5228:1 5730:1 
430.1067718776939 633:1 1431:1 1698:1 1861:1 2002:1 2283:1 2694:1 2751:1 3098:1 3811:1 4288:1 5233:1 5558:1 5612:1 6067:1 6950:1 
430.1067718776939 5769:1 
430.1067718776939 1121:1 1993:1 2009:1 2650:1 2694:1 3408:1 3833:1 4309:1 5615:1 5777:1 5800:1 
430.1067718776939 92:1 256:1 2604:1 3208:1 4263:1 4288:1 6021:1 6488:1 6644:1 
430.1067718776939 92:1 1662:1 1862:1 2694:1 3260:1 4687:1 5125:1 6019:1 6513:1 6815:1 
430.1067718776939 29:1 218:1 725:1 1210:1 1548:1 1944:1 2694:1 2751:1 2897:1 3226:1 4279:1 4322:1 4562:1 4629:1 5324:1 5940:1 6088:1 6488:1 7135:1 7146:1 
132.5044364070671 27:1 156:1 348:1 1121:1 1390:1 1862:1 1871:1 2082:1 2326:1 2694:1 3748:1 3916:1 4127:1 4167:1 4253:1 4279:1 4472:1 4687:1 5033:1 5558:1 6307:1 6325:1 6950:1 
430.1067718776939 218:1 519:1 590:1 635:1 1390:1 1512:1 1682:1 1935:1 2283:1 2694:1 2808:1 3933:1 4556:1 5248:1 5543:1 6067:1 6088:1 6145:1 6617:1 
227.3945421132257 1755:1 2095:1 6027:1 6654:1 6950:1 
430.1067718776939 412:1 1763:1 2694:1 2913:1 4288:1 4472:1 4566:1 5576:1 6067:1 
430.1067718776939 303:1 348:1 635:1 938:1 1678:1 1862:1 2326:1 2801:1 2808:1 3833:1 3849:1 5110:1 6396:1 6654:1 
430.1067718776939 519:1 852:1 2267:1 2269:1 2812:1 2915:1 3303:1 3650:1 3748:1 4279:1 4562:1 4975:1 5599:1 5777:1 6067:1 6088:1 6298:1 
430.1067718776939 852:1 1862:1 2326:1 2996:1 5835:1 6838:1 
430.1067718776939 189:1 366:1 418:1 4416:1 6353:1 6654:1 
430.1067718776939 45:1 218:1 379:1 852:1 1618:1 2326:1 2694:1 2879:1 3290:1 3362:1 3833:1 4279:1 4317:1 5792:1 6013:1 6060:1 6067:1 6554:1 
430.1067718776939 935:1 1404:1 
430.1067718776939 110:1 1361:1 4293:1 4401:1 5697:1 
430.1067718776939 192:1 303:1 786:1 1665:1 1862:1 1879:1 2266:1 3385:1 3811:1 3833:1 3933:1 3996:1 4308:1 5402:1 5558:1 6353:1 6392:1 6950:1 
430.1067718776939 562:1 1266:1 1696:1 2146:1 2801:1 2808:1 5792:1 5833:1 6088:1 6189:1 6679:1 
430.1067718776939 1266:1 2519:1 2694:1 2805:1 2808:1 3097:1 3238:1 3368:1 3402:1 3833:1 4279:1 4361:1 4535:1 4562:1 4745:1 4975:1 5248:1 5860:1 6088:1 6716:1 6950:1 
9.70044390886515 293:1 1362:1 2266:1 2326:1 2604:1 2808:1 3402:1 3615:1 3833:1 4164:1 4279:1 4562:1 4692:1 5107:1 5521:1 5803:1 6060:1 6067:1 6127:1 
430.1067718776939 285:1 348:1 977:1 6950:1 
430.1067718776939 256:1 937:1 1020:1 1523:1 2081:1 2283:1 2464:1 3833:1 4763:1 4812:1 5248:1 5521:1 5558:1 5725:1 5792:1 6021:1 6088:1 6392:1 7013:1 
430.1067718776939 1838:1 2326:1 3650:1 3748:1 6560:1 6942:1 
430.1067718776939 1503:1 2073:1 2808:1 3407:1 3833:1 6067:1 6088:1 
430.1067718776939 218:1 1005:1 2326:1 2694:1 4566:1 5449:1 5792:1 6088:1 
430.1067718776939 218:1 2009:1 2135:1 
430.1067718776939 92:1 1900:1 2326:1 2754:1 3464:1 3748:1 4065:1 4661:1 5914:1 6088:1 6186:1 6555:1 6950:1 
430.1067718776939 1254:1 1808:1 2009:1 2326:1 4279:1 
430.1067718776939 92:1 2847:1 3260:1 3827:1 4065:1 4963:1 5645:1 5780:1 6019:1 6068:1 6574:1 6950:1 7146:1 
430.1067718776939 1095:1 5813:1 6789:1 
430.1067718776939 2326:1 2346:1 3653:1 4242:1 6067:1 
284.1266390805957 218:1 484:1 1271:1 1294:1 1362:1 2002:1 2694:1 2802:1 2833:1 3226:1 3262:1 3833:1 4975:1 5107:1 5738:1 6088:1 6127:1 6347:1 6417:1 6860:1 6950:1 
430.1067718776939 852:1 1488:1 1816:1 2326:1 2694:1 2734:1 4012:1 4167:1 5387:1 
430.1067718776939 1043:1 1574:1 3833:1 5047:1 6950:1 
430.1067718776939 218:1 1743:1 1892:1 3760:1 4920:1 5342:1 6950:1 
430.1067718776939 67:1 832:1 1043:1 1362:1 1510:1 2283:1 2604:1 2694:1 2801:1 3208:1 3228:1 3833:1 5792:1 6178:1 6758:1 7056:1 
430.1067718776939 977:1 2291:1 
430.1067718776939 189:1 1308:1 1335:1 1427:1 1583:1 1862:1 2196:1 2694:1 2808:1 3098:1 3163:1 3916:1 4566:1 5002:1 5047:1 5361:1 7163:1 
430.1067718776939 151:1 218:1 248:1 503:1 1266:1 1860:1 1862:1 2004:1 2668:1 2694:1 3179:1 3440:1 3946:1 4196:1 4279:1 4556:1 4562:1 4789:1 5817:1 6019:1 6067:1 6088:1 6353:1 6583:1 6736:1 6950:1 6999:1 
430.1067718776939 2009:1 2801:1 3238:1 3650:1 4214:1 
430.1067718776939 1610:1 1862:1 2023:1 2548:1 3180:1 3184:1 3265:1 3833:1 4279:1 5153:1 5475:1 5558:1 6060:1 6067:1 6208:1 6953:1 
314.8295918982606 88:1 1844:1 1862:1 2326:1 2801:1 3385:1 3626:1 3748:1 5340:1 6019:1 6021:1 6088:1 6121:1 6353:1 6529:1 
430.1067718776939 659:1 851:1 4714:1 4959:1 
430.1067718776939 2694:1 4566:1 5528:1 
430.1067718776939 97:1 590:1 687:1 1353:1 1397:1 1893:1 2265:1 2267:1 2269:1 2326:1 2808:1 3052:1 4196:1 4317:1 5800:1 
430.1067718776939 617:1 965:1 1354:1 1755:1 2326:1 2377:1 2519:1 2694:1 2801:1 2808:1 3054:1 3150:1 3783:1 3833:1 4505:1 5381:1 6304:1 
430.1067718776939 5374:1 
430.1067718776939 189:1 552:1 591:1 1019:1 1862:1 2000:1 2063:1 2326:1 2694:1 2802:1 3029:1 3091:1 3833:1 3933:1 4196:1 4222:1 4279:1 4472:1 5455:1 5558:1 6950:1 
430.1067718776939 993:1 2326:1 2694:1 3208:1 3748:1 4167:1 6088:1 6428:1 6644:1 
430.1067718776939 218:1 832:1 1635:1 2004:1 2071:1 2326:1 2694:1 3208:1 3226:1 3402:1 3782:1 3833:1 3933:1 4031:1 4740:1 4803:1 5233:1 6039:1 6515:1 
430.1067718776939 2004:1 3226:1 3932:1 6383:1 6718:1 
430.1067718776939 1266:1 2066:1 2879:1 2930:1 3934:1 4196:1 4716:1 5248:1 5530:1 6088:1 6679:1 
430.1067718776939 2053:1 3208:1 4777:1 5033:1 
430.1067718776939 105:1 168:1 318:1 1540:1 2269:1 5831:1 7013:1 
430.1067718776939 60:1 716:1 2801:1 4486:1 
430.1067718776939 1862:1 2326:1 3796:1 5175:1 6950:1 7056:1 
81.87152226811169 297:1 977:1 1582:1 1678:1 2009:1 4094:1 6019:1 6088:1 6950:1 
430.1067718776939 530:1 589:1 832:1 1362:1 1431:1 2009:1 2283:1 2694:1 2808:1 2901:1 3066:1 3591:1 3748:1 3833:1 3852:1 4566:1 5521:1 6031:1 6127:1 6654:1 
430.1067718776939 256:1 591:1 832:1 1935:1 2009:1 2023:1 2326:1 2978:1 3054:1 3833:1 4522:1 5355:1 5792:1 6728:1 6950:1 
430.1067718776939 168:1 530:1 832:1 1862:1 2009:1 2326:1 2387:1 3101:1 3362:1 4223:1 5689:1 5697:1 6031:1 6088:1 6211:1 6654:1 7101:1 
430.1067718776939 218:1 965:1 1100:1 2009:1 2024:1 2326:1 2657:1 3208:1 3833:1 4183:1 4441:1 5390:1 6311:1 
430.1067718776939 1425:1 2511:1 2694:1 2751:1 3163:1 3591:1 3933:1 4010:1 4492:1 4566:1 4629:1 6019:1 6067:1 
430.1067718776939 252:1 519:1 1862:1 2267:1 2694:1 3163:1 3298:1 3650:1 5792:1 6067:1 6953:1 
430.1067718776939 519:1 1174:1 2808:1 3591:1 4070:1 6067:1 
430.1067718776939 1297:1 1431:1 1976:1 2234:1 3933:1 4354:1 5697:1 6326:1 6353:1 6950:1 
430.1067718776939 537:1 938:1 2694:1 2785:1 3075:1 3833:1 3846:1 4629:1 4975:1 6049:1 6186:1 6728:1 7013:1 
430.1067718776939 591:1 832:1 935:1 3054:1 6067:1 7013:1 
430.1067718776939 436:1 1067:1 1570:1 1862:1 2065:1 3405:1 4293:1 6088:1 6157:1 
430.1067718776939 189:1 492:1 1871:1 3170:1 5381:1 5455:1 
430.1067718776939 20:1 88:1 168:1 492:1 590:1 1432:1 2694:1 3239:1 3362:1 3478:1 4566:1 4975:1 5248:1 5257:1 5575:1 5777:1 5871:1 6019:1 6429:1 
430.1067718776939 189:1 1266:1 2802:1 3318:1 5681:1 6654:1 6679:1 
430.1067718776939 388:1 2073:1 3833:1 4196:1 4279:1 6067:1 6392:1 6396:1 
340.944920316493 55:1 123:1 156:1 323:1 1291:1 1527:1 2719:1 2761:1 2785:1 2802:1 3385:1 3553:1 3712:1 3778:1 3833:1 4279:1 4408:1 5382:1 5437:1 6131:1 6950:1 
430.1067718776939 6067:1 6429:1 
430.1067718776939 2326:1 2572:1 2694:1 2808:1 2981:1 3797:1 5359:1 5792:1 5856:1 6307:1 6950:1 
430.1067718776939 2379:1 2802:1 6386:1 
430.1067718776939 
430.1067718776939 1613:1 2024:1 2475:1 2801:1 2842:1 2870:1 3208:1 3724:1 3748:1 3854:1 4308:1 5777:1 5792:1 6127:1 6499:1 6950:1 
430.1067718776939 591:1 633:1 1094:1 1860:1 1875:1 2694:1 2802:1 3573:1 4566:1 4687:1 5047:1 
430.1067718776939 160:1 895:1 2023:1 2808:1 3134:1 4788:1 5800:1 5853:1 5963:1 6060:1 7140:1 
430.1067718776939 168:1 189:1 354:1 633:1 1862:1 2073:1 2801:1 2802:1 3098:1 3208:1 3833:1 3933:1 4211:1 4293:1 4629:1 4661:1 6067:1 6654:1 
430.1067718776939 168:1 256:1 666:1 1094:1 1431:1 2267:1 2326:1 3402:1 3414:1 3626:1 3761:1 4164:1 4167:1 4975:1 5475:1 5792:1 6049:1 6067:1 7013:1 
430.1067718776939 1583:1 1696:1 1711:1 4629:1 5408:1 
180.0203782394924 519:1 648:1 946:1 1208:1 2006:1 2284:1 2376:1 2694:1 3735:1 3833:1 4472:1 5535:1 6060:1 6953:1 
161.9801521787956 26:1 204:1 519:1 530:1 966:1 1118:1 1862:1 1869:1 2694:1 3208:1 3397:1 4472:1 
430.1067718776939 346:1 1566:1 2694:1 4012:1 4288:1 5248:1 6067:1 7135:1 
430.1067718776939 303:1 423:1 537:1 819:1 832:1 1582:1 1682:1 2263:1 2694:1 3402:1 4167:1 5455:1 5558:1 6088:1 6487:1 6586:1 
292.8505062374631 1485:1 2326:1 2553:1 2694:1 2802:1 3813:1 3833:1 6446:1 
430.1067718776939 1788:1 1981:1 2536:1 2801:1 4629:1 5107:1 
430.1067718776939 2808:1 2903:1 5800:1 6874:1 
303.5720040418658 341:1 4935:1 5107:1 
430.1067718776939 3226:1 3402:1 3639:1 3833:1 3916:1 4655:1 4677:1 6392:1 
430.1067718776939 363:1 1361:1 2694:1 2801:1 2808:1 3208:1 3287:1 3553:1 3778:1 6173:1 6353:1 6649:1 
151.8940092532147 233:1 1361:1 2326:1 2504:1 2718:1 2770:1 5792:1 6088:1 6363:1 6547:1 6652:1 6946:1 
3.852893675346095 88:1 402:1 590:1 771:1 2009:1 2267:1 2326:1 2932:1 3163:1 3738:1 3916:1 4518:1 4556:1 4827:1 5035:1 5143:1 5233:1 5792:1 
430.1067718776939 9:1 487:1 1095:1 1598:1 2046:1 2381:1 3015:1 3054:1 3916:1 4952:1 6145:1 6950:1 
85.05750082708836 65:1 168:1 1020:1 1266:1 2326:1 2694:1 2802:1 3402:1 3972:1 6067:1 6950:1 
430.1067718776939 519:1 590:1 1860:1 1871:1 2009:1 2694:1 3833:1 4031:1 4566:1 4687:1 5233:1 6019:1 6021:1 6304:1 6736:1 
430.1067718776939 303:1 599:1 1020:1 2694:1 2802:1 3748:1 4588:1 5777:1 5792:1 6353:1 6386:1 6950:1 
430.1067718776939 2326:1 2841:1 3035:1 3555:1 3833:1 5914:1 6088:1 7146:1 
430.1067718776939 2801:1 3003:1 5623:1 
430.1067718776939 1020:1 1043:1 6900:1 
430.1067718776939 189:1 341:1 348:1 590:1 1043:1 1414:1 1698:1 1844:1 2006:1 2044:1 2326:1 2464:1 2694:1 2802:1 3833:1 4369:1 4557:1 5040:1 5055:1 6088:1 6950:1 
430.1067718776939 537:1 852:1 950:1 2326:1 3998:1 4975:1 5780:1 
430.1067718776939 12:1 160:1 519:1 1217:1 1510:1 1834:1 1900:1 2326:1 2519:1 2694:1 2806:1 2842:1 2959:1 3463:1 3846:1 3933:1 4167:1 5033:1 5777:1 5792:1 5800:1 5889:1 6828:1 
430.1067718776939 88:1 335:1 1043:1 1808:1 2006:1 2152:1 2326:1 2694:1 2782:1 2808:1 3833:1 3933:1 3946:1 4190:1 4279:1 4629:1 4823:1 5084:1 5144:1 5233:1 5438:1 5918:1 6088:1 6120:1 
430.1067718776939 1266:1 1510:1 2351:1 2428:1 2700:1 2802:1 2988:1 3075:1 3163:1 3833:1 4629:1 5607:1 
430.1067718776939 519:1 1420:1 1698:1 1900:1 2694:1 2812:1 3337:1 4661:1 5575:1 5780:1 5860:1 6255:1 7013:1 
430.1067718776939 2751:1 4563:1 
430.1067718776939 92:1 209:1 2326:1 2808:1 3140:1 3163:1 3402:1 3435:1 3933:1 4642:1 5124:1 6025:1 
145.4297116071944 189:1 303:1 369:1 537:1 697:1 850:1 1510:1 1529:1 1690:1 1935:1 2269:1 2326:1 2519:1 2808:1 2933:1 3054:1 3402:1 3916:1 4010:1 5047:1 5107:1 5726:1 
430.1067718776939 168:1 1508:1 2533:1 3208:1 3916:1 4742:1 4882:1 5233:1 6088:1 7096:1 7147:1 
430.1067718776939 50:1 2694:1 2719:1 6019:1 7135:1 
430.1067718776939 3738:1 4196:1 4279:1 6396:1 
430.1067718776939 633:1 1871:1 2047:1 2609:1 3260:1 4031:1 4291:1 5558:1 5792:1 6067:1 6088:1 7013:1 
