svm_type nu_svc
kernel_type rbf
gamma 0.000110011
nr_class 2
total_sv 21259
rho 8.54694
label 1 -1
nr_sv 10594 10665
SV
530.9668120324174 266:1 519:1 1604:1 2361:1 2943:1 2946:1 3184:1 3222:1 3406:1 3541:1 4645:1 5293:1 5390:1 6528:1 7968:1 8758:1 
530.9668120324174 445:1 1255:1 1266:1 2363:1 2946:1 3860:1 5845:1 7022:1 7114:1 7217:1 
530.9668120324174 227:1 1351:1 1821:1 1915:1 2019:1 2363:1 2946:1 3406:1 3539:1 3541:1 4000:1 4051:1 4275:1 4624:1 4642:1 5059:1 5761:1 5845:1 6703:1 7340:1 7636:1 8063:1 
530.9668120324174 2852:1 3539:1 4701:1 6587:1 6599:1 7326:1 7937:1 8840:1 
530.9668120324174 743:1 3860:1 4837:1 5845:1 8684:1 
530.9668120324174 3406:1 3541:1 7950:1 
530.9668120324174 246:1 2946:1 3000:1 3406:1 3462:1 4522:1 5761:1 5845:1 6750:1 6909:1 7043:1 7340:1 
243.1366152188556 315:1 438:1 666:1 1950:1 2363:1 2626:1 2771:1 2946:1 4812:1 5206:1 5258:1 7326:1 7340:1 7636:1 7721:1 8034:1 8729:1 8825:1 8830:1 
530.9668120324174 6574:1 8741:1 
530.9668120324174 2202:1 2327:1 2946:1 3539:1 3877:1 4149:1 5860:1 9087:1 
530.9668120324174 763:1 806:1 875:1 2548:1 2566:1 3603:1 3860:1 4485:1 4837:1 4964:1 6084:1 7043:1 7721:1 8109:1 8542:1 8562:1 8830:1 
530.9668120324174 3860:1 4304:1 4601:1 7697:1 
530.9668120324174 266:1 2626:1 3059:1 3291:1 3436:1 4837:1 6636:1 7322:1 7424:1 7721:1 8109:1 8156:1 8825:1 8830:1 
530.9668120324174 428:1 4601:1 4837:1 5503:1 8825:1 
530.9668120324174 519:1 2626:1 4050:1 4837:1 5533:1 6041:1 7340:1 8383:1 8825:1 8876:1 
530.9668120324174 315:1 742:1 824:1 3204:1 3539:1 5151:1 6832:1 
530.9668120324174 1439:1 1777:1 2363:1 2568:1 3406:1 3541:1 3547:1 3551:1 3594:1 3756:1 4304:1 4551:1 4943:1 4966:1 5245:1 5258:1 5746:1 6290:1 6612:1 6636:1 7043:1 7636:1 8949:1 
530.9668120324174 3704:1 4149:1 5438:1 
530.9668120324174 471:1 1313:1 1620:1 2296:1 3541:1 3551:1 4298:1 4532:1 7043:1 7322:1 7350:1 7527:1 7542:1 7721:1 8441:1 
530.9668120324174 2361:1 3539:1 4837:1 4965:1 5804:1 6618:1 7636:1 8034:1 8063:1 
530.9668120324174 1916:1 2946:1 7013:1 7157:1 7340:1 8063:1 
360.5359114008374 438:1 583:1 605:1 752:1 1288:1 2140:1 3406:1 3623:1 3659:1 4837:1 5255:1 5982:1 7043:1 7186:1 7251:1 7350:1 7506:1 7697:1 8063:1 8501:1 
530.9668120324174 89:1 436:1 2047:1 2158:1 2409:1 2773:1 3406:1 3545:1 3860:1 4000:1 4050:1 4069:1 5258:1 5411:1 6703:1 7322:1 7340:1 7636:1 7686:1 7697:1 7887:1 8065:1 
424.9940455072903 653:1 1118:1 1220:1 1403:1 1659:1 2238:1 2451:1 2594:1 2694:1 2946:1 2993:1 3406:1 3541:1 3805:1 4050:1 4731:1 5206:1 5358:1 5872:1 5913:1 7265:1 7721:1 8825:1 
530.9668120324174 666:1 7887:1 
530.9668120324174 763:1 1821:1 3291:1 3406:1 5005:1 5293:1 5761:1 7721:1 7865:1 8328:1 8358:1 
530.9668120324174 62:1 2019:1 4069:1 7636:1 
530.9668120324174 49:1 1653:1 3406:1 3444:1 3541:1 4162:1 4275:1 4441:1 5761:1 8156:1 
314.2451647645164 1782:1 2363:1 2507:1 2946:1 4964:1 5444:1 5845:1 5881:1 6222:1 6279:1 8891:1 
530.9668120324174 37:1 2946:1 4837:1 
530.9668120324174 266:1 743:1 1274:1 1365:1 2963:1 3099:1 3406:1 3541:1 4162:1 4298:1 5761:1 5804:1 6290:1 7007:1 7325:1 7671:1 7686:1 7698:1 7772:1 8825:1 
530.9668120324174 501:1 1879:1 3406:1 3547:1 4568:1 5258:1 5403:1 5887:1 6290:1 7986:1 8229:1 8825:1 
530.9668120324174 1340:1 3541:1 7697:1 8103:1 
530.9668120324174 524:1 1821:1 2140:1 4050:1 5608:1 6260:1 7887:1 
530.9668120324174 743:1 798:1 3406:1 4069:1 5091:1 6274:1 7028:1 8457:1 
530.9668120324174 1073:1 1255:1 1742:1 2363:1 2946:1 3138:1 3187:1 3263:1 3374:1 3997:1 4050:1 4903:1 5258:1 5950:1 6260:1 6543:1 7701:1 7995:1 8825:1 
530.9668120324174 1231:1 1255:1 2073:1 2771:1 3541:1 4304:1 4964:1 7280:1 
530.9668120324174 1901:1 1941:1 3374:1 3547:1 4731:1 5258:1 
530.9668120324174 30:1 105:1 227:1 742:1 3406:1 4000:1 4462:1 4837:1 5258:1 5497:1 7124:1 7636:1 7721:1 8109:1 8327:1 8825:1 
530.9668120324174 
530.9668120324174 2545:1 2875:1 2946:1 4948:1 5390:1 7688:1 
418.3835366538579 674:1 763:1 1861:1 2363:1 2456:1 2613:1 3001:1 3406:1 4837:1 7292:1 
530.9668120324174 38:1 266:1 407:1 3270:1 3539:1 4018:1 4837:1 5323:1 5386:1 5390:1 5845:1 6170:1 7636:1 7721:1 
12.46850262190157 109:1 246:1 863:1 2028:1 2548:1 2600:1 2644:1 2946:1 3074:1 3138:1 3547:1 4529:1 4841:1 5497:1 6636:1 8019:1 8063:1 8374:1 
530.9668120324174 445:1 2946:1 3490:1 4050:1 4298:1 4812:1 6618:1 6851:1 7486:1 8272:1 
530.9668120324174 266:1 471:1 653:1 1255:1 2543:1 2545:1 2771:1 3291:1 3406:1 4007:1 4719:1 4837:1 5639:1 6367:1 7467:1 7604:1 7697:1 
530.9668120324174 315:1 1870:1 3547:1 4061:1 4837:1 6703:1 7022:1 7114:1 8542:1 
530.9668120324174 367:1 501:1 636:1 742:1 787:1 2363:1 3406:1 3672:1 3680:1 3847:1 4050:1 5349:1 5390:1 5403:1 5621:1 5756:1 5761:1 5845:1 7043:1 
530.9668120324174 742:1 1698:1 1848:1 2318:1 2946:1 3469:1 3547:1 4275:1 5258:1 5290:1 6439:1 7014:1 7350:1 7661:1 7911:1 8001:1 
530.9668120324174 377:1 571:1 674:1 1821:1 2363:1 3547:1 4275:1 4941:1 5206:1 5258:1 5293:1 5623:1 6566:1 6642:1 6989:1 7217:1 8109:1 8825:1 9069:1 
530.9668120324174 2548:1 3406:1 3432:1 4435:1 8109:1 9030:1 
530.9668120324174 656:1 1313:1 3138:1 4050:1 
530.9668120324174 2380:1 2459:1 3291:1 4018:1 5446:1 6290:1 8542:1 
530.9668120324174 19:1 653:1 804:1 1131:1 1890:1 2140:1 2363:1 2459:1 2670:1 2720:1 2971:1 3406:1 3541:1 3547:1 3953:1 4050:1 4067:1 5845:1 6154:1 6618:1 7043:1 7424:1 7855:1 8830:1 8890:1 
530.9668120324174 213:1 377:1 1913:1 1915:1 1923:1 2748:1 2946:1 3335:1 3547:1 3551:1 4601:1 4815:1 4837:1 6750:1 6917:1 7291:1 7697:1 8004:1 8063:1 
530.9668120324174 658:1 5845:1 6290:1 6618:1 7322:1 7340:1 8526:1 
530.9668120324174 742:1 1941:1 3291:1 3406:1 3539:1 3541:1 3547:1 3551:1 4275:1 4298:1 5206:1 5349:1 5411:1 5913:1 8825:1 8830:1 
530.9668120324174 227:1 2771:1 3406:1 3541:1 4050:1 7340:1 8605:1 9053:1 
399.721454796275 749:1 1014:1 1073:1 1923:1 3406:1 4373:1 4652:1 4731:1 7091:1 8758:1 
530.9668120324174 227:1 1653:1 2872:1 3539:1 5503:1 8281:1 8601:1 8825:1 9070:1 
530.9668120324174 227:1 2644:1 3406:1 3541:1 4000:1 4017:1 4162:1 4943:1 7636:1 9047:1 
530.9668120324174 266:1 1098:1 3138:1 4000:1 4275:1 4601:1 5206:1 5674:1 7014:1 8474:1 
176.9152166471137 787:1 878:1 1670:1 2065:1 2140:1 3209:1 3910:1 4275:1 4837:1 5898:1 6512:1 7043:1 7697:1 7721:1 9053:1 
530.9668120324174 3291:1 3406:1 3478:1 4069:1 4837:1 5845:1 7124:1 8063:1 
530.9668120324174 2019:1 3539:1 6917:1 8099:1 
530.9668120324174 315:1 742:1 1812:1 1915:1 2363:1 2380:1 2545:1 2946:1 3150:1 3406:1 3795:1 3959:1 4000:1 4298:1 5258:1 5313:1 6279:1 6612:1 7636:1 7697:1 7721:1 7830:1 8034:1 
530.9668120324174 749:1 2541:1 2548:1 5358:1 5674:1 8802:1 
530.9668120324174 266:1 653:1 989:1 2569:1 2896:1 2946:1 3138:1 3391:1 3406:1 3702:1 4050:1 4837:1 5714:1 6036:1 6941:1 7697:1 7721:1 9053:1 
530.9668120324174 1014:1 1997:1 3545:1 6367:1 7217:1 7721:1 
530.9668120324174 62:1 185:1 371:1 519:1 1015:1 2594:1 3406:1 3541:1 3916:1 4022:1 4069:1 4114:1 4275:1 4335:1 4837:1 5258:1 5390:1 6587:1 7021:1 7721:1 8001:1 8441:1 8542:1 8825:1 
530.9668120324174 1149:1 2083:1 3493:1 3541:1 5258:1 6177:1 
530.9668120324174 266:1 274:1 802:1 1728:1 2172:1 2459:1 2946:1 3702:1 5057:1 6390:1 7491:1 7636:1 7785:1 8281:1 8505:1 8729:1 
530.9668120324174 519:1 653:1 1653:1 1821:1 2896:1 7467:1 7697:1 
530.9668120324174 1443:1 4162:1 8221:1 
530.9668120324174 3785:1 3877:1 4964:1 
530.9668120324174 198:1 473:1 1254:1 2471:1 2875:1 2896:1 2946:1 3367:1 3702:1 4020:1 4837:1 5390:1 5411:1 6344:1 6618:1 6793:1 7340:1 7636:1 8501:1 8751:1 8825:1 
530.9668120324174 1340:1 2155:1 2409:1 5390:1 7261:1 7630:1 7721:1 7855:1 
530.9668120324174 742:1 848:1 962:1 969:1 2896:1 3054:1 3125:1 3541:1 3547:1 4060:1 4298:1 4697:1 4837:1 4964:1 7340:1 7697:1 7721:1 7797:1 8718:1 8830:1 9069:1 
530.9668120324174 1670:1 7094:1 7636:1 7697:1 
530.9668120324174 227:1 742:1 3406:1 5761:1 7700:1 8576:1 
530.9668120324174 227:1 571:1 604:1 653:1 1437:1 1773:1 2946:1 3406:1 3541:1 3547:1 4051:1 4162:1 4194:1 5434:1 5572:1 6307:1 7350:1 7992:1 
530.9668120324174 1526:1 2409:1 2875:1 2946:1 3406:1 4266:1 6612:1 7636:1 8900:1 
530.9668120324174 2083:1 2734:1 3209:1 4966:1 7887:1 
530.9668120324174 638:1 1653:1 2496:1 2548:1 3406:1 3895:1 4298:1 5761:1 6917:1 7340:1 7671:1 7697:1 7785:1 8825:1 
530.9668120324174 2896:1 3406:1 5293:1 7636:1 
530.9668120324174 15:1 638:1 749:1 1235:1 1340:1 1698:1 2112:1 2363:1 3222:1 3320:1 3406:1 3545:1 3876:1 4652:1 4837:1 5313:1 5390:1 6367:1 7043:1 7673:1 7764:1 
530.9668120324174 1183:1 1224:1 1821:1 2946:1 3406:1 3541:1 3659:1 4622:1 4731:1 4878:1 5150:1 5161:1 5293:1 5913:1 5937:1 6314:1 6949:1 7697:1 8825:1 
530.9668120324174 8155:1 
530.9668120324174 742:1 1215:1 1995:1 2175:1 2193:1 2363:1 2459:1 4000:1 5708:1 7721:1 8063:1 
530.9668120324174 266:1 315:1 434:1 579:1 2239:1 2337:1 2361:1 2374:1 3547:1 3744:1 4000:1 4592:1 4837:1 6636:1 7721:1 8358:1 
71.89613733119589 1220:1 2361:1 3541:1 3916:1 5804:1 5845:1 8001:1 8825:1 
530.9668120324174 266:1 1821:1 2632:1 2896:1 3744:1 4069:1 4837:1 5845:1 6163:1 6367:1 6703:1 7721:1 8587:1 8749:1 8825:1 
530.9668120324174 742:1 2363:1 2771:1 3328:1 3697:1 4280:1 4601:1 7697:1 8034:1 8155:1 
530.9668120324174 1620:1 3406:1 6367:1 7034:1 7636:1 
530.9668120324174 2896:1 3406:1 3916:1 5206:1 5913:1 7636:1 
530.9668120324174 2471:1 4586:1 4787:1 4837:1 6618:1 7094:1 
530.9668120324174 363:1 2119:1 7697:1 8017:1 8816:1 8900:1 
530.9668120324174 3406:1 4069:1 5317:1 6367:1 
530.9668120324174 185:1 434:1 743:1 1923:1 2566:1 2580:1 2705:1 2946:1 3025:1 3103:1 3406:1 3541:1 3659:1 4162:1 4304:1 4596:1 4701:1 5091:1 5357:1 5390:1 7697:1 7923:1 8063:1 8825:1 
530.9668120324174 227:1 519:1 739:1 1769:1 1821:1 2042:1 2363:1 2545:1 2872:1 2896:1 3406:1 3551:1 3860:1 3928:1 4330:1 4731:1 4746:1 4837:1 5390:1 6569:1 7094:1 7181:1 7721:1 7795:1 8627:1 
530.9668120324174 1563:1 7937:1 
530.9668120324174 2749:1 3539:1 4680:1 4746:1 
530.9668120324174 315:1 1404:1 1451:1 1626:1 2073:1 2363:1 3070:1 3672:1 4050:1 5808:1 5931:1 6081:1 7721:1 8441:1 8529:1 8825:1 9070:1 
530.9668120324174 674:1 1451:1 2019:1 2047:1 2363:1 3539:1 3860:1 7721:1 7975:1 8703:1 8729:1 
530.9668120324174 109:1 743:1 746:1 3097:1 7689:1 8587:1 8830:1 
530.9668120324174 2545:1 3539:1 3551:1 3795:1 4050:1 4154:1 4162:1 4298:1 4420:1 4837:1 4943:1 5293:1 5390:1 5576:1 5912:1 7114:1 7322:1 7721:1 8109:1 
530.9668120324174 266:1 653:1 2140:1 2532:1 2946:1 3406:1 3541:1 3855:1 3887:1 4119:1 5091:1 5919:1 6618:1 6636:1 7636:1 7697:1 8109:1 8825:1 
530.9668120324174 819:1 2471:1 4837:1 7114:1 7721:1 
530.9668120324174 742:1 1620:1 1670:1 1861:1 3436:1 3672:1 7636:1 
530.9668120324174 743:1 2946:1 3353:1 3478:1 3785:1 4837:1 4964:1 5293:1 5390:1 6027:1 6091:1 7013:1 7114:1 7350:1 7673:1 
530.9668120324174 179:1 185:1 471:1 1352:1 2626:1 3406:1 3551:1 3659:1 4244:1 4630:1 4837:1 5147:1 5390:1 6220:1 7066:1 7686:1 7697:1 7721:1 8008:1 8103:1 8320:1 8820:1 8825:1 9053:1 
530.9668120324174 2946:1 3055:1 3702:1 5206:1 5951:1 8900:1 
530.9668120324174 53:1 3547:1 5255:1 6290:1 7721:1 
530.9668120324174 2459:1 2566:1 3291:1 3490:1 4007:1 4837:1 5845:1 
530.9668120324174 653:1 1914:1 1923:1 2115:1 2380:1 2896:1 2946:1 3164:1 3406:1 4000:1 4050:1 4493:1 4568:1 4792:1 4837:1 6481:1 6492:1 7340:1 7577:1 7638:1 8063:1 8369:1 8830:1 
530.9668120324174 30:1 908:1 2626:1 3221:1 3406:1 4608:1 4837:1 
530.9668120324174 742:1 2946:1 3187:1 3406:1 3547:1 4532:1 5715:1 8122:1 8825:1 
445.9908058527549 41:1 542:1 1313:1 1340:1 1452:1 2073:1 2119:1 3406:1 3539:1 3541:1 3672:1 3860:1 3916:1 4050:1 4298:1 4961:1 6089:1 7043:1 7340:1 8457:1 8756:1 9069:1 
97.41051487874647 1352:1 2083:1 2720:1 2872:1 2873:1 3406:1 3547:1 3551:1 4244:1 4731:1 5255:1 5293:1 5768:1 5845:1 7697:1 7721:1 8146:1 8328:1 8758:1 8825:1 8872:1 9053:1 
530.9668120324174 743:1 802:1 1821:1 2305:1 2322:1 2327:1 2363:1 2550:1 2646:1 2672:1 2875:1 2922:1 3059:1 4050:1 4171:1 4601:1 4812:1 5748:1 6379:1 6618:1 7721:1 8305:1 8576:1 8905:1 
530.9668120324174 519:1 1255:1 2073:1 3539:1 3876:1 4837:1 5313:1 7721:1 
530.9668120324174 190:1 315:1 1138:1 1404:1 1738:1 1950:1 2119:1 2548:1 2567:1 2946:1 3189:1 3734:1 4815:1 4964:1 7350:1 7697:1 7973:1 8103:1 9069:1 
530.9668120324174 1404:1 4676:1 7721:1 
530.9668120324174 81:1 2424:1 2873:1 2936:1 2946:1 3406:1 3502:1 4154:1 4687:1 4731:1 5293:1 6551:1 7340:1 8900:1 
530.9668120324174 2463:1 3001:1 3282:1 3432:1 3907:1 4473:1 8825:1 
530.9668120324174 5846:1 
530.9668120324174 1734:1 2943:1 3406:1 
530.9668120324174 3436:1 3539:1 4837:1 5242:1 5566:1 5749:1 5845:1 5881:1 7322:1 7887:1 
530.9668120324174 3138:1 3209:1 4837:1 5094:1 5845:1 7686:1 8319:1 8476:1 8825:1 
318.7917497482213 848:1 2924:1 3182:1 3406:1 3547:1 5091:1 5845:1 8001:1 8109:1 8204:1 8499:1 
412.9013749501172 198:1 666:1 1138:1 2140:1 2657:1 2946:1 3406:1 3541:1 3547:1 3632:1 3916:1 4050:1 4162:1 4481:1 4485:1 4657:1 5091:1 5708:1 5761:1 6618:1 7043:1 7340:1 7721:1 8001:1 8099:1 8300:1 8984:1 
393.8478036557989 227:1 519:1 1526:1 1886:1 2409:1 2936:1 3141:1 3406:1 3541:1 3547:1 4837:1 5151:1 6290:1 6551:1 7491:1 7586:1 7975:1 8063:1 8825:1 
530.9668120324174 2360:1 4069:1 4964:1 8063:1 8156:1 
530.9668120324174 3462:1 
530.9668120324174 33:1 227:1 1252:1 2214:1 2638:1 2873:1 3189:1 3380:1 3541:1 3547:1 3905:1 4275:1 4298:1 5255:1 6618:1 7721:1 8004:1 8431:1 8747:1 8825:1 
530.9668120324174 3545:1 3794:1 4964:1 5832:1 
253.2983611716764 227:1 653:1 2144:1 2545:1 3406:1 3483:1 4050:1 4131:1 4557:1 4731:1 4837:1 4902:1 5293:1 5420:1 7721:1 8099:1 8441:1 8463:1 
530.9668120324174 1404:1 3406:1 4330:1 6367:1 6917:1 7697:1 8320:1 8456:1 8825:1 8912:1 8993:1 
530.9668120324174 105:1 227:1 266:1 1073:1 3848:1 3860:1 5674:1 6941:1 7686:1 7721:1 8441:1 
444.6503279465684 227:1 1255:1 1452:1 1694:1 2083:1 2220:1 2728:1 2771:1 2946:1 3022:1 3541:1 3876:1 4298:1 4837:1 5313:1 8001:1 8476:1 8576:1 
3.541318515679393 94:1 666:1 1941:1 2360:1 2361:1 2363:1 2946:1 3209:1 3406:1 3541:1 4275:1 4794:1 4837:1 4920:1 5069:1 5406:1 5845:1 6618:1 6956:1 7721:1 8900:1 
530.9668120324174 1828:1 2140:1 3123:1 3406:1 4837:1 5761:1 7937:1 
530.9668120324174 501:1 2663:1 3138:1 3547:1 5493:1 5943:1 7721:1 7795:1 8355:1 8825:1 
530.9668120324174 2363:1 2443:1 3539:1 4050:1 5926:1 7686:1 8559:1 
530.9668120324174 1547:1 2363:1 2943:1 3406:1 3541:1 3876:1 4017:1 4837:1 4943:1 5313:1 6728:1 
530.9668120324174 519:1 1698:1 2140:1 3353:1 5897:1 6981:1 7340:1 8063:1 
191.3998238286691 1502:1 3860:1 4794:1 5109:1 6488:1 6618:1 7043:1 8441:1 
530.9668120324174 227:1 315:1 659:1 1403:1 2140:1 2626:1 3541:1 4275:1 4304:1 4731:1 4837:1 5063:1 5206:1 7697:1 
530.9668120324174 819:1 3291:1 3406:1 3860:1 4837:1 5761:1 7114:1 7636:1 8758:1 9069:1 
530.9668120324174 2083:1 3138:1 5057:1 5403:1 7217:1 7721:1 
530.9668120324174 227:1 653:1 743:1 1340:1 2230:1 2541:1 3406:1 3541:1 3782:1 3860:1 4837:1 5411:1 5913:1 6898:1 7326:1 7340:1 7721:1 7772:1 8178:1 8358:1 8441:1 9087:1 
530.9668120324174 404:1 457:1 653:1 951:1 2458:1 4119:1 4597:1 5063:1 7124:1 8195:1 8684:1 
530.9668120324174 33:1 227:1 1252:1 2214:1 2638:1 2873:1 3189:1 3380:1 3541:1 3547:1 3905:1 4275:1 4298:1 5255:1 6618:1 7721:1 8004:1 8434:1 8747:1 8825:1 
530.9668120324174 1181:1 2136:1 2363:1 5168:1 5621:1 8627:1 8825:1 
530.9668120324174 185:1 1819:1 1941:1 2139:1 2371:1 2490:1 3483:1 4304:1 4837:1 5269:1 5390:1 5845:1 7686:1 7697:1 7767:1 8900:1 
530.9668120324174 2181:1 2459:1 3353:1 5446:1 7114:1 7742:1 
530.9668120324174 659:1 1138:1 1670:1 1812:1 1855:1 1923:1 2140:1 2363:1 2409:1 2771:1 2772:1 2872:1 2896:1 2946:1 3406:1 4837:1 5639:1 6367:1 6612:1 7697:1 8601:1 
530.9668120324174 105:1 266:1 369:1 674:1 1073:1 2047:1 2946:1 3547:1 3708:1 4397:1 5199:1 5824:1 7326:1 7721:1 8063:1 8109:1 8374:1 9070:1 
530.9668120324174 2925:1 2946:1 3744:1 5963:1 7995:1 9069:1 
530.9668120324174 607:1 1266:1 1340:1 1965:1 2363:1 2946:1 3406:1 3586:1 4162:1 4298:1 5913:1 5937:1 6044:1 6949:1 7467:1 7855:1 8496:1 
530.9668120324174 316:1 653:1 742:1 1452:1 2946:1 3336:1 3406:1 3957:1 4298:1 4435:1 4522:1 4837:1 5614:1 6574:1 6941:1 7092:1 7491:1 7650:1 7721:1 7973:1 
530.9668120324174 2167:1 2639:1 3533:1 3668:1 4139:1 5256:1 5268:1 6799:1 6973:1 7290:1 7987:1 8034:1 
530.9668120324174 816:1 1403:1 1923:1 4731:1 7697:1 7937:1 7957:1 8103:1 8838:1 
530.9668120324174 742:1 1098:1 2290:1 2363:1 2409:1 2545:1 3031:1 3238:1 3406:1 4000:1 4162:1 4298:1 4522:1 4807:1 4837:1 5390:1 5627:1 6622:1 7043:1 7467:1 7937:1 
411.5662532128574 386:1 1340:1 1941:1 2140:1 2409:1 2722:1 2946:1 3406:1 3539:1 3541:1 3659:1 3763:1 4522:1 4837:1 5293:1 6917:1 7340:1 7455:1 7697:1 7721:1 7785:1 7995:1 8372:1 8825:1 
530.9668120324174 438:1 816:1 1068:1 1620:1 1923:1 2363:1 2946:1 3050:1 3406:1 3788:1 4017:1 4731:1 7322:1 7424:1 7636:1 7697:1 8025:1 8255:1 8729:1 8879:1 
530.9668120324174 315:1 377:1 1240:1 1340:1 1698:1 1821:1 2594:1 2946:1 3212:1 3547:1 4837:1 4964:1 6081:1 7000:1 7350:1 7638:1 7697:1 7721:1 8358:1 8610:1 8900:1 8910:1 
401.6973855342986 519:1 1255:1 1821:1 2363:1 2380:1 2621:1 2946:1 4837:1 5641:1 5754:1 7322:1 8103:1 8338:1 
530.9668120324174 105:1 510:1 653:1 1437:1 2119:1 2946:1 3181:1 3406:1 3539:1 3792:1 3860:1 4069:1 4837:1 5639:1 6832:1 7496:1 7649:1 7721:1 7995:1 8662:1 8763:1 8802:1 
530.9668120324174 519:1 720:1 1005:1 2363:1 2543:1 2548:1 2946:1 3001:1 3462:1 3539:1 4050:1 4056:1 5094:1 5927:1 6446:1 7025:1 7995:1 
530.9668120324174 115:1 1073:1 1255:1 2720:1 2946:1 3406:1 5761:1 
530.9668120324174 227:1 3011:1 6917:1 7582:1 
530.9668120324174 471:1 1240:1 1267:1 1340:1 1670:1 2626:1 2946:1 3541:1 3551:1 4000:1 5255:1 5290:1 5293:1 5845:1 6618:1 7043:1 7326:1 7697:1 7721:1 
530.9668120324174 2896:1 3406:1 5272:1 6098:1 
530.9668120324174 3545:1 3547:1 6547:1 6956:1 7358:1 8109:1 
530.9668120324174 5438:1 6994:1 7721:1 
530.9668120324174 198:1 653:1 3406:1 4050:1 5293:1 6823:1 7022:1 7217:1 7348:1 
530.9668120324174 1126:1 1739:1 2140:1 2543:1 2783:1 3539:1 4837:1 5863:1 5881:1 6612:1 6888:1 7322:1 8088:1 8680:1 
530.9668120324174 1451:1 1670:1 2088:1 2896:1 2946:1 5255:1 5524:1 5845:1 6041:1 7012:1 7340:1 7686:1 7697:1 7836:1 9072:1 
530.9668120324174 279:1 2363:1 2456:1 3488:1 4050:1 8328:1 
530.9668120324174 109:1 1404:1 1442:1 2548:1 2946:1 3181:1 3237:1 4964:1 6264:1 6290:1 6941:1 
530.9668120324174 407:1 652:1 743:1 1954:1 2165:1 2363:1 3406:1 3462:1 4050:1 4069:1 4518:1 4680:1 4964:1 5427:1 6367:1 7056:1 7500:1 7721:1 8825:1 
530.9668120324174 362:1 2896:1 3406:1 3547:1 3860:1 3916:1 4050:1 4837:1 5293:1 5390:1 6089:1 6618:1 7014:1 7855:1 8063:1 8115:1 8890:1 9070:1 
530.9668120324174 523:1 2459:1 2791:1 6290:1 7671:1 7717:1 7721:1 8425:1 
530.9668120324174 266:1 1620:1 2946:1 3014:1 3406:1 3541:1 3547:1 6120:1 
530.9668120324174 227:1 1620:1 3894:1 4532:1 5917:1 7636:1 7721:1 8540:1 
530.9668120324174 2291:1 3033:1 7337:1 
530.9668120324174 742:1 1861:1 2083:1 2541:1 3406:1 4719:1 4837:1 6289:1 
530.9668120324174 666:1 1946:1 2363:1 2946:1 3539:1 4000:1 4050:1 7721:1 8008:1 8664:1 
530.9668120324174 105:1 377:1 674:1 987:1 1641:1 1738:1 1915:1 2083:1 2618:1 3181:1 3406:1 3670:1 3681:1 3785:1 4518:1 4837:1 4964:1 4972:1 7114:1 7181:1 7340:1 7721:1 9055:1 
530.9668120324174 62:1 3702:1 3852:1 6917:1 7686:1 8441:1 
530.9668120324174 3989:1 7322:1 9020:1 
530.9668120324174 4022:1 4050:1 4242:1 4837:1 4943:1 5325:1 7114:1 7636:1 7742:1 
530.9668120324174 1231:1 2548:1 2632:1 3291:1 3406:1 4081:1 4332:1 4837:1 6367:1 
530.9668120324174 377:1 438:1 802:1 804:1 1045:1 1326:1 1786:1 2255:1 2580:1 6108:1 6851:1 7043:1 7721:1 8957:1 
155.7356858179199 1670:1 1812:1 1861:1 2700:1 2771:1 2867:1 2946:1 3406:1 3547:1 4000:1 4018:1 5069:1 5293:1 5349:1 5631:1 5762:1 7326:1 7469:1 8328:1 9053:1 
530.9668120324174 653:1 827:1 1670:1 2548:1 3435:1 3541:1 3622:1 4050:1 5707:1 7721:1 7876:1 
530.9668120324174 3406:1 4526:1 4731:1 5913:1 6367:1 
26.56190707264224 198:1 2946:1 3462:1 3547:1 5184:1 5863:1 7340:1 7686:1 8372:1 
530.9668120324174 185:1 1941:1 2140:1 2548:1 2946:1 3406:1 3510:1 3541:1 3547:1 3659:1 4244:1 4568:1 4815:1 5390:1 5761:1 6917:1 7124:1 7340:1 7697:1 7785:1 7987:1 8155:1 8900:1 9053:1 
530.9668120324174 309:1 2363:1 3545:1 3547:1 5238:1 8109:1 8643:1 
530.9668120324174 198:1 653:1 742:1 1204:1 1670:1 2545:1 2720:1 2946:1 3406:1 4069:1 4731:1 5845:1 7043:1 7340:1 7636:1 7995:1 8328:1 9053:1 
530.9668120324174 2946:1 3291:1 4298:1 4837:1 5255:1 8199:1 
530.9668120324174 2825:1 3406:1 3503:1 4017:1 4050:1 
530.9668120324174 188:1 2344:1 3539:1 
530.9668120324174 2896:1 6225:1 7686:1 7995:1 
530.9668120324174 308:1 376:1 1104:1 1689:1 3221:1 7348:1 8825:1 9090:1 
530.9668120324174 161:1 8441:1 
530.9668120324174 802:1 2363:1 3222:1 3547:1 3876:1 4069:1 4224:1 4966:1 5159:1 5313:1 5390:1 7145:1 7721:1 7742:1 7973:1 8088:1 8136:1 8211:1 8576:1 8663:1 8758:1 8825:1 
530.9668120324174 483:1 1474:1 1875:1 4413:1 7091:1 
96.15430456659787 445:1 743:1 1739:1 2327:1 2409:1 2459:1 2946:1 3059:1 3291:1 3364:1 3406:1 3539:1 3623:1 3648:1 4000:1 4050:1 4857:1 4894:1 4943:1 4982:1 5300:1 7636:1 7721:1 7855:1 8008:1 8678:1 8825:1 
530.9668120324174 227:1 496:1 1249:1 1821:1 3539:1 3541:1 3876:1 4119:1 4812:1 4837:1 5313:1 
530.9668120324174 1340:1 2679:1 3406:1 3945:1 4007:1 4731:1 4837:1 5293:1 5335:1 5390:1 5674:1 5845:1 5913:1 6669:1 6784:1 7094:1 7340:1 7636:1 7686:1 7697:1 7721:1 8063:1 8441:1 8825:1 
530.9668120324174 1821:1 2441:1 3104:1 4050:1 4275:1 4966:1 6636:1 8248:1 8900:1 
530.9668120324174 227:1 653:1 656:1 2363:1 2545:1 3046:1 3406:1 3541:1 4050:1 4592:1 4837:1 5374:1 5804:1 
530.9668120324174 315:1 471:1 1739:1 3406:1 5374:1 5403:1 
286.023407797941 1220:1 4965:1 6098:1 7340:1 
530.9668120324174 2927:1 4298:1 7823:1 
530.9668120324174 763:1 1694:1 2363:1 2548:1 2946:1 3744:1 5926:1 6098:1 6278:1 6488:1 7340:1 8368:1 8441:1 
371.9476621043351 266:1 524:1 653:1 676:1 722:1 742:1 1028:1 1922:1 2632:1 3044:1 3309:1 3374:1 4964:1 5118:1 5994:1 7340:1 7721:1 8173:1 8825:1 
530.9668120324174 7763:1 
530.9668120324174 615:1 656:1 1948:1 2363:1 5492:1 7635:1 7636:1 7697:1 
530.9668120324174 1404:1 2409:1 2592:1 3406:1 4837:1 5293:1 5804:1 5845:1 6080:1 6941:1 7183:1 9053:1 
530.9668120324174 32:1 1670:1 2993:1 3547:1 3551:1 3860:1 5293:1 5411:1 6636:1 7697:1 
530.9668120324174 742:1 1222:1 2673:1 3547:1 4601:1 4964:1 5206:1 6379:1 
530.9668120324174 1812:1 1941:1 4050:1 4304:1 5566:1 8776:1 
530.9668120324174 315:1 1914:1 1954:1 3297:1 3541:1 3727:1 3860:1 3989:1 4050:1 4162:1 4298:1 4837:1 5099:1 6488:1 7326:1 8802:1 8825:1 
530.9668120324174 105:1 315:1 666:1 714:1 1620:1 2363:1 2946:1 3406:1 4007:1 4298:1 5045:1 5845:1 5950:1 6945:1 7697:1 
530.9668120324174 787:1 955:1 1062:1 1592:1 1821:1 2140:1 3078:1 3406:1 3539:1 3541:1 3676:1 3794:1 4298:1 5316:1 5390:1 5403:1 5748:1 5845:1 7217:1 7973:1 8825:1 
530.9668120324174 656:1 2400:1 2946:1 3406:1 4162:1 4298:1 4626:1 4731:1 5221:1 5293:1 5390:1 6618:1 7210:1 7721:1 7973:1 8001:1 8320:1 9070:1 
530.9668120324174 59:1 653:1 666:1 1872:1 2268:1 2363:1 2778:1 3406:1 3541:1 4000:1 4837:1 5734:1 7636:1 7686:1 7721:1 8684:1 
530.9668120324174 3238:1 3406:1 3462:1 3469:1 3635:1 4050:1 4837:1 4943:1 5411:1 5492:1 5761:1 5845:1 5884:1 6569:1 8063:1 8825:1 8900:1 
530.9668120324174 81:1 436:1 604:1 742:1 1786:1 2140:1 2363:1 2541:1 3209:1 3220:1 3539:1 3547:1 3623:1 3848:1 4571:1 4942:1 6551:1 7340:1 7427:1 7491:1 7697:1 7721:1 
530.9668120324174 30:1 848:1 1138:1 1313:1 1658:1 1819:1 2562:1 2678:1 2946:1 3291:1 3406:1 3541:1 4837:1 6041:1 6612:1 7340:1 8903:1 
530.9668120324174 1204:1 2594:1 2820:1 3406:1 3539:1 3541:1 3547:1 4000:1 4837:1 5286:1 5293:1 5390:1 5411:1 5439:1 6344:1 6569:1 6636:1 7322:1 7721:1 8270:1 8441:1 
44.77079294744566 666:1 2305:1 3545:1 4301:1 
530.9668120324174 109:1 161:1 198:1 787:1 1131:1 1544:1 3181:1 3406:1 3423:1 3539:1 4162:1 4943:1 6917:1 7636:1 8348:1 8856:1 
530.9668120324174 615:1 3635:1 5411:1 8038:1 
530.9668120324174 227:1 653:1 1340:1 2119:1 2946:1 2987:1 3406:1 3541:1 3547:1 3855:1 4775:1 4837:1 5621:1 6917:1 7259:1 7389:1 7480:1 8072:1 8441:1 8825:1 
530.9668120324174 1207:1 1353:1 3406:1 3547:1 4837:1 7043:1 8115:1 
79.38623238869083 1620:1 2946:1 3607:1 4301:1 4731:1 4792:1 4965:1 5293:1 7043:1 7217:1 7340:1 7697:1 7795:1 
530.9668120324174 483:1 2380:1 4225:1 4754:1 4837:1 6342:1 6618:1 7217:1 8030:1 8211:1 
530.9668120324174 674:1 1951:1 4837:1 7114:1 7326:1 7721:1 8542:1 9069:1 
530.9668120324174 1739:1 2175:1 3462:1 6999:1 7721:1 7896:1 8825:1 
530.9668120324174 2600:1 3406:1 4335:1 5293:1 5968:1 6629:1 7014:1 7638:1 7973:1 8963:1 
530.9668120324174 2363:1 2548:1 4851:1 5827:1 8960:1 
530.9668120324174 315:1 3249:1 3406:1 4000:1 4807:1 4837:1 5761:1 7777:1 7937:1 
530.9668120324174 2946:1 3539:1 6512:1 7322:1 8825:1 
530.9668120324174 743:1 804:1 1340:1 1620:1 2140:1 2155:1 2459:1 2896:1 2907:1 3406:1 3632:1 4000:1 6695:1 7340:1 7684:1 
530.9668120324174 252:1 289:1 305:1 2873:1 2896:1 2946:1 3539:1 3547:1 4731:1 4781:1 5293:1 5349:1 5954:1 6618:1 6636:1 7043:1 7340:1 7696:1 7697:1 7978:1 
530.9668120324174 764:1 1352:1 2678:1 2946:1 3074:1 3406:1 3539:1 3541:1 3551:1 3792:1 4050:1 4630:1 5845:1 6290:1 6549:1 7721:1 8348:1 8979:1 
530.9668120324174 604:1 742:1 1404:1 1732:1 3103:1 3541:1 4000:1 4022:1 4203:1 4234:1 4474:1 6941:1 8825:1 
530.9668120324174 2946:1 3430:1 3462:1 3539:1 4719:1 7325:1 
530.9668120324174 510:1 906:1 938:1 2541:1 3406:1 4376:1 6703:1 7340:1 9053:1 
530.9668120324174 601:1 1071:1 1812:1 3478:1 4532:1 4812:1 5390:1 5544:1 5756:1 7000:1 7066:1 7510:1 8072:1 8953:1 
530.9668120324174 493:1 615:1 804:1 1222:1 1255:1 1459:1 2431:1 2541:1 3146:1 3406:1 4429:1 5075:1 6569:1 7649:1 7721:1 8199:1 8825:1 
530.9668120324174 3539:1 8436:1 
530.9668120324174 478:1 653:1 827:1 3001:1 3406:1 3547:1 4673:1 4731:1 5293:1 5349:1 5912:1 6488:1 7649:1 7721:1 7887:1 8825:1 8867:1 
530.9668120324174 315:1 434:1 3623:1 3848:1 6439:1 
530.9668120324174 638:1 804:1 1403:1 2305:1 2875:1 2946:1 3632:1 3659:1 3708:1 4815:1 5950:1 6585:1 8273:1 
530.9668120324174 802:1 1340:1 3291:1 3539:1 3763:1 4837:1 4964:1 8825:1 
530.9668120324174 3545:1 4964:1 5446:1 5565:1 
530.9668120324174 666:1 742:1 1221:1 1300:1 1821:1 2679:1 4815:1 4837:1 4964:1 7697:1 8034:1 
530.9668120324174 471:1 1403:1 2175:1 2380:1 2896:1 3578:1 3939:1 4050:1 4837:1 7114:1 7721:1 8314:1 
530.9668120324174 2541:1 2548:1 4435:1 4965:1 5367:1 5737:1 5926:1 6188:1 8466:1 8802:1 9024:1 
530.9668120324174 89:1 227:1 1629:1 2363:1 2595:1 2809:1 3234:1 3406:1 3541:1 4485:1 4837:1 5091:1 5708:1 6367:1 6379:1 7467:1 7697:1 7721:1 8156:1 8278:1 9053:1 
530.9668120324174 2363:1 3271:1 
530.9668120324174 716:1 2019:1 2363:1 7340:1 7721:1 8358:1 
530.9668120324174 483:1 529:1 3539:1 4837:1 7114:1 
530.9668120324174 363:1 2236:1 3406:1 3547:1 4000:1 5436:1 5493:1 5913:1 6314:1 6467:1 6485:1 7601:1 
332.5466566601735 653:1 1861:1 4837:1 4966:1 5804:1 5912:1 5930:1 6367:1 7022:1 7721:1 7806:1 7937:1 8401:1 
530.9668120324174 510:1 1073:1 2008:1 2158:1 3406:1 3541:1 3547:1 4162:1 5258:1 7697:1 7892:1 8830:1 
530.9668120324174 653:1 978:1 1560:1 2946:1 3236:1 3406:1 4067:1 4162:1 5358:1 6941:1 7467:1 7686:1 7697:1 8456:1 8469:1 
530.9668120324174 1620:1 3541:1 
530.9668120324174 315:1 615:1 1777:1 2256:1 3270:1 4275:1 4943:1 5390:1 6941:1 7697:1 8156:1 8900:1 
530.9668120324174 519:1 1941:1 2678:1 2946:1 3406:1 4837:1 5063:1 5411:1 5845:1 6041:1 7013:1 7043:1 7195:1 7340:1 8131:1 8150:1 8825:1 
158.372787859203 483:1 674:1 2140:1 2363:1 2529:1 2548:1 2946:1 3462:1 4275:1 6921:1 7043:1 7607:1 7721:1 8830:1 
530.9668120324174 5845:1 8546:1 8825:1 
530.9668120324174 161:1 742:1 2946:1 3406:1 3539:1 3547:1 4139:1 5591:1 5598:1 6612:1 7690:1 7937:1 8156:1 
530.9668120324174 743:1 2363:1 2548:1 3146:1 5206:1 6084:1 7340:1 8900:1 
530.9668120324174 1073:1 4298:1 6264:1 7043:1 7437:1 8825:1 
530.9668120324174 227:1 476:1 2601:1 2936:1 2946:1 4050:1 4837:1 5292:1 5386:1 6048:1 6774:1 7137:1 
530.9668120324174 4018:1 4050:1 7662:1 
530.9668120324174 2337:1 2361:1 2409:1 2543:1 3547:1 4000:1 4050:1 4966:1 5438:1 5746:1 7340:1 7697:1 7721:1 8900:1 
530.9668120324174 227:1 438:1 742:1 1220:1 1739:1 1915:1 2136:1 2451:1 2696:1 3406:1 4298:1 4304:1 4792:1 5261:1 5316:1 5761:1 6056:1 7071:1 7094:1 7340:1 7636:1 7721:1 8103:1 
530.9668120324174 227:1 438:1 742:1 833:1 2548:1 2626:1 3406:1 3539:1 3541:1 3876:1 4371:1 4837:1 4886:1 5313:1 5341:1 6509:1 6612:1 7697:1 8063:1 
530.9668120324174 434:1 1779:1 1840:1 2545:1 2580:1 2890:1 2946:1 3547:1 3659:1 4162:1 4522:1 5358:1 6379:1 7323:1 7721:1 
530.9668120324174 227:1 742:1 1071:1 2158:1 3406:1 3478:1 3551:1 5845:1 6941:1 7636:1 7649:1 
530.9668120324174 653:1 1821:1 7326:1 7721:1 7887:1 8441:1 
530.9668120324174 1235:1 4275:1 6686:1 
530.9668120324174 227:1 987:1 1772:1 2360:1 2363:1 2527:1 2946:1 3406:1 3541:1 4411:1 4641:1 4702:1 4770:1 4781:1 4794:1 4837:1 5255:1 7050:1 7340:1 8063:1 8825:1 
530.9668120324174 269:1 492:1 653:1 820:1 1377:1 1670:1 2050:1 2595:1 2946:1 3097:1 3541:1 3616:1 3760:1 4000:1 4837:1 5258:1 5290:1 5876:1 6363:1 8599:1 
530.9668120324174 266:1 519:1 2290:1 2922:1 2946:1 3406:1 3541:1 3547:1 5390:1 5639:1 6789:1 6919:1 7322:1 7405:1 8062:1 8063:1 8156:1 8683:1 8825:1 
530.9668120324174 604:1 653:1 742:1 1821:1 1941:1 2875:1 3013:1 3406:1 3547:1 3848:1 4080:1 4936:1 5390:1 5756:1 5761:1 6367:1 6612:1 7636:1 8034:1 8825:1 
69.16040200658043 1450:1 5033:1 5137:1 7721:1 
530.9668120324174 198:1 519:1 1351:1 1670:1 2123:1 2946:1 3205:1 3406:1 3541:1 4000:1 4162:1 4964:1 5258:1 5881:1 6124:1 6613:1 7114:1 7636:1 8501:1 8552:1 
530.9668120324174 105:1 616:1 804:1 3406:1 4074:1 4298:1 6638:1 7721:1 7855:1 
530.9668120324174 763:1 1351:1 2363:1 4275:1 5063:1 5845:1 6917:1 7043:1 
530.9668120324174 185:1 438:1 443:1 987:1 1098:1 1915:1 2626:1 3320:1 3785:1 3916:1 4493:1 4964:1 5206:1 5390:1 7350:1 7686:1 8466:1 
530.9668120324174 552:1 4162:1 
530.9668120324174 1340:1 2140:1 2290:1 2679:1 2720:1 2875:1 3406:1 3541:1 4000:1 4194:1 4493:1 4837:1 5390:1 5621:1 5845:1 6366:1 6941:1 7350:1 7697:1 7721:1 8593:1 8900:1 9053:1 
530.9668120324174 6941:1 7697:1 8900:1 
530.9668120324174 2363:1 3406:1 5458:1 7101:1 7697:1 7721:1 8456:1 
530.9668120324174 2946:1 3462:1 6038:1 6636:1 
530.9668120324174 1138:1 3374:1 4964:1 5258:1 5845:1 8449:1 
530.9668120324174 179:1 227:1 1124:1 1739:1 2019:1 2613:1 2875:1 3597:1 4298:1 4568:1 4837:1 4853:1 4965:1 5390:1 5756:1 5804:1 5950:1 6205:1 6941:1 7494:1 8825:1 8900:1 9019:1 
530.9668120324174 742:1 1098:1 1821:1 3291:1 3406:1 4232:1 6379:1 6791:1 8103:1 8348:1 
530.9668120324174 309:1 2363:1 3406:1 3547:1 5238:1 5761:1 8109:1 8643:1 
530.9668120324174 21:1 142:1 3462:1 
530.9668120324174 999:1 1821:1 1857:1 2334:1 2576:1 2896:1 3406:1 4853:1 4886:1 7267:1 7721:1 8468:1 8562:1 8825:1 
530.9668120324174 2626:1 2679:1 3406:1 3478:1 4000:1 4837:1 5293:1 5390:1 5845:1 7636:1 7697:1 8115:1 9053:1 
530.9668120324174 1240:1 3406:1 5115:1 5292:1 5761:1 6007:1 7721:1 8008:1 8063:1 
530.9668120324174 109:1 9081:1 
530.9668120324174 1118:1 4837:1 5621:1 5639:1 6939:1 7635:1 7721:1 8542:1 
530.9668120324174 854:1 3619:1 4050:1 4754:1 4964:1 5582:1 5845:1 8891:1 8900:1 
73.95985540301625 227:1 758:1 1073:1 2076:1 2459:1 2548:1 2567:1 3188:1 3539:1 3541:1 3547:1 3860:1 4169:1 5243:1 5415:1 5621:1 6917:1 7022:1 8099:1 8830:1 
530.9668120324174 1207:1 2363:1 7145:1 7322:1 8115:1 
530.9668120324174 787:1 3406:1 4837:1 4964:1 5258:1 5293:1 5390:1 7673:1 8441:1 8886:1 
530.9668120324174 30:1 279:1 3406:1 4943:1 5390:1 7721:1 
530.9668120324174 305:1 2050:1 2112:1 2363:1 3138:1 5697:1 8077:1 8825:1 
530.9668120324174 227:1 656:1 1313:1 1443:1 1941:1 2019:1 2374:1 3035:1 3374:1 3406:1 3539:1 3598:1 4304:1 4617:1 4812:1 4837:1 7043:1 7124:1 7742:1 8825:1 
530.9668120324174 653:1 1126:1 1255:1 2220:1 2268:1 2543:1 2771:1 3406:1 3541:1 3551:1 4304:1 4964:1 5206:1 7322:1 7424:1 8830:1 
530.9668120324174 1353:1 1451:1 2175:1 2541:1 2946:1 3001:1 3406:1 3547:1 4050:1 4069:1 4458:1 4837:1 5261:1 5824:1 8924:1 
530.9668120324174 227:1 743:1 949:1 1079:1 2175:1 2459:1 2698:1 3018:1 3541:1 3860:1 4794:1 4964:1 5762:1 6917:1 8063:1 8505:1 
530.9668120324174 1219:1 1670:1 1976:1 2946:1 3406:1 3478:1 3541:1 3848:1 3981:1 4069:1 4545:1 5091:1 5381:1 5845:1 7217:1 7326:1 
97.86286382972197 198:1 1071:1 1151:1 1620:1 1789:1 2400:1 2946:1 3539:1 4162:1 5059:1 5325:1 7340:1 7686:1 7697:1 8063:1 8815:1 
530.9668120324174 315:1 653:1 2771:1 3708:1 5293:1 5411:1 6569:1 
530.9668120324174 1207:1 1350:1 2678:1 3517:1 4162:1 4476:1 4766:1 4837:1 5386:1 7995:1 
530.9668120324174 1014:1 4597:1 5083:1 
530.9668120324174 733:1 1973:1 2618:1 2946:1 3146:1 3539:1 3547:1 4617:1 7340:1 8034:1 8441:1 8825:1 
530.9668120324174 230:1 275:1 804:1 3153:1 4191:1 4837:1 4964:1 7313:1 8155:1 
530.9668120324174 653:1 656:1 2360:1 4731:1 4781:1 
530.9668120324174 33:1 1098:1 2140:1 2771:1 3219:1 3261:1 3336:1 3541:1 3989:1 4000:1 4154:1 4837:1 5309:1 5390:1 5756:1 5819:1 6264:1 6618:1 6941:1 7636:1 7795:1 9053:1 
530.9668120324174 227:1 382:1 743:1 1073:1 1348:1 1821:1 2028:1 2363:1 3539:1 3547:1 4298:1 4837:1 5844:1 5845:1 6636:1 8732:1 
318.3348925551321 2322:1 3539:1 4275:1 4304:1 5912:1 7697:1 7721:1 8168:1 8542:1 8825:1 
530.9668120324174 749:1 4069:1 6488:1 6532:1 7167:1 7340:1 7649:1 8879:1 
530.9668120324174 2771:1 4731:1 
530.9668120324174 89:1 227:1 743:1 2329:1 2337:1 2363:1 2896:1 2932:1 3257:1 3539:1 4050:1 4837:1 5845:1 6264:1 6367:1 6636:1 7467:1 7721:1 
530.9668120324174 2363:1 2946:1 3541:1 3708:1 5572:1 6618:1 7124:1 8821:1 
530.9668120324174 742:1 2321:1 3483:1 4252:1 5255:1 6367:1 8476:1 
530.9668120324174 377:1 2415:1 2548:1 3374:1 3406:1 4119:1 4597:1 4792:1 5091:1 6612:1 7424:1 7636:1 8542:1 8974:1 
530.9668120324174 2518:1 2543:1 5514:1 6636:1 
530.9668120324174 
530.9668120324174 198:1 1620:1 7322:1 8501:1 8815:1 
530.9668120324174 1788:1 3539:1 3637:1 7066:1 7636:1 7721:1 
530.9668120324174 2361:1 2873:1 3406:1 4050:1 4275:1 4586:1 4781:1 5390:1 5639:1 5674:1 5756:1 5845:1 5912:1 6290:1 6941:1 7697:1 7887:1 8825:1 8886:1 8900:1 9053:1 
530.9668120324174 1693:1 3406:1 7937:1 8063:1 
530.9668120324174 198:1 227:1 742:1 2946:1 3406:1 3541:1 3795:1 4050:1 4961:1 5091:1 5922:1 6229:1 6379:1 7092:1 7467:1 8063:1 8571:1 8949:1 
530.9668120324174 1290:1 1515:1 2946:1 3406:1 3539:1 3547:1 5258:1 7467:1 
530.9668120324174 3406:1 3541:1 4069:1 5913:1 
530.9668120324174 1819:1 1921:1 2553:1 2946:1 3547:1 5002:1 5937:1 6044:1 6949:1 7887:1 8825:1 8900:1 
530.9668120324174 301:1 2946:1 3138:1 4050:1 4298:1 5639:1 6573:1 7325:1 
530.9668120324174 266:1 2548:1 3850:1 4020:1 5945:1 8716:1 
530.9668120324174 227:1 398:1 804:1 954:1 2946:1 3152:1 4050:1 4298:1 4943:1 7340:1 7721:1 8346:1 8638:1 8900:1 
530.9668120324174 458:1 653:1 1641:1 2020:1 3406:1 6636:1 7329:1 7467:1 8825:1 9002:1 
530.9668120324174 902:1 1013:1 1392:1 1443:1 1620:1 1653:1 1821:1 2548:1 2896:1 3961:1 4051:1 4701:1 4837:1 5403:1 5876:1 7322:1 7795:1 8199:1 8891:1 
344.4022856321947 1255:1 1562:1 1620:1 1821:1 2073:1 2220:1 2363:1 2706:1 2771:1 2946:1 3406:1 3541:1 4298:1 4687:1 4837:1 5500:1 5913:1 6612:1 7043:1 7721:1 8441:1 9085:1 
530.9668120324174 2268:1 2678:1 2946:1 4230:1 5746:1 8521:1 9016:1 
226.1540755075664 84:1 703:1 1404:1 1973:1 2327:1 2337:1 2471:1 2548:1 2946:1 3541:1 3616:1 3916:1 4966:1 5220:1 5795:1 5949:1 7721:1 8320:1 9053:1 
405.4121669002774 30:1 938:1 1676:1 2139:1 2409:1 2612:1 3539:1 3541:1 3819:1 4837:1 5206:1 5804:1 8825:1 
399.937134654515 804:1 1452:1 3541:1 4069:1 4837:1 4955:1 5845:1 6894:1 8099:1 8414:1 
530.9668120324174 185:1 227:1 2873:1 2875:1 2922:1 2946:1 3406:1 3702:1 4189:1 4206:1 4568:1 5328:1 5390:1 5406:1 5913:1 6392:1 7340:1 8103:1 8156:1 8441:1 8825:1 8900:1 9019:1 
530.9668120324174 653:1 722:1 1149:1 1189:1 1404:1 3406:1 3432:1 3478:1 3659:1 3848:1 4017:1 4812:1 7114:1 8825:1 
530.9668120324174 3668:1 3788:1 
530.9668120324174 2409:1 3406:1 3703:1 
530.9668120324174 438:1 519:1 833:1 1340:1 1793:1 2363:1 2946:1 4050:1 4837:1 6728:1 7215:1 7340:1 7379:1 7721:1 
142.1036049626268 198:1 377:1 1109:1 1404:1 1606:1 1696:1 2155:1 2490:1 2548:1 3181:1 3187:1 3406:1 3432:1 3547:1 4086:1 4234:1 4278:1 4837:1 4853:1 6941:1 7340:1 8562:1 8758:1 
530.9668120324174 315:1 2946:1 3852:1 5166:1 7154:1 
530.9668120324174 1941:1 3406:1 3916:1 7043:1 
530.9668120324174 653:1 742:1 758:1 1273:1 2155:1 2946:1 3270:1 3672:1 4000:1 4228:1 4837:1 5390:1 5845:1 5879:1 6367:1 6488:1 7166:1 7697:1 7721:1 7923:1 8155:1 8156:1 8684:1 8825:1 9069:1 
530.9668120324174 227:1 653:1 1204:1 2720:1 2873:1 2946:1 3541:1 4498:1 4837:1 5971:1 6367:1 6826:1 7721:1 7911:1 8441:1 9029:1 
530.9668120324174 198:1 1014:1 1240:1 2119:1 2459:1 2875:1 2946:1 3220:1 3236:1 3291:1 4024:1 4050:1 4298:1 4516:1 5184:1 5220:1 6488:1 7273:1 7340:1 7800:1 8281:1 
530.9668120324174 227:1 266:1 519:1 653:1 1409:1 1452:1 1821:1 1973:1 2946:1 3406:1 3541:1 3547:1 4050:1 4275:1 5761:1 6618:1 7145:1 8281:1 
530.9668120324174 227:1 2539:1 2748:1 3860:1 4802:1 5405:1 5435:1 6720:1 6926:1 7340:1 7964:1 8895:1 
530.9668120324174 266:1 523:1 2139:1 2395:1 2594:1 2905:1 3256:1 3308:1 3541:1 4079:1 4244:1 4298:1 5063:1 5590:1 5599:1 8825:1 
530.9668120324174 808:1 1340:1 2409:1 2771:1 3406:1 3541:1 3640:1 3920:1 5231:1 5324:1 5845:1 6618:1 7649:1 7721:1 8355:1 8825:1 9055:1 
530.9668120324174 653:1 802:1 4687:1 4837:1 6551:1 7043:1 7721:1 8441:1 
530.9668120324174 1915:1 2632:1 3541:1 4020:1 5666:1 7539:1 
239.6078857274747 109:1 666:1 2363:1 2946:1 3238:1 3541:1 4119:1 4207:1 4837:1 4984:1 6636:1 7043:1 7992:1 8825:1 
530.9668120324174 653:1 3406:1 3639:1 3877:1 3920:1 4007:1 4837:1 6612:1 7721:1 
530.9668120324174 2768:1 2946:1 3539:1 4298:1 4837:1 6194:1 
530.9668120324174 643:1 2363:1 3145:1 3406:1 3916:1 4050:1 5293:1 5390:1 7340:1 7489:1 8115:1 8369:1 8825:1 
530.9668120324174 
530.9668120324174 252:1 653:1 3291:1 3353:1 3406:1 3916:1 4371:1 4837:1 6569:1 6977:1 7467:1 7969:1 
530.9668120324174 198:1 227:1 382:1 1240:1 2678:1 2946:1 3189:1 3374:1 3539:1 3672:1 4522:1 5293:1 5390:1 7389:1 7834:1 9055:1 9085:1 
530.9668120324174 231:1 266:1 1274:1 1368:1 2139:1 2471:1 3406:1 4000:1 4731:1 5206:1 5403:1 7043:1 7399:1 8182:1 8825:1 8830:1 8900:1 
530.9668120324174 105:1 315:1 1360:1 1923:1 2822:1 2873:1 2875:1 3465:1 4119:1 4304:1 4943:1 5091:1 5845:1 7455:1 7638:1 7697:1 7891:1 8145:1 9080:1 
530.9668120324174 227:1 305:1 742:1 804:1 1443:1 2409:1 2459:1 3291:1 3406:1 3436:1 4000:1 4050:1 4330:1 4444:1 6612:1 7721:1 7855:1 7937:1 8328:1 8431:1 
64.84770439967939 266:1 1073:1 2548:1 2809:1 3103:1 3536:1 4812:1 4837:1 7964:1 
530.9668120324174 315:1 1404:1 2946:1 3188:1 3539:1 3652:1 3848:1 4069:1 4298:1 5255:1 5385:1 6080:1 6636:1 7217:1 7322:1 
530.9668120324174 2678:1 3406:1 3541:1 5761:1 7056:1 7937:1 7973:1 
530.9668120324174 2946:1 4298:1 4837:1 8559:1 
85.21838137681893 164:1 227:1 1941:1 2261:1 2601:1 2772:1 3547:1 4020:1 4837:1 4982:1 5863:1 6347:1 6612:1 6703:1 7340:1 7686:1 7697:1 7721:1 7858:1 8517:1 
530.9668120324174 227:1 1008:1 1138:1 1340:1 2140:1 2679:1 3102:1 3406:1 3539:1 3541:1 4837:1 5094:1 5328:1 5390:1 5756:1 6576:1 6674:1 7340:1 7721:1 8825:1 
530.9668120324174 15:1 266:1 333:1 742:1 1769:1 2363:1 2946:1 4275:1 4731:1 4837:1 4982:1 5659:1 6379:1 6467:1 6795:1 7043:1 
530.9668120324174 198:1 261:1 377:1 510:1 1340:1 2620:1 3735:1 4298:1 4837:1 5639:1 5845:1 6290:1 6658:1 7322:1 7686:1 7697:1 7721:1 7799:1 
530.9668120324174 178:1 398:1 407:1 1290:1 2193:1 2363:1 2615:1 3406:1 3547:1 4050:1 4298:1 5824:1 5845:1 7224:1 7581:1 7721:1 8806:1 
530.9668120324174 454:1 666:1 2409:1 3406:1 3465:1 3541:1 3557:1 4162:1 7654:1 8915:1 
530.9668120324174 105:1 2896:1 2946:1 3406:1 4837:1 6098:1 6439:1 7164:1 8103:1 8441:1 8593:1 
530.9668120324174 653:1 2140:1 2946:1 3256:1 3406:1 4069:1 4794:1 4837:1 5226:1 7721:1 8063:1 
530.9668120324174 3517:1 3539:1 4462:1 7721:1 9039:1 
530.9668120324174 227:1 2644:1 3102:1 3541:1 
530.9668120324174 266:1 1073:1 1409:1 2031:1 2548:1 2607:1 2946:1 3545:1 4298:1 7232:1 7906:1 
530.9668120324174 161:1 266:1 316:1 371:1 1204:1 1973:1 2946:1 3406:1 3547:1 3860:1 4731:1 4754:1 5761:1 7217:1 7721:1 8079:1 8441:1 8825:1 
530.9668120324174 2158:1 2626:1 3539:1 3794:1 4306:1 5845:1 8450:1 8475:1 8758:1 8790:1 
530.9668120324174 266:1 1045:1 1340:1 2119:1 2539:1 2579:1 2613:1 2821:1 2946:1 3406:1 3541:1 3916:1 4298:1 4796:1 4837:1 5258:1 5621:1 5639:1 6991:1 7636:1 
530.9668120324174 227:1 661:1 743:1 808:1 1340:1 2946:1 3406:1 3541:1 3547:1 4000:1 4050:1 4705:1 4837:1 4964:1 5258:1 5948:1 6202:1 8004:1 8071:1 8400:1 8423:1 
530.9668120324174 483:1 1240:1 1670:1 2363:1 2678:1 3541:1 4007:1 4275:1 4731:1 7111:1 7208:1 7795:1 8816:1 
530.9668120324174 1821:1 2594:1 2720:1 3483:1 3541:1 5845:1 7721:1 
530.9668120324174 3599:1 6636:1 7721:1 7937:1 
530.9668120324174 49:1 81:1 519:1 653:1 740:1 742:1 2360:1 2946:1 3656:1 3930:1 4000:1 4312:1 5845:1 5856:1 6917:1 7111:1 8441:1 
411.2886796932397 227:1 954:1 1559:1 1620:1 2335:1 2363:1 3336:1 3406:1 3541:1 3680:1 3848:1 4000:1 5845:1 6795:1 7340:1 7467:1 7602:1 7880:1 8063:1 8083:1 8360:1 8665:1 8881:1 
530.9668120324174 3406:1 3432:1 7697:1 7742:1 
530.9668120324174 198:1 266:1 1003:1 1313:1 2106:1 2566:1 3539:1 3547:1 4050:1 4321:1 4617:1 5000:1 7043:1 7649:1 7964:1 8830:1 
530.9668120324174 2173:1 2418:1 4050:1 4837:1 6215:1 7340:1 8810:1 8825:1 
530.9668120324174 742:1 1997:1 2140:1 2896:1 3406:1 3551:1 4000:1 5639:1 5715:1 6574:1 6950:1 8830:1 
530.9668120324174 110:1 519:1 2623:1 2946:1 2956:1 4050:1 
530.9668120324174 
530.9668120324174 740:1 1204:1 2679:1 3406:1 3547:1 4000:1 4629:1 5761:1 7721:1 8138:1 
530.9668120324174 1739:1 1997:1 3066:1 3406:1 6612:1 7795:1 
530.9668120324174 62:1 438:1 674:1 2698:1 2946:1 3406:1 3541:1 3646:1 4568:1 5258:1 6379:1 7467:1 7636:1 8319:1 8441:1 8825:1 9053:1 
530.9668120324174 227:1 558:1 653:1 1340:1 1351:1 2064:1 4298:1 5293:1 5390:1 6818:1 7340:1 7636:1 7941:1 
530.9668120324174 2172:1 2945:1 2946:1 5715:1 7322:1 7340:1 7424:1 7607:1 7697:1 7795:1 
530.9668120324174 3254:1 3406:1 4067:1 4298:1 5639:1 5761:1 6941:1 7322:1 7697:1 7715:1 8441:1 8900:1 
530.9668120324174 109:1 227:1 592:1 728:1 917:1 2073:1 2139:1 2363:1 3016:1 3793:1 4119:1 4402:1 4731:1 
530.9668120324174 552:1 1739:1 2140:1 2158:1 2720:1 2946:1 3539:1 4465:1 4486:1 4837:1 5206:1 6107:1 7322:1 8340:1 8608:1 
530.9668120324174 109:1 653:1 2083:1 2307:1 3291:1 3406:1 3483:1 4371:1 4837:1 6829:1 7322:1 7721:1 7795:1 9085:1 
175.3478580029619 93:1 1021:1 1923:1 2946:1 2966:1 3211:1 3547:1 3860:1 4050:1 4261:1 4298:1 4708:1 4837:1 4943:1 5255:1 5912:1 7340:1 7636:1 8825:1 
127.5064359971654 1014:1 1704:1 2580:1 3406:1 3547:1 7340:1 7636:1 7721:1 8358:1 8684:1 
530.9668120324174 3406:1 3972:1 5390:1 8833:1 
530.9668120324174 50:1 353:1 1670:1 2211:1 2361:1 2678:1 3541:1 4837:1 6941:1 7043:1 
530.9668120324174 749:1 1403:1 1620:1 3539:1 4493:1 6917:1 7394:1 7467:1 7636:1 
254.0749187583376 198:1 377:1 674:1 764:1 1750:1 2363:1 2626:1 3367:1 3406:1 3541:1 3598:1 4275:1 4731:1 4812:1 4837:1 4943:1 5258:1 5390:1 5748:1 7340:1 8305:1 8825:1 
530.9668120324174 1231:1 1304:1 1340:1 3406:1 3744:1 4815:1 4837:1 5258:1 8825:1 
530.9668120324174 109:1 548:1 1941:1 2363:1 3238:1 3539:1 3748:1 4119:1 4837:1 5006:1 5293:1 6619:1 7043:1 7189:1 7322:1 7636:1 
530.9668120324174 84:1 398:1 802:1 1698:1 2256:1 2363:1 3545:1 3744:1 4000:1 4275:1 4837:1 5493:1 7022:1 7043:1 7114:1 7636:1 7671:1 7721:1 8002:1 8479:1 9069:1 
530.9668120324174 1073:1 1240:1 1404:1 2119:1 2335:1 3541:1 4069:1 4964:1 5446:1 5832:1 5950:1 7361:1 8063:1 
530.9668120324174 1502:1 3465:1 4275:1 7340:1 7636:1 8501:1 
530.9668120324174 142:1 696:1 3860:1 7013:1 7043:1 7795:1 
530.9668120324174 1340:1 2592:1 3406:1 3539:1 3685:1 5866:1 7350:1 7636:1 
530.9668120324174 483:1 742:1 1028:1 1340:1 1528:1 1603:1 2140:1 3353:1 3545:1 3877:1 4731:1 4837:1 5063:1 5403:1 5789:1 7043:1 7340:1 7636:1 7973:1 8825:1 
530.9668120324174 1340:1 3406:1 3547:1 4043:1 4964:1 5913:1 7721:1 8830:1 
530.9668120324174 653:1 1973:1 2140:1 2946:1 3539:1 4000:1 5293:1 5390:1 6439:1 7697:1 9053:1 
377.8484034135851 3795:1 4275:1 4330:1 4837:1 5862:1 6686:1 7217:1 7697:1 7721:1 
129.0598419710749 552:1 698:1 1620:1 2271:1 2409:1 3031:1 3406:1 3539:1 4050:1 4162:1 4815:1 5505:1 5914:1 6430:1 7350:1 7638:1 7721:1 8113:1 8226:1 8309:1 8319:1 
530.9668120324174 743:1 3406:1 3517:1 3547:1 4050:1 4069:1 4149:1 5091:1 5390:1 5756:1 
530.9668120324174 266:1 377:1 508:1 519:1 763:1 802:1 2363:1 2409:1 2459:1 2631:1 2771:1 2946:1 3018:1 3406:1 4119:1 4837:1 4982:1 5091:1 5206:1 5708:1 5761:1 5954:1 6081:1 8900:1 
530.9668120324174 2141:1 2303:1 2946:1 8900:1 
530.9668120324174 6686:1 7727:1 
530.9668120324174 792:1 2363:1 8501:1 
530.9668120324174 266:1 377:1 1604:1 1788:1 2119:1 2271:1 2946:1 5808:1 8825:1 8890:1 
530.9668120324174 56:1 105:1 3541:1 4000:1 4298:1 5299:1 6789:1 6826:1 7322:1 8156:1 8501:1 9047:1 
530.9668120324174 2685:1 3040:1 3462:1 5320:1 6894:1 8063:1 8099:1 
530.9668120324174 246:1 6596:1 7721:1 8238:1 
530.9668120324174 2032:1 2576:1 2946:1 3406:1 3539:1 4000:1 4282:1 4601:1 5913:1 7013:1 7340:1 7364:1 7697:1 7795:1 8638:1 
530.9668120324174 743:1 3406:1 4275:1 4601:1 4837:1 5206:1 5761:1 6309:1 7013:1 8281:1 8890:1 
530.9668120324174 76:1 266:1 1620:1 2347:1 2552:1 2788:1 2875:1 3001:1 3547:1 4275:1 4943:1 5206:1 5258:1 5390:1 6636:1 7124:1 7721:1 8281:1 
530.9668120324174 62:1 743:1 869:1 1302:1 4665:1 6268:1 
530.9668120324174 615:1 743:1 752:1 2363:1 3406:1 4050:1 4069:1 4770:1 5290:1 5293:1 7217:1 7995:1 
530.9668120324174 227:1 1470:1 3541:1 
344.2223874533113 1242:1 2363:1 2626:1 2731:1 2946:1 3134:1 3547:1 3794:1 4837:1 7350:1 8465:1 8910:1 
530.9668120324174 227:1 519:1 1848:1 2946:1 3123:1 3374:1 4060:1 4837:1 5775:1 5845:1 6909:1 7340:1 8193:1 8473:1 
530.9668120324174 30:1 742:1 803:1 1006:1 1437:1 2459:1 2543:1 3381:1 3551:1 3855:1 4275:1 4301:1 4837:1 5255:1 6446:1 6488:1 7697:1 7721:1 7795:1 8063:1 8825:1 
510.6121797549067 252:1 296:1 2727:1 2946:1 2993:1 3465:1 3474:1 5293:1 7340:1 7636:1 7721:1 7725:1 7967:1 
530.9668120324174 227:1 3541:1 5411:1 5950:1 
530.9668120324174 1219:1 
530.9668120324174 1222:1 1973:1 2220:1 2327:1 2409:1 2946:1 3406:1 
530.9668120324174 269:1 483:1 743:1 1255:1 1547:1 2344:1 2363:1 2748:1 2946:1 3209:1 3479:1 3545:1 3547:1 4050:1 5258:1 6077:1 7607:1 
530.9668120324174 
411.5565304160519 1226:1 4000:1 6467:1 7174:1 8900:1 
530.9668120324174 743:1 834:1 844:1 1848:1 2548:1 2946:1 3001:1 3011:1 4816:1 6048:1 7154:1 7340:1 8400:1 
530.9668120324174 2946:1 3291:1 4009:1 
530.9668120324174 227:1 742:1 843:1 1313:1 2140:1 2545:1 3406:1 3541:1 4837:1 4896:1 5845:1 7340:1 7847:1 8034:1 8501:1 8825:1 
530.9668120324174 1821:1 3539:1 4837:1 7043:1 7114:1 7326:1 7721:1 8441:1 
530.9668120324174 4050:1 4837:1 8825:1 
530.9668120324174 1220:1 2875:1 4050:1 6743:1 8900:1 
530.9668120324174 227:1 2019:1 3406:1 4444:1 5761:1 7114:1 7217:1 8576:1 8825:1 
530.9668120324174 58:1 3539:1 6835:1 7494:1 7647:1 
167.7455018819543 21:1 429:1 3486:1 3730:1 5268:1 5484:1 9043:1 
530.9668120324174 661:1 742:1 835:1 1821:1 3406:1 3541:1 3547:1 3848:1 4050:1 4875:1 4943:1 5258:1 6225:1 6612:1 
530.9668120324174 188:1 1704:1 2548:1 4162:1 6618:1 
530.9668120324174 15:1 1098:1 2676:1 2785:1 2966:1 3539:1 3547:1 4765:1 6116:1 8825:1 
530.9668120324174 1620:1 3406:1 3541:1 
530.9668120324174 1010:1 1042:1 2363:1 2946:1 4298:1 4746:1 5484:1 5927:1 6290:1 7447:1 
96.22947637608641 1302:1 1973:1 2541:1 2946:1 3547:1 4041:1 4275:1 4846:1 7274:1 8931:1 
530.9668120324174 3543:1 5293:1 5639:1 6636:1 7094:1 
174.3601901166097 1819:1 2553:1 2626:1 3406:1 3547:1 4297:1 5937:1 6044:1 6949:1 8825:1 
530.9668120324174 445:1 471:1 1340:1 2140:1 2946:1 3406:1 5816:1 7340:1 7697:1 8022:1 
530.9668120324174 3632:1 5639:1 6890:1 7067:1 7697:1 8063:1 
530.9668120324174 227:1 679:1 2236:1 3406:1 5258:1 6290:1 6636:1 7467:1 7636:1 
530.9668120324174 120:1 198:1 742:1 749:1 2946:1 3981:1 4000:1 5930:1 6379:1 7022:1 7636:1 7721:1 7995:1 9070:1 
530.9668120324174 2140:1 3078:1 3462:1 4050:1 4298:1 6061:1 8815:1 
530.9668120324174 653:1 1821:1 2072:1 2625:1 4091:1 5403:1 5920:1 8103:1 8156:1 
353.2344069469193 1620:1 2361:1 2873:1 3103:1 3138:1 3406:1 4020:1 4275:1 5411:1 7686:1 8930:1 
530.9668120324174 1332:1 1860:1 2875:1 3010:1 3406:1 3465:1 3547:1 4050:1 4601:1 4837:1 4943:1 5019:1 5390:1 5435:1 5756:1 5761:1 5804:1 5845:1 6574:1 7491:1 7636:1 8591:1 
530.9668120324174 246:1 956:1 3406:1 4000:1 4522:1 5258:1 5639:1 5881:1 6917:1 7697:1 8145:1 8900:1 9000:1 
530.9668120324174 2541:1 3406:1 3829:1 4444:1 4497:1 4540:1 4794:1 7797:1 8063:1 8084:1 8270:1 8579:1 
530.9668120324174 2896:1 8830:1 
530.9668120324174 493:1 787:1 1120:1 2322:1 2347:1 2525:1 2541:1 2946:1 3406:1 4050:1 4731:1 7312:1 7980:1 8825:1 
530.9668120324174 1073:1 1437:1 2543:1 3025:1 3291:1 4336:1 4837:1 5349:1 5954:1 6587:1 7043:1 9070:1 
530.9668120324174 105:1 2083:1 2875:1 2946:1 3545:1 3659:1 4731:1 6098:1 6585:1 
530.9668120324174 552:1 666:1 2363:1 4162:1 8684:1 
530.9668120324174 653:1 742:1 908:1 1620:1 2875:1 3406:1 4091:1 4731:1 4943:1 4982:1 5311:1 5390:1 5403:1 5756:1 6618:1 8898:1 
530.9668120324174 802:1 819:1 2471:1 3406:1 5761:1 7721:1 
530.9668120324174 483:1 743:1 2946:1 4298:1 4476:1 5950:1 
530.9668120324174 782:1 3465:1 3795:1 4275:1 4837:1 7043:1 7673:1 7721:1 8008:1 
530.9668120324174 38:1 185:1 2685:1 2946:1 3270:1 3406:1 3439:1 3541:1 3547:1 4597:1 5390:1 5821:1 5913:1 7697:1 8109:1 8328:1 
530.9668120324174 924:1 1941:1 2380:1 2626:1 3534:1 4261:1 7205:1 7340:1 7484:1 7607:1 7697:1 7974:1 
530.9668120324174 2238:1 
530.9668120324174 5845:1 8348:1 8825:1 
530.9668120324174 2680:1 4275:1 8156:1 
530.9668120324174 227:1 1620:1 3374:1 5130:1 5748:1 7721:1 8476:1 
530.9668120324174 198:1 1348:1 3234:1 4497:1 4781:1 4853:1 5258:1 5493:1 6917:1 6941:1 7636:1 9053:1 
530.9668120324174 68:1 198:1 798:1 1222:1 2946:1 3541:1 4162:1 4865:1 5258:1 5479:1 6105:1 6314:1 6513:1 7717:1 8128:1 8299:1 
530.9668120324174 198:1 615:1 3539:1 5349:1 5639:1 6027:1 6851:1 7322:1 7636:1 8004:1 8441:1 
530.9668120324174 653:1 1092:1 1218:1 2244:1 2548:1 3406:1 3547:1 4837:1 6080:1 6084:1 7721:1 
530.9668120324174 705:1 743:1 749:1 1282:1 2148:1 2363:1 2548:1 2706:1 3455:1 3456:1 3539:1 3547:1 3708:1 4043:1 5258:1 5313:1 6636:1 7636:1 7721:1 8452:1 8895:1 
384.718486899143 315:1 331:1 404:1 519:1 933:1 2119:1 2881:1 2971:1 3539:1 4837:1 5100:1 6395:1 6618:1 7026:1 7636:1 8440:1 8685:1 
530.9668120324174 266:1 382:1 510:1 3406:1 3916:1 4162:1 4275:1 5293:1 5390:1 5411:1 5845:1 5950:1 7043:1 7697:1 7721:1 8758:1 
530.9668120324174 227:1 2459:1 2548:1 3104:1 3374:1 3893:1 4333:1 5005:1 6917:1 7717:1 7721:1 8126:1 
530.9668120324174 653:1 1073:1 2363:1 3090:1 3406:1 3848:1 3916:1 7043:1 7686:1 8184:1 8825:1 8849:1 8960:1 
530.9668120324174 615:1 742:1 1777:1 2158:1 3256:1 8093:1 8156:1 
530.9668120324174 2946:1 6728:1 7022:1 9051:1 
530.9668120324174 227:1 322:1 377:1 691:1 804:1 1915:1 2019:1 2155:1 2374:1 2601:1 3164:1 3539:1 4051:1 5390:1 5756:1 5845:1 6071:1 6367:1 7091:1 7322:1 8109:1 8419:1 
530.9668120324174 2119:1 5878:1 7467:1 
530.9668120324174 266:1 742:1 1603:1 2539:1 2626:1 2946:1 3364:1 3406:1 3702:1 4000:1 4837:1 5639:1 5761:1 5804:1 7358:1 8957:1 
530.9668120324174 3406:1 3541:1 4020:1 4837:1 4943:1 5206:1 5539:1 7014:1 7078:1 7124:1 7467:1 7742:1 8156:1 8369:1 
530.9668120324174 296:1 742:1 1222:1 1267:1 1742:1 2132:1 2363:1 2507:1 2548:1 2896:1 2946:1 3164:1 3512:1 4000:1 4069:1 4837:1 5746:1 5768:1 6291:1 7340:1 7795:1 8109:1 8830:1 
530.9668120324174 742:1 1620:1 2835:1 2844:1 2946:1 3483:1 3547:1 4965:1 5293:1 5845:1 5920:1 6501:1 7340:1 7399:1 7450:1 8823:1 
530.9668120324174 105:1 1340:1 2946:1 3212:1 3238:1 3406:1 3541:1 3702:1 4050:1 4805:1 4837:1 6080:1 7022:1 7664:1 7697:1 8830:1 
530.9668120324174 1189:1 1207:1 1620:1 2318:1 2327:1 2355:1 2363:1 2678:1 3406:1 5514:1 5845:1 6131:1 6890:1 7268:1 7697:1 8542:1 8636:1 8900:1 
530.9668120324174 2237:1 6290:1 6636:1 
530.9668120324174 30:1 808:1 2119:1 2896:1 3406:1 4000:1 4050:1 4380:1 4837:1 5325:1 5390:1 5439:1 5756:1 5845:1 6616:1 6941:1 7937:1 7995:1 8276:1 8369:1 9053:1 
530.9668120324174 3033:1 8666:1 
530.9668120324174 109:1 4731:1 5995:1 7721:1 8441:1 8816:1 
530.9668120324174 743:1 3545:1 3547:1 
530.9668120324174 227:1 382:1 743:1 2922:1 3199:1 3406:1 3541:1 3547:1 3708:1 4428:1 4522:1 5403:1 5761:1 6188:1 7253:1 8825:1 
530.9668120324174 2946:1 5030:1 7951:1 
530.9668120324174 227:1 802:1 1185:1 2047:1 2073:1 3541:1 4837:1 4995:1 5261:1 5293:1 5390:1 7043:1 7322:1 8115:1 9069:1 
530.9668120324174 62:1 1255:1 1620:1 4837:1 4964:1 5566:1 5674:1 5845:1 6732:1 7029:1 7322:1 7340:1 8825:1 
530.9668120324174 56:1 105:1 3541:1 4000:1 4298:1 5299:1 6789:1 6826:1 7322:1 8156:1 8501:1 9047:1 
530.9668120324174 3668:1 
530.9668120324174 62:1 407:1 1544:1 2119:1 2946:1 3860:1 4004:1 4050:1 4522:1 6379:1 7721:1 7792:1 8001:1 8063:1 8441:1 8479:1 9070:1 9087:1 
530.9668120324174 76:1 266:1 2363:1 3406:1 3539:1 3541:1 4069:1 5091:1 5839:1 6289:1 7721:1 8634:1 
378.0063611658244 266:1 421:1 519:1 1728:1 2083:1 2119:1 3855:1 4050:1 4837:1 5411:1 7496:1 7795:1 7869:1 
530.9668120324174 161:1 309:1 721:1 3209:1 3539:1 4298:1 4837:1 6696:1 7023:1 7043:1 7721:1 
330.7563110712081 483:1 1474:1 1941:1 2548:1 2626:1 3547:1 3871:1 4251:1 4292:1 4537:1 5446:1 6512:1 8576:1 
530.9668120324174 742:1 2315:1 2541:1 3547:1 4018:1 4837:1 5325:1 5403:1 7022:1 8562:1 
530.9668120324174 3406:1 3435:1 4807:1 4837:1 5258:1 5913:1 7322:1 7686:1 7937:1 8034:1 8501:1 8825:1 
530.9668120324174 266:1 1098:1 1620:1 2098:1 2548:1 3697:1 4154:1 4601:1 4659:1 4837:1 5261:1 5298:1 5917:1 6618:1 7636:1 7697:1 7721:1 
530.9668120324174 653:1 2875:1 4154:1 4275:1 4493:1 4601:1 4837:1 6081:1 7013:1 7358:1 7636:1 7697:1 8562:1 
530.9668120324174 266:1 674:1 792:1 3539:1 3547:1 4832:1 4982:1 5789:1 6619:1 7721:1 8803:1 8825:1 
530.9668120324174 228:1 2374:1 2541:1 2548:1 3406:1 3547:1 4837:1 6121:1 7043:1 7976:1 8802:1 
530.9668120324174 227:1 653:1 743:1 947:1 3541:1 6290:1 6367:1 7671:1 7797:1 8647:1 
530.9668120324174 519:1 653:1 1848:1 1923:1 3406:1 3539:1 3547:1 4000:1 4050:1 4119:1 4298:1 4568:1 4731:1 4837:1 5206:1 5255:1 5411:1 7265:1 7322:1 8107:1 8401:1 8478:1 9053:1 
530.9668120324174 674:1 816:1 1515:1 2002:1 3539:1 4050:1 4229:1 4837:1 6290:1 7208:1 7686:1 8063:1 
443.842907003811 436:1 742:1 743:1 802:1 816:1 2360:1 2626:1 2896:1 2946:1 3545:1 3547:1 4050:1 4837:1 5912:1 6260:1 6467:1 6977:1 7022:1 7114:1 7402:1 8535:1 8825:1 
530.9668120324174 483:1 1073:1 1094:1 2946:1 3406:1 3547:1 3671:1 4050:1 4298:1 4985:1 5255:1 5290:1 5761:1 5845:1 6921:1 7043:1 7636:1 7838:1 8830:1 
530.9668120324174 1965:1 2946:1 3547:1 4162:1 4298:1 5411:1 7043:1 7995:1 8830:1 
530.9668120324174 227:1 439:1 559:1 875:1 1138:1 1542:1 2119:1 2363:1 2459:1 2678:1 2946:1 4120:1 5845:1 6877:1 7698:1 7980:1 8576:1 8802:1 
530.9668120324174 2235:1 3406:1 3539:1 3777:1 4000:1 4050:1 5099:1 5206:1 5913:1 6260:1 6290:1 7340:1 8559:1 8900:1 
530.9668120324174 322:1 558:1 1922:1 3406:1 4110:1 4704:1 4837:1 7340:1 8949:1 
530.9668120324174 743:1 970:1 2363:1 4568:1 9056:1 
530.9668120324174 1921:1 2361:1 2771:1 3406:1 5639:1 7022:1 7697:1 8001:1 
415.0142199116376 198:1 2623:1 2872:1 2946:1 3123:1 3531:1 3547:1 3976:1 4630:1 4837:1 5258:1 5293:1 5349:1 5978:1 7636:1 9053:1 9069:1 9070:1 
390.5598590490014 172:1 493:1 1853:1 2363:1 3238:1 4020:1 4837:1 5804:1 5845:1 7145:1 8226:1 
530.9668120324174 105:1 266:1 792:1 861:1 1231:1 2083:1 3406:1 3794:1 3853:1 4298:1 4304:1 5929:1 7721:1 8348:1 8825:1 9088:1 
530.9668120324174 1848:1 1923:1 2846:1 3406:1 3860:1 3916:1 4298:1 7043:1 7697:1 8591:1 8900:1 
530.9668120324174 3547:1 4050:1 4433:1 4731:1 6080:1 7043:1 7384:1 7721:1 8328:1 8338:1 
530.9668120324174 105:1 536:1 871:1 1028:1 1207:1 2140:1 2451:1 2873:1 3517:1 3541:1 3545:1 4298:1 4837:1 5386:1 5746:1 5913:1 6618:1 6985:1 7217:1 7823:1 7832:1 8900:1 
530.9668120324174 471:1 1923:1 2139:1 2685:1 2778:1 3541:1 3836:1 4837:1 5206:1 5514:1 6605:1 7013:1 7114:1 7636:1 7697:1 7836:1 8369:1 8900:1 
530.9668120324174 109:1 743:1 1738:1 2541:1 3545:1 4050:1 4518:1 4595:1 8099:1 8248:1 8441:1 8825:1 
530.9668120324174 743:1 2363:1 2541:1 2946:1 3539:1 4332:1 5144:1 8576:1 9044:1 
530.9668120324174 266:1 1340:1 2946:1 3280:1 7340:1 8815:1 
530.9668120324174 3547:1 4853:1 5206:1 6277:1 8348:1 
530.9668120324174 227:1 743:1 1118:1 2363:1 3541:1 3547:1 4000:1 4245:1 4298:1 4522:1 4837:1 5174:1 5641:1 7485:1 7538:1 7721:1 8006:1 8008:1 
530.9668120324174 266:1 2256:1 2409:1 2548:1 3406:1 3541:1 3547:1 3997:1 5740:1 5761:1 6618:1 8825:1 
530.9668120324174 519:1 1739:1 2363:1 3406:1 4522:1 4837:1 5609:1 5746:1 5872:1 6526:1 7697:1 7721:1 8960:1 
530.9668120324174 30:1 1403:1 1620:1 1703:1 1706:1 2570:1 2613:1 3406:1 4837:1 4943:1 5929:1 6917:1 7772:1 7795:1 
530.9668120324174 1620:1 2235:1 6636:1 7000:1 7340:1 
530.9668120324174 501:1 1133:1 1298:1 2363:1 2956:1 3282:1 3323:1 7995:1 
530.9668120324174 
530.9668120324174 266:1 635:1 1240:1 3374:1 4050:1 5845:1 7265:1 
530.9668120324174 1340:1 2875:1 2946:1 3123:1 3406:1 3510:1 3659:1 3964:1 4102:1 4304:1 4701:1 4837:1 4943:1 5258:1 5390:1 5492:1 5845:1 7630:1 7697:1 7763:1 7795:1 8063:1 
530.9668120324174 155:1 653:1 2411:1 2705:1 3968:1 7166:1 7686:1 7697:1 7855:1 8825:1 
530.9668120324174 653:1 802:1 1620:1 1633:1 1923:1 3406:1 3893:1 4069:1 4076:1 4194:1 4837:1 5243:1 5761:1 5845:1 6233:1 6655:1 7721:1 8030:1 8374:1 8532:1 
530.9668120324174 2548:1 3406:1 3563:1 6084:1 6686:1 8866:1 
530.9668120324174 653:1 2042:1 2318:1 2626:1 2714:1 2946:1 2971:1 3107:1 3381:1 3465:1 6799:1 7081:1 7340:1 7636:1 7721:1 8179:1 8441:1 8825:1 8830:1 8949:1 
530.9668120324174 674:1 2019:1 4298:1 6761:1 7546:1 7721:1 
530.9668120324174 1073:1 3860:1 4837:1 7071:1 
530.9668120324174 2175:1 2896:1 2946:1 3406:1 3547:1 4007:1 4298:1 4697:1 4731:1 4837:1 4965:1 6866:1 7340:1 
530.9668120324174 1941:1 3263:1 7043:1 7697:1 
530.9668120324174 227:1 666:1 2896:1 3406:1 4731:1 
530.9668120324174 653:1 1404:1 1797:1 2873:1 2914:1 3547:1 3551:1 4493:1 5361:1 7350:1 7721:1 7772:1 
530.9668120324174 519:1 804:1 2069:1 2083:1 2119:1 2601:1 2641:1 2946:1 3406:1 3545:1 4154:1 4298:1 4522:1 5161:1 5258:1 6071:1 6307:1 7034:1 7340:1 7795:1 7918:1 8295:1 8536:1 8802:1 
530.9668120324174 519:1 4837:1 8109:1 
64.13904327362334 109:1 457:1 666:1 743:1 2363:1 2526:1 2946:1 3406:1 3541:1 3759:1 4214:1 4298:1 4469:1 5761:1 7013:1 
422.7140263724157 227:1 743:1 1739:1 2263:1 2363:1 2896:1 3406:1 3541:1 4000:1 4522:1 4837:1 4943:1 5411:1 5913:1 6003:1 6618:1 7496:1 7721:1 7934:1 8825:1 8881:1 8900:1 
530.9668120324174 3539:1 6290:1 6636:1 6650:1 7590:1 7877:1 
530.9668120324174 2380:1 3291:1 3539:1 4018:1 4837:1 5411:1 6163:1 7697:1 8576:1 
530.9668120324174 866:1 2123:1 3889:1 4812:1 7887:1 8156:1 
530.9668120324174 420:1 747:1 792:1 1156:1 1288:1 1563:1 2140:1 2409:1 2548:1 2946:1 3406:1 3760:1 3916:1 4000:1 4050:1 4837:1 5108:1 6290:1 6879:1 7742:1 7795:1 8125:1 
530.9668120324174 377:1 674:1 817:1 1366:1 2140:1 2177:1 2363:1 3456:1 3659:1 3726:1 5654:1 7322:1 7721:1 8156:1 8476:1 8679:1 8715:1 
530.9668120324174 1977:1 7937:1 
530.9668120324174 1793:1 2119:1 3406:1 5761:1 
530.9668120324174 663:1 742:1 1313:1 2896:1 2946:1 3335:1 3539:1 4617:1 4865:1 6290:1 7149:1 7340:1 7440:1 7892:1 7995:1 
530.9668120324174 202:1 227:1 519:1 1851:1 2020:1 2223:1 2545:1 2720:1 2731:1 2946:1 3406:1 3541:1 4050:1 4154:1 4371:1 4837:1 4964:1 5639:1 6367:1 6464:1 7937:1 8142:1 8559:1 8825:1 
530.9668120324174 2363:1 3406:1 5761:1 6033:1 6618:1 7995:1 
530.9668120324174 382:1 436:1 1008:1 1056:1 1092:1 1290:1 1732:1 1739:1 2915:1 2946:1 3406:1 3551:1 3672:1 4665:1 5139:1 5761:1 5845:1 7022:1 7217:1 7795:1 7799:1 8562:1 
530.9668120324174 144:1 4677:1 
530.9668120324174 105:1 226:1 1267:1 1769:1 2548:1 2946:1 5411:1 6380:1 6618:1 7340:1 7439:1 7721:1 
530.9668120324174 5947:1 8156:1 
530.9668120324174 227:1 653:1 1222:1 2380:1 3406:1 3541:1 3916:1 4731:1 4837:1 5104:1 5243:1 5293:1 5390:1 5950:1 6268:1 6863:1 7697:1 7721:1 8063:1 
186.1117878378957 382:1 743:1 842:1 2047:1 3406:1 4275:1 4390:1 4837:1 5761:1 6618:1 7795:1 8063:1 8156:1 
530.9668120324174 1073:1 1696:1 2119:1 2804:1 3794:1 4041:1 4069:1 4239:1 4275:1 5849:1 8063:1 8073:1 8825:1 
530.9668120324174 1216:1 1602:1 1732:1 2409:1 2946:1 3406:1 3539:1 4050:1 4275:1 5290:1 8431:1 
530.9668120324174 105:1 653:1 816:1 1379:1 1923:1 3406:1 3541:1 3860:1 4626:1 4837:1 5411:1 5438:1 5824:1 5845:1 5913:1 7697:1 7721:1 7772:1 7937:1 7989:1 8441:1 9069:1 
530.9668120324174 2946:1 3541:1 4568:1 4794:1 5255:1 5293:1 7043:1 
530.9668120324174 519:1 1255:1 2140:1 2363:1 7436:1 8576:1 
530.9668120324174 377:1 1497:1 2119:1 2548:1 2873:1 3406:1 4522:1 5411:1 5761:1 
530.9668120324174 198:1 315:1 674:1 2363:1 2946:1 4301:1 4505:1 
530.9668120324174 89:1 653:1 2896:1 3406:1 3539:1 3541:1 3623:1 4000:1 4731:1 4837:1 5091:1 6081:1 8109:1 
530.9668120324174 252:1 604:1 739:1 1670:1 1739:1 1821:1 1921:1 2079:1 2946:1 3038:1 3406:1 3517:1 3539:1 4050:1 4837:1 5005:1 5497:1 6379:1 6380:1 6636:1 7340:1 7721:1 8109:1 8441:1 
530.9668120324174 227:1 2866:1 3291:1 4812:1 6058:1 
530.9668120324174 322:1 653:1 2155:1 2946:1 3406:1 3780:1 5240:1 5761:1 6268:1 7697:1 7721:1 8820:1 
530.9668120324174 1010:1 1667:1 2337:1 2471:1 2678:1 3541:1 4000:1 4781:1 5841:1 6080:1 6941:1 7697:1 7995:1 
530.9668120324174 742:1 875:1 2471:1 2545:1 3018:1 3406:1 3539:1 4050:1 4705:1 4837:1 5761:1 6197:1 6290:1 6304:1 6618:1 7114:1 7322:1 7721:1 8905:1 
530.9668120324174 1098:1 1693:1 2541:1 3089:1 3406:1 3539:1 3547:1 4000:1 4048:1 4837:1 5390:1 5845:1 6016:1 7322:1 7374:1 
530.9668120324174 33:1 653:1 742:1 1204:1 2363:1 2562:1 3406:1 3539:1 4000:1 4050:1 4298:1 5293:1 7697:1 7721:1 8328:1 8503:1 8532:1 8776:1 8900:1 
530.9668120324174 443:1 445:1 
530.9668120324174 227:1 694:1 2139:1 2363:1 2927:1 2946:1 3336:1 3406:1 4020:1 4511:1 4837:1 4878:1 5091:1 5643:1 5652:1 5765:1 6512:1 6618:1 7721:1 
530.9668120324174 40:1 743:1 749:1 1739:1 1751:1 2116:1 2363:1 2946:1 3291:1 3406:1 4000:1 4837:1 5038:1 5159:1 6367:1 7322:1 7721:1 8115:1 8156:1 8593:1 8685:1 
259.0710055741922 638:1 1198:1 1345:1 2409:1 3406:1 6612:1 7099:1 7322:1 8125:1 8815:1 
530.9668120324174 2771:1 3501:1 3637:1 5390:1 5743:1 7322:1 
530.9668120324174 227:1 451:1 2158:1 2299:1 2644:1 3406:1 3541:1 3547:1 4837:1 5258:1 5261:1 5913:1 6838:1 7066:1 7071:1 7340:1 7636:1 7721:1 8320:1 8490:1 
530.9668120324174 3539:1 3541:1 
530.9668120324174 3406:1 3965:1 4731:1 5761:1 6399:1 
530.9668120324174 1068:1 1222:1 1544:1 2409:1 2875:1 4244:1 5002:1 5374:1 5845:1 
530.9668120324174 3374:1 3541:1 4964:1 7385:1 7721:1 8103:1 8358:1 
530.9668120324174 3406:1 6964:1 7697:1 7742:1 7937:1 
530.9668120324174 1409:1 2019:1 2706:1 2946:1 3539:1 3547:1 4050:1 6420:1 6618:1 7358:1 7546:1 8441:1 8825:1 
530.9668120324174 227:1 1292:1 1739:1 2946:1 3291:1 3435:1 3436:1 3541:1 4837:1 4964:1 5358:1 6367:1 7361:1 7673:1 8345:1 
530.9668120324174 3539:1 3920:1 4837:1 7114:1 8542:1 
530.9668120324174 227:1 434:1 1620:1 1756:1 2932:1 3291:1 4050:1 5708:1 7250:1 8614:1 
530.9668120324174 62:1 653:1 743:1 3517:1 4301:1 4837:1 5634:1 7721:1 7797:1 7873:1 8358:1 
530.9668120324174 519:1 804:1 1437:1 2363:1 2548:1 2946:1 3893:1 4275:1 4837:1 5735:1 5845:1 5881:1 7114:1 7636:1 8441:1 
530.9668120324174 4000:1 5626:1 8013:1 
530.9668120324174 4232:1 
530.9668120324174 1973:1 3539:1 4025:1 
530.9668120324174 105:1 264:1 816:1 1409:1 2140:1 2261:1 2363:1 2594:1 2946:1 3272:1 3547:1 4837:1 7340:1 8063:1 8441:1 
530.9668120324174 1033:1 2327:1 2363:1 2946:1 3238:1 3406:1 3547:1 4000:1 4837:1 5845:1 7043:1 7583:1 7636:1 7721:1 
530.9668120324174 246:1 1653:1 2363:1 2700:1 2946:1 3138:1 3406:1 3539:1 3541:1 3545:1 3547:1 3877:1 4050:1 4720:1 4731:1 5325:1 5411:1 7937:1 8369:1 8825:1 8830:1 
530.9668120324174 666:1 816:1 1187:1 2363:1 2946:1 3632:1 4837:1 6000:1 6290:1 6767:1 7068:1 
530.9668120324174 742:1 802:1 2872:1 3066:1 3545:1 4964:1 5735:1 5789:1 5927:1 6278:1 6379:1 6728:1 7043:1 7145:1 7217:1 8825:1 
530.9668120324174 653:1 743:1 1731:1 1739:1 2363:1 2896:1 3017:1 3406:1 3541:1 3545:1 4522:1 4642:1 6612:1 6703:1 7114:1 7721:1 8156:1 9069:1 
530.9668120324174 2089:1 7623:1 
58.11467084447332 1788:1 3406:1 3541:1 3637:1 4050:1 5913:1 7937:1 8063:1 8476:1 8552:1 
169.6218455477344 266:1 483:1 817:1 1738:1 2119:1 2218:1 2364:1 2548:1 2946:1 3349:1 3547:1 3871:1 6048:1 6705:1 8591:1 8825:1 8834:1 
530.9668120324174 1365:1 1620:1 2231:1 2592:1 3406:1 3539:1 3795:1 3848:1 4000:1 4162:1 4982:1 5091:1 5839:1 6636:1 7350:1 7697:1 8533:1 8900:1 
530.9668120324174 421:1 653:1 2020:1 2363:1 2685:1 2782:1 2896:1 3049:1 3102:1 4275:1 4781:1 4837:1 5920:1 6826:1 6941:1 7350:1 7649:1 7721:1 
530.9668120324174 3547:1 8214:1 8328:1 9047:1 
530.9668120324174 227:1 252:1 266:1 548:1 722:1 833:1 2591:1 2700:1 3001:1 3406:1 3513:1 3541:1 4050:1 4601:1 4965:1 5293:1 5390:1 5444:1 5634:1 5803:1 6612:1 6917:1 7649:1 7697:1 8825:1 
530.9668120324174 479:1 540:1 946:1 2848:1 2875:1 2942:1 2946:1 3406:1 3547:1 3659:1 3699:1 5715:1 6618:1 7350:1 7697:1 8899:1 
530.9668120324174 1392:1 2946:1 4298:1 5770:1 7340:1 7626:1 
530.9668120324174 2272:1 
530.9668120324174 519:1 2946:1 3545:1 5126:1 5411:1 5555:1 6081:1 6278:1 7923:1 8559:1 8802:1 8825:1 
530.9668120324174 198:1 742:1 2158:1 2471:1 2946:1 3226:1 3406:1 3478:1 3703:1 4837:1 5390:1 5756:1 5761:1 5876:1 7697:1 
81.54436474422359 15:1 227:1 483:1 743:1 1755:1 1941:1 2548:1 2641:1 2678:1 2946:1 3284:1 4837:1 4939:1 5255:1 5982:1 6390:1 6826:1 6838:1 7043:1 7350:1 8830:1 
530.9668120324174 3545:1 5403:1 5444:1 5762:1 7460:1 
530.9668120324174 802:1 1255:1 1404:1 2139:1 2363:1 2635:1 2946:1 6367:1 7742:1 
530.9668120324174 49:1 1789:1 2337:1 2380:1 2896:1 2943:1 3539:1 3547:1 3860:1 4275:1 5063:1 5325:1 7043:1 8109:1 
297.2847610334725 410:1 1340:1 3406:1 3432:1 3462:1 3860:1 4330:1 4837:1 5374:1 5845:1 6618:1 7340:1 7697:1 8063:1 8684:1 8825:1 8830:1 8922:1 
530.9668120324174 30:1 2896:1 2946:1 2966:1 7697:1 9019:1 
530.9668120324174 227:1 742:1 3539:1 4042:1 4050:1 5746:1 5845:1 8319:1 
530.9668120324174 653:1 743:1 3406:1 3432:1 3632:1 4018:1 4119:1 4837:1 7579:1 7697:1 8103:1 8825:1 
530.9668120324174 653:1 2357:1 2363:1 2946:1 3291:1 3530:1 4837:1 6857:1 7721:1 
530.9668120324174 105:1 2872:1 2946:1 3465:1 3547:1 4000:1 4301:1 4768:1 4837:1 5091:1 5206:1 5845:1 7145:1 7697:1 8469:1 8685:1 
530.9668120324174 2548:1 3291:1 4000:1 4837:1 5666:1 6290:1 6547:1 6599:1 6703:1 8063:1 
530.9668120324174 331:1 743:1 1620:1 2119:1 2361:1 2936:1 2946:1 3406:1 3547:1 4755:1 5893:1 8685:1 
530.9668120324174 1219:1 1426:1 2761:1 3406:1 4832:1 4978:1 5002:1 5258:1 7467:1 7647:1 
530.9668120324174 742:1 1274:1 2019:1 2374:1 2641:1 2946:1 3539:1 4000:1 4837:1 7043:1 7265:1 7721:1 7995:1 
530.9668120324174 1340:1 1620:1 2361:1 3406:1 3541:1 4000:1 4911:1 5390:1 5756:1 6750:1 7283:1 
530.9668120324174 98:1 1915:1 2363:1 2872:1 2946:1 3683:1 4837:1 5503:1 6989:1 7340:1 7795:1 9035:1 9070:1 
530.9668120324174 105:1 471:1 3406:1 3551:1 3659:1 3795:1 4086:1 4244:1 6290:1 6636:1 7697:1 9066:1 
530.9668120324174 805:1 2946:1 4298:1 7014:1 
530.9668120324174 115:1 907:1 1255:1 2363:1 2946:1 3406:1 4837:1 5293:1 5390:1 5460:1 5797:1 
530.9668120324174 2322:1 2626:1 3406:1 3659:1 3678:1 4837:1 6367:1 7697:1 8825:1 
530.9668120324174 198:1 266:1 653:1 656:1 1098:1 1821:1 1915:1 2083:1 2290:1 3406:1 3432:1 3632:1 5362:1 5390:1 7322:1 7721:1 7978:1 8830:1 
530.9668120324174 246:1 742:1 1626:1 1921:1 2679:1 2720:1 3541:1 3547:1 3668:1 4837:1 4982:1 5492:1 6400:1 7885:1 8825:1 8992:1 
530.9668120324174 4330:1 
530.9668120324174 30:1 742:1 743:1 920:1 2626:1 3551:1 4837:1 5804:1 5920:1 6618:1 6826:1 7094:1 7353:1 7697:1 8063:1 8825:1 8900:1 
530.9668120324174 483:1 1108:1 2548:1 2626:1 2946:1 4837:1 5293:1 5390:1 5628:1 7114:1 8115:1 
179.2391398124622 666:1 2496:1 2545:1 3406:1 5479:1 7145:1 8072:1 8167:1 9053:1 
530.9668120324174 266:1 1456:1 1941:1 2139:1 2360:1 3539:1 3547:1 3586:1 5206:1 5666:1 5674:1 7124:1 7359:1 7721:1 8034:1 
530.9668120324174 104:1 743:1 1005:1 1217:1 1698:1 2832:1 4059:1 4435:1 4781:1 5653:1 6435:1 6923:1 6941:1 7450:1 8062:1 
530.9668120324174 57:1 804:1 1321:1 2120:1 2140:1 2541:1 3436:1 3539:1 3708:1 5033:1 6188:1 6880:1 7340:1 7721:1 
530.9668120324174 653:1 2604:1 4050:1 7697:1 
530.9668120324174 227:1 3374:1 
530.9668120324174 89:1 2361:1 2817:1 3138:1 3406:1 7697:1 8145:1 
530.9668120324174 1340:1 1923:1 2896:1 2946:1 3462:1 4154:1 4837:1 5206:1 8179:1 8825:1 
530.9668120324174 743:1 1848:1 1941:1 2119:1 3291:1 3406:1 3760:1 3916:1 4298:1 4837:1 7043:1 8825:1 8830:1 
530.9668120324174 659:1 2073:1 2140:1 4050:1 4837:1 5411:1 7114:1 8441:1 
530.9668120324174 743:1 1340:1 2083:1 2541:1 3406:1 3553:1 4731:1 5158:1 7636:1 7697:1 
413.313063950192 532:1 1861:1 1976:1 2363:1 3406:1 4050:1 4275:1 4837:1 5071:1 5333:1 5913:1 6488:1 7114:1 7217:1 7717:1 7721:1 7973:1 8476:1 
530.9668120324174 96:1 752:1 1360:1 2317:1 2363:1 2678:1 2946:1 2994:1 4162:1 4731:1 5255:1 7322:1 8185:1 
530.9668120324174 1941:1 2155:1 2360:1 2872:1 2924:1 2946:1 3697:1 3811:1 4304:1 4837:1 5107:1 5231:1 5406:1 7340:1 7636:1 7721:1 8900:1 8902:1 9023:1 
58.83959242516148 198:1 659:1 1819:1 2140:1 5063:1 5206:1 5324:1 6956:1 7056:1 8441:1 
530.9668120324174 1564:1 2119:1 4050:1 4557:1 
530.9668120324174 1739:1 2040:1 2140:1 2704:1 4298:1 4837:1 5686:1 5778:1 6574:1 6902:1 8364:1 
530.9668120324174 519:1 1010:1 1777:1 1915:1 2566:1 2635:1 3025:1 3291:1 4275:1 4837:1 6923:1 7721:1 8825:1 
530.9668120324174 1267:1 1732:1 4275:1 6618:1 
530.9668120324174 1821:1 2496:1 2543:1 2974:1 3541:1 3547:1 3551:1 4162:1 4298:1 4601:1 5293:1 5920:1 7043:1 7697:1 7721:1 7973:1 8109:1 9069:1 
530.9668120324174 109:1 189:1 1073:1 1222:1 2548:1 3126:1 4162:1 4943:1 8099:1 
254.4270534035658 674:1 1220:1 1738:1 1787:1 3336:1 3436:1 4020:1 4355:1 5845:1 7143:1 7424:1 
530.9668120324174 653:1 2409:1 3406:1 3539:1 3541:1 3848:1 4050:1 4397:1 4522:1 5206:1 6917:1 8825:1 
530.9668120324174 315:1 657:1 804:1 2119:1 2363:1 2946:1 4130:1 4380:1 5293:1 6636:1 6821:1 6901:1 9085:1 
530.9668120324174 94:1 600:1 2010:1 3211:1 3406:1 3697:1 3897:1 4330:1 5293:1 6750:1 7336:1 7795:1 
530.9668120324174 666:1 848:1 1941:1 2363:1 2946:1 3406:1 3541:1 4000:1 5258:1 5390:1 5862:1 5881:1 7630:1 7806:1 
530.9668120324174 227:1 1731:1 1997:1 2541:1 3406:1 3539:1 3687:1 3785:1 4731:1 5172:1 5258:1 5881:1 6909:1 7636:1 7703:1 8825:1 
530.9668120324174 742:1 1222:1 1821:1 4260:1 5845:1 7439:1 
530.9668120324174 1189:1 1340:1 1739:1 2993:1 3406:1 4050:1 4298:1 4837:1 5057:1 5293:1 5390:1 5403:1 5913:1 6612:1 8072:1 8115:1 
530.9668120324174 106:1 3545:1 4297:1 4298:1 
530.9668120324174 105:1 743:1 1821:1 2380:1 2601:1 2946:1 3547:1 4298:1 4426:1 4837:1 5255:1 6618:1 7326:1 7636:1 7721:1 8338:1 8348:1 8825:1 
530.9668120324174 1240:1 1313:1 2976:1 4050:1 4069:1 6048:1 7838:1 8063:1 8815:1 8825:1 
530.9668120324174 94:1 607:1 2159:1 2784:1 3406:1 4626:1 4841:1 5390:1 6583:1 
530.9668120324174 3406:1 3913:1 6917:1 8758:1 
530.9668120324174 246:1 1220:1 1923:1 2360:1 3270:1 3406:1 3478:1 4000:1 4546:1 4568:1 4837:1 5390:1 5761:1 5804:1 5845:1 5913:1 6941:1 7013:1 8189:1 
270.2436009490229 315:1 377:1 653:1 742:1 1098:1 1204:1 1915:1 2459:1 2939:1 3164:1 3271:1 3644:1 3708:1 7326:1 7721:1 7806:1 8419:1 8441:1 8684:1 
530.9668120324174 105:1 2771:1 2863:1 3406:1 4275:1 7686:1 7721:1 8431:1 
530.9668120324174 2594:1 3141:1 7795:1 
530.9668120324174 2363:1 4050:1 5374:1 
530.9668120324174 108:1 743:1 1368:1 3406:1 4050:1 4943:1 7636:1 7684:1 7697:1 7742:1 8900:1 9053:1 
530.9668120324174 1670:1 1696:1 2155:1 7340:1 8501:1 
530.9668120324174 2604:1 3374:1 3860:1 4069:1 4812:1 5639:1 
530.9668120324174 105:1 252:1 848:1 1403:1 2548:1 3406:1 3465:1 3635:1 3916:1 4000:1 4136:1 4298:1 4964:1 5313:1 5423:1 5761:1 6355:1 6519:1 7128:1 7322:1 7399:1 8825:1 
530.9668120324174 161:1 185:1 305:1 742:1 1138:1 1222:1 1255:1 1997:1 2140:1 2175:1 2230:1 2409:1 2771:1 3406:1 3541:1 4000:1 4050:1 4731:1 4964:1 5091:1 5390:1 6519:1 7721:1 8109:1 
530.9668120324174 377:1 674:1 1477:1 2946:1 3593:1 4298:1 4837:1 5206:1 5357:1 5386:1 6592:1 7777:1 8485:1 
344.0070886129206 227:1 2946:1 3406:1 3539:1 4017:1 4298:1 4943:1 5243:1 5874:1 6323:1 6626:1 7302:1 7721:1 7830:1 8695:1 8914:1 
530.9668120324174 653:1 1231:1 2700:1 2771:1 3270:1 3320:1 3406:1 3517:1 3541:1 4018:1 4119:1 4257:1 4304:1 4571:1 4943:1 5390:1 6941:1 7697:1 
530.9668120324174 227:1 1450:1 2644:1 2943:1 2946:1 3138:1 3355:1 3541:1 4837:1 5137:1 5324:1 7721:1 8008:1 8034:1 8358:1 
530.9668120324174 1782:1 1885:1 2626:1 3406:1 3462:1 3656:1 7022:1 7322:1 
530.9668120324174 109:1 407:1 743:1 792:1 1207:1 1340:1 2337:1 2625:1 3406:1 3547:1 4050:1 4557:1 4943:1 6133:1 7772:1 7973:1 8747:1 
456.3681059607795 2056:1 2946:1 3126:1 3406:1 3728:1 3795:1 4050:1 4298:1 4304:1 4837:1 4943:1 4983:1 5091:1 5390:1 5912:1 5948:1 6795:1 7265:1 7358:1 
530.9668120324174 7995:1 
530.9668120324174 319:1 2771:1 3406:1 3539:1 3860:1 6488:1 7152:1 
530.9668120324174 438:1 2221:1 2896:1 3541:1 3545:1 3785:1 4050:1 5411:1 7320:1 7322:1 7539:1 8034:1 
530.9668120324174 4837:1 5804:1 6290:1 7721:1 8900:1 
530.9668120324174 1340:1 5845:1 7795:1 
530.9668120324174 1064:1 2536:1 3539:1 4050:1 4067:1 4229:1 4298:1 5872:1 6053:1 6367:1 6835:1 7427:1 7673:1 8010:1 8156:1 8597:1 
530.9668120324174 666:1 743:1 1620:1 2361:1 2543:1 3406:1 4322:1 
228.199529723249 377:1 674:1 1139:1 1528:1 2327:1 2363:1 2374:1 2678:1 2946:1 3715:1 4008:1 4050:1 4667:1 5241:1 5258:1 5411:1 5682:1 5777:1 5778:1 5930:1 6432:1 7340:1 7424:1 7587:1 7649:1 8825:1 
183.1557722674484 1426:1 2761:1 3547:1 3920:1 5002:1 5937:1 6949:1 7561:1 7649:1 
530.9668120324174 198:1 315:1 675:1 1137:1 1313:1 2139:1 2363:1 2868:1 2946:1 3547:1 3843:1 4298:1 5038:1 5411:1 6070:1 6188:1 7475:1 7638:1 8685:1 
530.9668120324174 198:1 742:1 1739:1 2896:1 3291:1 3406:1 4837:1 4896:1 5386:1 7124:1 8830:1 
530.9668120324174 6290:1 6367:1 7013:1 7636:1 7697:1 8900:1 
530.9668120324174 816:1 2261:1 2582:1 2872:1 2946:1 2948:1 3406:1 4050:1 4298:1 4964:1 5584:1 5980:1 6290:1 6914:1 7957:1 8099:1 8415:1 8864:1 
530.9668120324174 1664:1 1935:1 5491:1 8905:1 
530.9668120324174 227:1 1072:1 1197:1 1693:1 2166:1 3406:1 3541:1 4000:1 4050:1 4407:1 4864:1 4943:1 5091:1 6367:1 
530.9668120324174 149:1 198:1 438:1 742:1 1340:1 2072:1 2953:1 3547:1 4069:1 4298:1 4837:1 5476:1 6488:1 7636:1 7664:1 7671:1 7686:1 8010:1 
530.9668120324174 325:1 7697:1 7887:1 8145:1 
530.9668120324174 109:1 2119:1 2946:1 3860:1 4149:1 4943:1 5390:1 6244:1 6938:1 7721:1 8063:1 
530.9668120324174 2363:1 3296:1 4050:1 8960:1 
530.9668120324174 227:1 230:1 519:1 742:1 743:1 1138:1 1728:1 2139:1 2896:1 3541:1 3944:1 4768:1 4837:1 5845:1 6367:1 6553:1 6762:1 8223:1 
530.9668120324174 266:1 1620:1 2543:1 4601:1 7636:1 7697:1 
530.9668120324174 653:1 3492:1 4361:1 5716:1 7721:1 
404.977848682622 227:1 1620:1 3541:1 4568:1 5206:1 6347:1 7052:1 7331:1 8063:1 8576:1 8825:1 
530.9668120324174 1905:1 8591:1 8977:1 
530.9668120324174 1451:1 1821:1 2220:1 3539:1 3547:1 4746:1 5939:1 6612:1 7145:1 
530.9668120324174 227:1 2946:1 3103:1 3341:1 
530.9668120324174 198:1 227:1 546:1 1098:1 1941:1 2361:1 2363:1 3406:1 3453:1 5349:1 5621:1 6569:1 8825:1 9087:1 
530.9668120324174 2669:1 5503:1 6941:1 7697:1 8900:1 9070:1 
530.9668120324174 749:1 1821:1 4837:1 4964:1 5403:1 6636:1 7697:1 8900:1 
530.9668120324174 21:1 434:1 653:1 804:1 1560:1 1923:1 2337:1 3138:1 3406:1 3541:1 3547:1 3550:1 3551:1 4050:1 4275:1 5845:1 5913:1 6174:1 7043:1 7092:1 7721:1 7973:1 8001:1 8034:1 8155:1 8441:1 
530.9668120324174 743:1 802:1 987:1 2112:1 2946:1 6336:1 7491:1 8825:1 
530.9668120324174 227:1 742:1 2019:1 2158:1 2566:1 3469:1 3541:1 5444:1 7491:1 8575:1 8825:1 9069:1 
530.9668120324174 1220:1 
215.5784266788052 1655:1 2363:1 3541:1 4275:1 4731:1 4837:1 5962:1 7043:1 7554:1 7697:1 8562:1 
530.9668120324174 266:1 3406:1 5293:1 5439:1 6941:1 7636:1 
530.9668120324174 198:1 227:1 1073:1 2626:1 3406:1 3541:1 4020:1 4837:1 5136:1 5411:1 6750:1 7533:1 7721:1 7846:1 8441:1 8683:1 
530.9668120324174 2634:1 4299:1 4597:1 7392:1 7418:1 7763:1 
181.0750793197277 202:1 743:1 1267:1 1409:1 2946:1 3374:1 3406:1 3413:1 3541:1 3671:1 4081:1 4837:1 4943:1 5258:1 5293:1 5324:1 5845:1 6618:1 6636:1 6988:1 8457:1 8593:1 8825:1 
530.9668120324174 4275:1 4837:1 9053:1 
530.9668120324174 266:1 4451:1 4732:1 4837:1 7114:1 8825:1 
530.9668120324174 743:1 861:1 2946:1 3541:1 4074:1 4298:1 7043:1 7157:1 7340:1 7686:1 8562:1 8610:1 
530.9668120324174 296:1 1739:1 2380:1 2555:1 3406:1 5100:1 5219:1 7496:1 7721:1 7795:1 8825:1 
530.9668120324174 1058:1 2112:1 2363:1 2548:1 3539:1 3952:1 5063:1 7043:1 8640:1 
530.9668120324174 988:1 1300:1 3138:1 3220:1 3547:1 7686:1 
530.9668120324174 2138:1 3462:1 6367:1 
289.1414108248374 424:1 2363:1 3078:1 4965:1 6618:1 6977:1 7937:1 8542:1 
530.9668120324174 763:1 1207:1 2946:1 4298:1 5061:1 6116:1 8115:1 8337:1 
530.9668120324174 2946:1 3406:1 3730:1 4837:1 5268:1 5761:1 7114:1 
530.9668120324174 1204:1 2543:1 2778:1 4812:1 6126:1 7043:1 7322:1 8156:1 8830:1 
530.9668120324174 3336:1 4304:1 4716:1 4961:1 5845:1 
530.9668120324174 2548:1 2946:1 3961:1 5503:1 7043:1 7498:1 8830:1 
530.9668120324174 266:1 1078:1 1821:1 2112:1 2541:1 2644:1 3406:1 3877:1 4162:1 4285:1 4596:1 6263:1 7043:1 7697:1 7721:1 8006:1 8825:1 
121.7758399960862 1170:1 1693:1 2155:1 2678:1 2927:1 2946:1 3240:1 3406:1 4022:1 4812:1 4837:1 5094:1 5498:1 5845:1 6296:1 6587:1 7043:1 7721:1 8830:1 
530.9668120324174 303:1 763:1 1738:1 2548:1 3545:1 3708:1 4428:1 4995:1 5300:1 8010:1 
372.9785121211467 198:1 246:1 436:1 819:1 2644:1 4837:1 7070:1 7721:1 
530.9668120324174 424:1 742:1 925:1 1941:1 2140:1 2541:1 2946:1 3406:1 3547:1 4837:1 5374:1 5761:1 6033:1 6290:1 6348:1 6359:1 6618:1 6923:1 7114:1 7568:1 8900:1 
530.9668120324174 666:1 1068:1 2363:1 2946:1 4601:1 8149:1 
530.9668120324174 129:1 483:1 526:1 875:1 2140:1 2548:1 2674:1 2946:1 3406:1 3539:1 3547:1 4298:1 4837:1 7114:1 7467:1 7539:1 7772:1 8248:1 8758:1 
530.9668120324174 315:1 1292:1 2175:1 2545:1 3462:1 4162:1 4667:1 6909:1 7437:1 8099:1 8109:1 
530.9668120324174 89:1 987:1 1204:1 2032:1 2771:1 3406:1 3435:1 3541:1 4000:1 4731:1 4837:1 5198:1 5258:1 5390:1 5531:1 6612:1 7092:1 7340:1 7630:1 7636:1 7697:1 7772:1 7887:1 8126:1 8145:1 
530.9668120324174 1:1 2536:1 2708:1 2946:1 3547:1 4258:1 5917:1 7721:1 
530.9668120324174 1220:1 4000:1 4696:1 6728:1 7636:1 8900:1 
530.9668120324174 2360:1 2700:1 
530.9668120324174 4837:1 5358:1 7114:1 
530.9668120324174 3406:1 5761:1 7565:1 
530.9668120324174 2158:1 2198:1 2626:1 3406:1 3916:1 7697:1 8825:1 
122.9618426808549 661:1 1039:1 1222:1 1755:1 3547:1 3860:1 4120:1 7647:1 7697:1 
530.9668120324174 305:1 377:1 519:1 1821:1 1915:1 3221:1 3406:1 3539:1 3582:1 4050:1 4608:1 4680:1 4754:1 4837:1 5063:1 6038:1 6281:1 6909:1 7671:1 7721:1 7795:1 8109:1 8369:1 8441:1 8935:1 
530.9668120324174 2469:1 3406:1 4050:1 4275:1 4731:1 4943:1 5761:1 6541:1 6632:1 6909:1 8156:1 8825:1 
530.9668120324174 315:1 407:1 1340:1 1698:1 2337:1 2459:1 2946:1 2993:1 3104:1 3449:1 3541:1 3708:1 5349:1 5872:1 5923:1 7340:1 7686:1 8062:1 8830:1 
530.9668120324174 315:1 471:1 1091:1 2050:1 2158:1 3913:1 4731:1 5293:1 5390:1 5633:1 7043:1 7673:1 7721:1 8369:1 8542:1 8674:1 8825:1 
530.9668120324174 2337:1 3539:1 4275:1 
530.9668120324174 266:1 2679:1 3539:1 3730:1 3744:1 4746:1 
530.9668120324174 722:1 742:1 846:1 1340:1 1728:1 2020:1 3374:1 3406:1 3539:1 3916:1 4000:1 4050:1 4275:1 4522:1 5046:1 5439:1 5845:1 6439:1 7455:1 7636:1 7973:1 8501:1 8559:1 
530.9668120324174 742:1 2031:1 2592:1 2946:1 3282:1 4731:1 4837:1 5349:1 5435:1 5620:1 7043:1 7052:1 7721:1 7995:1 
530.9668120324174 1255:1 2344:1 2541:1 3406:1 4000:1 4837:1 5005:1 7114:1 7322:1 
530.9668120324174 266:1 377:1 1620:1 2946:1 3013:1 3191:1 3406:1 3436:1 3547:1 3593:1 4050:1 5357:1 5390:1 5411:1 5756:1 7322:1 7986:1 
530.9668120324174 266:1 382:1 1731:1 2158:1 3261:1 3406:1 4050:1 4298:1 4731:1 5057:1 5390:1 5756:1 5761:1 7183:1 7217:1 7721:1 8732:1 8825:1 9053:1 
530.9668120324174 
530.9668120324174 119:1 2548:1 3406:1 4069:1 4101:1 6290:1 
530.9668120324174 752:1 1098:1 1404:1 3545:1 5403:1 5505:1 7638:1 
530.9668120324174 483:1 653:1 2872:1 3848:1 4017:1 4812:1 5390:1 5403:1 7697:1 7887:1 8833:1 
530.9668120324174 3406:1 4275:1 4298:1 4982:1 5091:1 5198:1 6917:1 7686:1 7778:1 8156:1 
124.4416436804573 227:1 471:1 1821:1 2158:1 2875:1 2896:1 2946:1 3541:1 3551:1 3637:1 3990:1 4731:1 4837:1 5353:1 5411:1 5913:1 6618:1 6795:1 7043:1 7340:1 8025:1 8529:1 
530.9668120324174 266:1 919:1 3152:1 3406:1 4050:1 5403:1 5761:1 6941:1 7285:1 8779:1 
530.9668120324174 1653:1 2140:1 2731:1 5341:1 7340:1 
530.9668120324174 81:1 1727:1 1923:1 2875:1 4601:1 4837:1 5971:1 6367:1 6467:1 7114:1 7340:1 7697:1 8210:1 8900:1 8924:1 
530.9668120324174 742:1 1340:1 2363:1 2543:1 2626:1 3059:1 3364:1 3406:1 4837:1 4982:1 5293:1 5390:1 5639:1 6128:1 6481:1 6900:1 7697:1 7721:1 
530.9668120324174 84:1 817:1 2548:1 3776:1 7389:1 
530.9668120324174 129:1 1057:1 1292:1 1496:1 1620:1 2518:1 2946:1 3406:1 4961:1 5845:1 6444:1 6533:1 6618:1 7697:1 7721:1 7980:1 8045:1 8090:1 8210:1 8815:1 8900:1 
530.9668120324174 266:1 2946:1 3336:1 3406:1 4964:1 5293:1 6618:1 6941:1 8149:1 
530.9668120324174 62:1 129:1 3282:1 3406:1 4943:1 6372:1 6910:1 7385:1 7721:1 8358:1 
530.9668120324174 1180:1 3013:1 3811:1 4000:1 4291:1 5206:1 6044:1 6080:1 7697:1 8441:1 8900:1 
530.9668120324174 519:1 749:1 1207:1 2155:1 2946:1 5845:1 6379:1 7011:1 7340:1 7697:1 8342:1 
530.9668120324174 30:1 1670:1 3406:1 3541:1 4731:1 4943:1 6141:1 6367:1 7043:1 7636:1 
530.9668120324174 802:1 1255:1 2083:1 3539:1 5845:1 7209:1 7742:1 8099:1 8276:1 8382:1 
530.9668120324174 
530.9668120324174 902:1 1340:1 1620:1 2155:1 2548:1 3406:1 3513:1 4069:1 4837:1 4964:1 5091:1 6636:1 7526:1 7636:1 7721:1 8518:1 8825:1 9053:1 
530.9668120324174 429:1 2119:1 2459:1 3547:1 4000:1 4433:1 4760:1 7636:1 8729:1 
530.9668120324174 266:1 2140:1 6751:1 8199:1 
530.9668120324174 102:1 501:1 1020:1 1255:1 1620:1 2796:1 2904:1 3708:1 3913:1 4422:1 4735:1 4968:1 6188:1 7636:1 8193:1 8825:1 
530.9668120324174 21:1 742:1 1313:1 1976:1 4837:1 4896:1 5411:1 6467:1 6844:1 7503:1 8034:1 
530.9668120324174 1073:1 1255:1 1403:1 4837:1 5231:1 5293:1 5390:1 7043:1 7114:1 8115:1 
530.9668120324174 1368:1 1727:1 1838:1 2541:1 3336:1 3406:1 3748:1 4964:1 5357:1 5390:1 5756:1 5845:1 5975:1 6636:1 7467:1 7671:1 8466:1 
530.9668120324174 671:1 2922:1 4837:1 5497:1 7013:1 7124:1 7636:1 9053:1 
530.9668120324174 315:1 407:1 743:1 827:1 1517:1 1997:1 2698:1 2946:1 3406:1 4050:1 4162:1 4341:1 5258:1 5495:1 5761:1 5845:1 5913:1 6894:1 7283:1 7340:1 7721:1 8281:1 8431:1 8825:1 
530.9668120324174 742:1 928:1 1340:1 3541:1 3997:1 4731:1 5982:1 7697:1 8576:1 8825:1 
530.9668120324174 15:1 266:1 478:1 1670:1 2946:1 3406:1 5183:1 6011:1 8281:1 8825:1 
530.9668120324174 666:1 1068:1 2363:1 2946:1 4601:1 8149:1 
530.9668120324174 2626:1 4050:1 6080:1 7022:1 7697:1 8246:1 
530.9668120324174 188:1 362:1 666:1 1529:1 1739:1 2363:1 2946:1 3545:1 4000:1 4050:1 4298:1 4818:1 4837:1 5190:1 5493:1 6612:1 7614:1 8281:1 
530.9668120324174 1915:1 2136:1 3291:1 3320:1 3406:1 3708:1 4050:1 4298:1 5708:1 7217:1 7636:1 7649:1 7671:1 
530.9668120324174 198:1 742:1 1403:1 1620:1 2409:1 2425:1 2601:1 2771:1 3406:1 3541:1 3545:1 3968:1 4298:1 4837:1 5403:1 5845:1 6080:1 6290:1 7114:1 7636:1 7697:1 7973:1 8063:1 8246:1 8282:1 9053:1 
530.9668120324174 653:1 763:1 902:1 1821:1 2543:1 3541:1 4275:1 4837:1 5166:1 6851:1 8441:1 8591:1 8825:1 
530.9668120324174 266:1 438:1 833:1 1451:1 2140:1 2974:1 3374:1 3406:1 3539:1 3547:1 4304:1 4371:1 4815:1 4965:1 5668:1 5913:1 6367:1 6618:1 7043:1 7887:1 
530.9668120324174 161:1 227:1 2211:1 2519:1 2946:1 3374:1 4119:1 6260:1 8063:1 8900:1 
530.9668120324174 185:1 2136:1 3541:1 5258:1 5390:1 7721:1 7973:1 9053:1 
530.9668120324174 4226:1 5715:1 6636:1 7183:1 7697:1 8441:1 
530.9668120324174 315:1 1926:1 2467:1 2678:1 2703:1 2946:1 3759:1 7043:1 8476:1 8825:1 
530.9668120324174 327:1 1220:1 3406:1 3539:1 3785:1 4000:1 4069:1 4483:1 6488:1 7195:1 8392:1 
530.9668120324174 742:1 1638:1 1773:1 2361:1 2363:1 2545:1 3025:1 3406:1 3547:1 3551:1 4418:1 6500:1 6703:1 6923:1 9069:1 
530.9668120324174 30:1 1403:1 1653:1 3291:1 3406:1 4122:1 4506:1 4837:1 5390:1 5756:1 7467:1 8597:1 8825:1 
530.9668120324174 1255:1 1620:1 1773:1 2140:1 2946:1 3406:1 3551:1 3916:1 4486:1 7083:1 7322:1 7697:1 
530.9668120324174 407:1 615:1 804:1 1363:1 2959:1 3406:1 3586:1 3842:1 4180:1 5100:1 5390:1 5756:1 5845:1 7467:1 7636:1 7697:1 7814:1 8825:1 
530.9668120324174 1976:1 2363:1 2459:1 3406:1 4050:1 4298:1 4837:1 5171:1 5245:1 5398:1 6105:1 6290:1 6379:1 6481:1 7586:1 7717:1 7957:1 8099:1 9069:1 
530.9668120324174 198:1 742:1 2548:1 3547:1 4345:1 4539:1 4965:1 6053:1 7425:1 7721:1 8034:1 8441:1 8907:1 
530.9668120324174 2363:1 2471:1 3712:1 4493:1 4731:1 5063:1 5176:1 5293:1 7636:1 7697:1 7795:1 8216:1 8542:1 
530.9668120324174 615:1 653:1 743:1 1132:1 1659:1 1739:1 1869:1 2083:1 2363:1 2946:1 3406:1 3539:1 3668:1 4069:1 5028:1 7322:1 7721:1 7855:1 8688:1 8765:1 8825:1 
530.9668120324174 101:1 296:1 670:1 726:1 1452:1 1620:1 2749:1 2946:1 3212:1 3406:1 3541:1 4548:1 4837:1 6893:1 6941:1 7271:1 7340:1 7650:1 8317:1 
530.9668120324174 1047:1 1207:1 3406:1 3545:1 5703:1 5716:1 5935:1 7043:1 8115:1 
530.9668120324174 227:1 752:1 1204:1 3406:1 3541:1 4154:1 5411:1 7322:1 7340:1 
530.9668120324174 653:1 1923:1 3340:1 3406:1 4837:1 4911:1 5390:1 5632:1 5756:1 5803:1 7686:1 8246:1 
530.9668120324174 227:1 315:1 501:1 2363:1 6917:1 7066:1 7697:1 
113.6966653216764 1670:1 2896:1 2946:1 3406:1 3539:1 3547:1 3659:1 3916:1 4007:1 4719:1 4943:1 5912:1 6284:1 6367:1 6832:1 6943:1 6955:1 7043:1 7495:1 7697:1 7721:1 7909:1 8581:1 8861:1 
530.9668120324174 471:1 653:1 1941:1 3406:1 3848:1 4007:1 5406:1 6367:1 7043:1 7340:1 7721:1 
530.9668120324174 1255:1 2073:1 2545:1 2720:1 2946:1 7043:1 8063:1 
530.9668120324174 471:1 792:1 1739:1 1773:1 1923:1 2363:1 3374:1 3406:1 3539:1 4298:1 4493:1 4665:1 4812:1 4837:1 5666:1 5845:1 6284:1 6727:1 7124:1 7265:1 7721:1 
530.9668120324174 2409:1 2946:1 3406:1 4837:1 7094:1 7636:1 8063:1 8593:1 8815:1 
530.9668120324174 956:1 1220:1 2047:1 2139:1 2140:1 2290:1 3993:1 4153:1 5255:1 5258:1 5390:1 5845:1 6379:1 7340:1 7343:1 7721:1 7741:1 8823:1 
530.9668120324174 742:1 937:1 2548:1 3541:1 4298:1 4617:1 5258:1 5390:1 5756:1 6084:1 7636:1 7937:1 7996:1 8034:1 8060:1 
530.9668120324174 1923:1 3406:1 3541:1 4017:1 5868:1 7636:1 8156:1 
530.9668120324174 674:1 763:1 2047:1 4731:1 5005:1 5881:1 6909:1 7697:1 
530.9668120324174 519:1 1169:1 2622:1 4298:1 4837:1 5064:1 5955:1 6390:1 7114:1 7322:1 7906:1 8825:1 9070:1 
530.9668120324174 438:1 742:1 1255:1 2545:1 2771:1 3539:1 3541:1 3547:1 3860:1 4022:1 4746:1 7043:1 8830:1 
530.9668120324174 4061:1 5005:1 5305:1 7358:1 7491:1 7795:1 8109:1 8825:1 
530.9668120324174 954:1 1739:1 2363:1 2946:1 3406:1 3547:1 3551:1 4522:1 5761:1 7351:1 7697:1 8441:1 
75.4039832427212 198:1 1965:1 2635:1 2946:1 3059:1 3239:1 5746:1 6917:1 7340:1 7721:1 8361:1 
530.9668120324174 3406:1 3547:1 3632:1 4682:1 7340:1 7697:1 8063:1 8161:1 8236:1 8501:1 8866:1 
530.9668120324174 2566:1 3547:1 5411:1 8257:1 8802:1 
530.9668120324174 817:1 928:1 2459:1 2541:1 2736:1 2946:1 3547:1 4298:1 4837:1 5069:1 5411:1 5887:1 6087:1 7043:1 
530.9668120324174 1882:1 2083:1 2543:1 2927:1 2946:1 3016:1 4298:1 4837:1 5255:1 6736:1 7043:1 7424:1 8964:1 
530.9668120324174 320:1 742:1 1923:1 2528:1 2541:1 2610:1 3078:1 3138:1 3140:1 3435:1 3541:1 4000:1 4162:1 4777:1 4837:1 5845:1 6367:1 7322:1 
530.9668120324174 198:1 1008:1 1028:1 2543:1 3406:1 3547:1 5258:1 5277:1 5761:1 6290:1 6308:1 6467:1 6618:1 6793:1 
159.4456943985095 3046:1 3406:1 4781:1 4943:1 5913:1 6367:1 7880:1 8063:1 
530.9668120324174 742:1 2594:1 2679:1 3406:1 3916:1 4837:1 7496:1 
403.5426389539255 2374:1 2946:1 3189:1 3406:1 3530:1 4025:1 4050:1 4298:1 4964:1 5057:1 5258:1 5490:1 7322:1 8156:1 
530.9668120324174 483:1 674:1 742:1 1933:1 2363:1 2896:1 2946:1 3406:1 3547:1 3551:1 3916:1 4000:1 4244:1 4837:1 4982:1 5383:1 5715:1 5761:1 5881:1 6110:1 7636:1 7697:1 7721:1 8034:1 
530.9668120324174 2158:1 3291:1 3568:1 4298:1 4943:1 5206:1 5390:1 5756:1 6795:1 7721:1 7795:1 8236:1 8662:1 8801:1 8825:1 
530.9668120324174 198:1 8728:1 8825:1 
530.9668120324174 1215:1 1300:1 3539:1 5300:1 5912:1 7322:1 8743:1 
530.9668120324174 1468:1 2946:1 4051:1 4298:1 4522:1 5845:1 6522:1 7340:1 8825:1 
530.9668120324174 227:1 2083:1 2119:1 2360:1 2595:1 2946:1 3541:1 3547:1 3860:1 4837:1 5269:1 5697:1 7043:1 7491:1 
530.9668120324174 196:1 1073:1 1340:1 1437:1 2543:1 2618:1 3291:1 3547:1 4050:1 4837:1 5503:1 6290:1 8825:1 9070:1 
530.9668120324174 1138:1 1240:1 1340:1 3541:1 5576:1 6826:1 6914:1 7697:1 
530.9668120324174 1111:1 4050:1 4522:1 5922:1 8900:1 
530.9668120324174 742:1 743:1 1189:1 2363:1 4731:1 5390:1 5639:1 6857:1 6909:1 6956:1 7114:1 7721:1 
530.9668120324174 3139:1 3637:1 7217:1 
530.9668120324174 227:1 742:1 1902:1 2363:1 2898:1 3222:1 3436:1 4050:1 4162:1 4411:1 4731:1 5206:1 5243:1 5390:1 5845:1 7721:1 8034:1 
530.9668120324174 266:1 1255:1 2548:1 2896:1 2946:1 3406:1 3432:1 3541:1 3547:1 3850:1 4000:1 4162:1 4298:1 4597:1 5005:1 5913:1 7721:1 8107:1 8109:1 8358:1 8830:1 
530.9668120324174 21:1 109:1 1451:1 1620:1 2872:1 2924:1 3541:1 4000:1 4731:1 4964:1 6279:1 7217:1 7322:1 8609:1 
530.9668120324174 165:1 315:1 552:1 656:1 787:1 1504:1 2946:1 3539:1 4050:1 4275:1 4837:1 4853:1 5136:1 5349:1 7636:1 7638:1 8340:1 8900:1 9053:1 
530.9668120324174 227:1 2019:1 3541:1 
302.8203648794068 3511:1 4275:1 5845:1 8156:1 
530.9668120324174 105:1 227:1 519:1 742:1 1079:1 1821:1 2220:1 2946:1 3406:1 3435:1 3541:1 3547:1 4050:1 4074:1 5091:1 5159:1 5639:1 5810:1 6865:1 6917:1 7265:1 7389:1 7697:1 
530.9668120324174 227:1 2382:1 2946:1 5255:1 6679:1 7636:1 8825:1 
530.9668120324174 519:1 743:1 3701:1 4050:1 4837:1 6583:1 
26.39221235085965 266:1 666:1 1596:1 2140:1 2363:1 2380:1 3406:1 4374:1 4837:1 5761:1 5845:1 6574:1 7114:1 7322:1 9053:1 
530.9668120324174 21:1 1568:1 2409:1 2946:1 4050:1 4298:1 4837:1 5386:1 6105:1 6386:1 8883:1 
530.9668120324174 
530.9668120324174 2548:1 2875:1 2946:1 3089:1 3444:1 3541:1 3635:1 3702:1 4532:1 5411:1 5913:1 6290:1 7350:1 
530.9668120324174 1426:1 1819:1 2059:1 2158:1 2553:1 3539:1 5063:1 5084:1 5431:1 5900:1 7043:1 7541:1 8344:1 
530.9668120324174 1933:1 2140:1 2946:1 3501:1 3530:1 3547:1 3551:1 3887:1 4275:1 5390:1 5492:1 6574:1 7697:1 7721:1 8825:1 
530.9668120324174 1821:1 2759:1 3222:1 3547:1 6188:1 8109:1 8568:1 
530.9668120324174 2158:1 2361:1 2678:1 3406:1 4621:1 4837:1 6791:1 7043:1 7066:1 7565:1 7697:1 7721:1 8145:1 
530.9668120324174 1952:1 7940:1 
530.9668120324174 2548:1 3860:1 5446:1 7013:1 
530.9668120324174 227:1 322:1 1340:1 1941:1 2545:1 2711:1 3547:1 6027:1 7350:1 7721:1 8109:1 
530.9668120324174 2946:1 3291:1 3406:1 3877:1 3916:1 4298:1 4731:1 5913:1 
530.9668120324174 105:1 377:1 674:1 2363:1 3436:1 4050:1 4067:1 4447:1 5845:1 7066:1 7721:1 8145:1 
530.9668120324174 1658:1 2946:1 4149:1 4298:1 4731:1 5261:1 6612:1 7636:1 8891:1 
530.9668120324174 227:1 2155:1 4950:1 7322:1 
251.3858018249338 2083:1 3220:1 4731:1 
530.9668120324174 3335:1 
530.9668120324174 519:1 666:1 2363:1 2605:1 2946:1 3291:1 3406:1 3465:1 3580:1 4304:1 4837:1 4964:1 5403:1 5639:1 6420:1 6612:1 7265:1 
530.9668120324174 802:1 1821:1 2158:1 2361:1 2541:1 2896:1 3406:1 3478:1 3916:1 4812:1 5403:1 6618:1 7043:1 7111:1 7697:1 8825:1 
530.9668120324174 7314:1 
64.81214051772447 3502:1 3878:1 7697:1 7762:1 8825:1 
530.9668120324174 1437:1 2532:1 2548:1 3353:1 3406:1 4304:1 4837:1 5431:1 7114:1 7322:1 7350:1 
530.9668120324174 109:1 315:1 3291:1 4050:1 5374:1 5403:1 7638:1 8226:1 8431:1 
530.9668120324174 109:1 2115:1 2363:1 3406:1 4119:1 5913:1 6124:1 6488:1 7636:1 8263:1 8659:1 
530.9668120324174 36:1 266:1 925:1 1551:1 1974:1 2471:1 3406:1 3478:1 3656:1 4069:1 5390:1 5446:1 5756:1 5845:1 6750:1 7533:1 7721:1 8226:1 9053:1 9069:1 
5.150482344262317 33:1 185:1 438:1 1437:1 1769:1 2363:1 2374:1 2636:1 2946:1 3406:1 4731:1 4943:1 5206:1 5258:1 5361:1 5390:1 5639:1 5913:1 6367:1 7043:1 7517:1 8004:1 8030:1 8825:1 
530.9668120324174 266:1 653:1 742:1 804:1 1769:1 1926:1 2140:1 2459:1 2896:1 3406:1 3547:1 4964:1 5668:1 5748:1 6636:1 7022:1 7697:1 7721:1 7795:1 8401:1 
176.7872422050978 2228:1 2653:1 7644:1 8441:1 8825:1 
530.9668120324174 510:1 2236:1 3406:1 3680:1 5403:1 5639:1 5761:1 7067:1 7697:1 
530.9668120324174 377:1 438:1 804:1 1207:1 2136:1 2363:1 2946:1 3539:1 3547:1 4837:1 4858:1 6470:1 8115:1 8441:1 
530.9668120324174 653:1 1098:1 2873:1 2875:1 3551:1 3682:1 4167:1 4597:1 4731:1 5390:1 5756:1 6290:1 7094:1 7322:1 7697:1 7721:1 7995:1 
530.9668120324174 1098:1 2363:1 2946:1 3785:1 7394:1 8684:1 
530.9668120324174 227:1 457:1 519:1 5572:1 8063:1 8441:1 
530.9668120324174 57:1 266:1 471:1 1098:1 2061:1 2946:1 3406:1 3635:1 4154:1 4244:1 4837:1 5390:1 5439:1 7340:1 7630:1 7686:1 7697:1 8320:1 
530.9668120324174 129:1 1738:1 5411:1 5556:1 7217:1 
530.9668120324174 231:1 377:1 1010:1 2119:1 2363:1 2385:1 2872:1 4275:1 4812:1 4837:1 4964:1 5047:1 5429:1 6851:1 7043:1 8063:1 8109:1 8825:1 
530.9668120324174 705:1 1620:1 2155:1 2725:1 3539:1 3547:1 7340:1 7392:1 7721:1 7858:1 8476:1 
530.9668120324174 1620:1 3189:1 3406:1 3544:1 3547:1 3915:1 4085:1 4253:1 4298:1 4646:1 4837:1 5390:1 5497:1 5720:1 5756:1 5986:1 6290:1 6636:1 7424:1 7721:1 8529:1 8825:1 
530.9668120324174 356:1 438:1 1255:1 8825:1 
530.9668120324174 315:1 1206:1 1313:1 1941:1 2635:1 2896:1 3123:1 4837:1 6016:1 6081:1 6636:1 7000:1 7043:1 7259:1 7340:1 7638:1 7721:1 7910:1 8109:1 8900:1 
530.9668120324174 2327:1 2946:1 4597:1 4731:1 8328:1 8816:1 
530.9668120324174 1915:1 2530:1 2626:1 3547:1 4303:1 4837:1 7697:1 7721:1 
530.9668120324174 266:1 1290:1 2946:1 3406:1 5761:1 6910:1 7340:1 7721:1 
530.9668120324174 266:1 2548:1 2706:1 
181.9536145116043 109:1 2409:1 2946:1 3483:1 4372:1 4731:1 5136:1 5881:1 7496:1 7721:1 7855:1 8321:1 8825:1 
530.9668120324174 1606:1 2290:1 2548:1 2946:1 5390:1 
530.9668120324174 109:1 3591:1 4119:1 4829:1 5136:1 6276:1 7151:1 7326:1 7636:1 7698:1 8348:1 8825:1 9069:1 
530.9668120324174 1404:1 7370:1 8622:1 
530.9668120324174 2946:1 2971:1 4601:1 5349:1 7697:1 
125.1403367114756 266:1 603:1 1626:1 1653:1 1739:1 2541:1 3406:1 3541:1 3575:1 4069:1 4122:1 4837:1 6290:1 6467:1 7273:1 7721:1 7772:1 8056:1 8140:1 8709:1 8825:1 
530.9668120324174 1098:1 1897:1 2301:1 2946:1 3406:1 3456:1 5066:1 5258:1 6832:1 
530.9668120324174 1340:1 2008:1 4837:1 6390:1 8825:1 
530.9668120324174 266:1 2213:1 2399:1 4745:1 6220:1 6772:1 8825:1 
530.9668120324174 81:1 1073:1 1340:1 1739:1 1923:1 2896:1 3291:1 3406:1 3539:1 4050:1 4074:1 4837:1 7340:1 7846:1 8579:1 8960:1 
530.9668120324174 1255:1 2904:1 
530.9668120324174 227:1 1675:1 1706:1 1817:1 2020:1 2363:1 2788:1 3406:1 3547:1 3916:1 4000:1 4943:1 5761:1 6327:1 6390:1 6795:1 9090:1 
530.9668120324174 178:1 266:1 304:1 630:1 1620:1 2360:1 2363:1 2543:1 3374:1 3406:1 4017:1 4341:1 4982:1 5293:1 5390:1 5748:1 5756:1 6053:1 7374:1 7636:1 7697:1 7721:1 8063:1 8358:1 8552:1 8825:1 8886:1 
530.9668120324174 2548:1 3539:1 4085:1 4597:1 5313:1 
530.9668120324174 2050:1 2363:1 2566:1 3222:1 4018:1 4022:1 4126:1 4837:1 5390:1 6523:1 6941:1 7043:1 7686:1 7697:1 7885:1 8830:1 
530.9668120324174 105:1 2337:1 2363:1 2946:1 3539:1 4275:1 4568:1 4731:1 6770:1 7636:1 7638:1 7721:1 7763:1 8063:1 8281:1 
530.9668120324174 835:1 1097:1 5948:1 6271:1 
530.9668120324174 3406:1 5761:1 7007:1 
530.9668120324174 114:1 742:1 875:1 1727:1 1777:1 2400:1 2871:1 2873:1 2875:1 2946:1 3547:1 3858:1 5293:1 5439:1 7350:1 
530.9668120324174 774:1 1240:1 1728:1 2228:1 2946:1 3014:1 3189:1 3406:1 3539:1 3547:1 3860:1 3983:1 4771:1 4837:1 5681:1 6823:1 8001:1 
530.9668120324174 6813:1 
530.9668120324174 227:1 694:1 743:1 1312:1 2363:1 2539:1 2613:1 2946:1 3406:1 3541:1 3829:1 3909:1 4837:1 4964:1 5293:1 5324:1 5390:1 5639:1 6917:1 7043:1 8825:1 8954:1 
530.9668120324174 1276:1 2946:1 3406:1 4050:1 4731:1 5258:1 7721:1 8155:1 8431:1 
530.9668120324174 266:1 1073:1 2083:1 2543:1 2623:1 2946:1 3406:1 4050:1 4069:1 4298:1 4770:1 4837:1 4964:1 5091:1 5980:1 6071:1 6618:1 7659:1 8265:1 
221.4564364681527 2543:1 3407:1 4069:1 4961:1 6459:1 8099:1 8532:1 
530.9668120324174 1620:1 2616:1 3635:1 3699:1 4851:1 4965:1 5293:1 5950:1 6636:1 7009:1 7721:1 8476:1 
530.9668120324174 2601:1 4050:1 6038:1 6367:1 
530.9668120324174 122:1 198:1 398:1 1966:1 2875:1 7389:1 8900:1 
530.9668120324174 74:1 915:1 3539:1 5655:1 
530.9668120324174 2363:1 2946:1 4792:1 6551:1 8825:1 8960:1 
276.3158046842641 371:1 1255:1 2019:1 2136:1 2548:1 5168:1 7636:1 7721:1 8825:1 
530.9668120324174 666:1 740:1 1073:1 1739:1 1821:1 2548:1 2896:1 3406:1 3547:1 3665:1 3877:1 4522:1 4731:1 4837:1 4861:1 5761:1 7000:1 7649:1 7772:1 8441:1 
530.9668120324174 315:1 743:1 1073:1 2459:1 2548:1 2566:1 2946:1 3760:1 3860:1 4837:1 5707:1 6789:1 7340:1 8542:1 8825:1 
440.4521725352652 198:1 666:1 1073:1 2363:1 2548:1 2946:1 3025:1 3920:1 4244:1 5325:1 7208:1 7217:1 7649:1 7721:1 7888:1 8307:1 8441:1 9016:1 
530.9668120324174 266:1 1240:1 1409:1 2548:1 2567:1 2946:1 3361:1 4050:1 4837:1 5275:1 5603:1 6838:1 8008:1 
530.9668120324174 1814:1 3181:1 3406:1 3478:1 4000:1 4522:1 4964:1 5063:1 5662:1 5761:1 5845:1 7636:1 7697:1 
530.9668120324174 309:1 653:1 2363:1 2873:1 3406:1 4000:1 4162:1 4597:1 7340:1 7697:1 8830:1 
530.9668120324174 653:1 1511:1 2925:1 3547:1 4522:1 5143:1 7697:1 
530.9668120324174 1659:1 1821:1 2513:1 2836:1 4964:1 5490:1 7217:1 8031:1 8063:1 8825:1 
530.9668120324174 674:1 1207:1 3406:1 3517:1 3887:1 4837:1 4853:1 5845:1 6290:1 7584:1 7671:1 7855:1 8542:1 8900:1 
530.9668120324174 743:1 1073:1 1204:1 3860:1 7697:1 8900:1 
530.9668120324174 542:1 1367:1 2002:1 2363:1 2615:1 4301:1 5411:1 7721:1 7814:1 
530.9668120324174 227:1 615:1 2374:1 4007:1 6823:1 6917:1 
530.9668120324174 24:1 105:1 198:1 615:1 742:1 1822:1 3406:1 4086:1 4244:1 4390:1 5761:1 6290:1 6636:1 6650:1 7066:1 7322:1 7439:1 7636:1 8156:1 
530.9668120324174 227:1 1620:1 3541:1 4189:1 7195:1 8441:1 8476:1 
530.9668120324174 483:1 2626:1 4837:1 5293:1 5390:1 7697:1 8109:1 8115:1 
349.8367100885889 68:1 144:1 185:1 403:1 1649:1 1948:1 3436:1 3490:1 3517:1 3541:1 4275:1 4476:1 4684:1 4766:1 4837:1 5390:1 5563:1 6826:1 6894:1 7777:1 8825:1 
530.9668120324174 7697:1 8156:1 
530.9668120324174 2946:1 3250:1 3406:1 3547:1 3763:1 4794:1 6793:1 7340:1 7417:1 8004:1 8825:1 
530.9668120324174 3016:1 3541:1 8103:1 
530.9668120324174 
530.9668120324174 2056:1 2567:1 3138:1 3539:1 3586:1 3623:1 4050:1 4702:1 4731:1 4864:1 5429:1 7322:1 7340:1 7772:1 8248:1 8825:1 
530.9668120324174 743:1 802:1 1403:1 2360:1 2380:1 3406:1 3541:1 4497:1 5761:1 5913:1 6390:1 
530.9668120324174 189:1 1154:1 2566:1 3547:1 3963:1 5889:1 6052:1 7350:1 7414:1 7568:1 7686:1 9058:1 
530.9668120324174 198:1 227:1 445:1 802:1 2363:1 2626:1 3539:1 3541:1 3916:1 4050:1 4837:1 4964:1 5309:1 5411:1 5845:1 5881:1 7697:1 8441:1 
530.9668120324174 198:1 315:1 844:1 1403:1 1821:1 2873:1 2946:1 4298:1 4310:1 4568:1 4746:1 5255:1 5258:1 6290:1 6941:1 7340:1 7671:1 7697:1 8900:1 
530.9668120324174 2020:1 2155:1 2172:1 5845:1 6861:1 
339.0952829292556 653:1 821:1 1216:1 1549:1 2545:1 2897:1 3013:1 3406:1 4716:1 4837:1 5639:1 7014:1 7686:1 8830:1 
149.2267427974494 32:1 246:1 653:1 666:1 1241:1 1434:1 2363:1 2371:1 3406:1 4050:1 4291:1 5639:1 
530.9668120324174 436:1 1997:1 3406:1 5066:1 5403:1 6636:1 7697:1 9053:1 
530.9668120324174 377:1 525:1 674:1 1058:1 1073:1 2019:1 2140:1 2869:1 3406:1 4298:1 5258:1 6917:1 7043:1 7721:1 8225:1 8361:1 
330.7663607350439 1894:1 2946:1 3228:1 3406:1 3541:1 4815:1 4837:1 8176:1 
530.9668120324174 2262:1 2519:1 3209:1 3539:1 5845:1 6467:1 
530.9668120324174 3547:1 3668:1 7350:1 8728:1 
530.9668120324174 429:1 6239:1 6467:1 
530.9668120324174 4069:1 4298:1 4585:1 4837:1 4943:1 5874:1 5900:1 8109:1 
530.9668120324174 454:1 1738:1 3406:1 3539:1 3547:1 4050:1 4149:1 4476:1 4766:1 7838:1 8063:1 8436:1 
284.4626683578302 285:1 1738:1 2946:1 3174:1 3435:1 3499:1 7340:1 7721:1 8076:1 8310:1 8439:1 8820:1 
